<?xml version="1.0"?>
<opencv_storage>
<car_0401 type_id="opencv-haar-classifier">
  <size>
    20 20</size>
  <stages>
    <_>
      <trees>
        <_>
          <_>
            <feature>
              <rects>
                <_>
                  8 10 2 8 -1.</_>
                <_>
                  6 12 2 4 2.</_></rects>
              <tilted>1</tilted></feature>
            <threshold>-0.0117861395701766</threshold>
            <left_val>0.5605661273002625</left_val>
            <right_val>-0.5181511044502258</right_val></_></_>
        <_>
          <_>
            <feature>
              <rects>
                <_>
                  9 18 11 2 -1.</_>
                <_>
                  9 19 11 1 2.</_></rects>
              <tilted>0</tilted></feature>
            <threshold>1.6167269786819816e-003</threshold>
            <left_val>-0.3880752027034760</left_val>
            <right_val>0.4769152998924255</right_val></_></_>
        <_>
          <_>
            <feature>
              <rects>
                <_>
                  5 4 10 16 -1.</_>
                <_>
                  5 8 10 8 2.</_></rects>
              <tilted>0</tilted></feature>
            <threshold>0.1716939955949783</threshold>
            <left_val>-0.2520759999752045</left_val>
            <right_val>0.6774231195449829</right_val></_></_>
        <_>
          <_>
            <feature>
              <rects>
                <_>
                  18 4 2 16 -1.</_>
                <_>
                  18 4 1 16 2.</_></rects>
              <tilted>0</tilted></feature>
            <threshold>-0.0106996502727270</threshold>
            <left_val>0.7788199782371521</left_val>
            <right_val>-0.1997087001800537</right_val></_></_>
        <_>
          <_>
            <feature>
              <rects>
                <_>
                  0 4 2 16 -1.</_>
                <_>
                  1 4 1 16 2.</_></rects>
              <tilted>0</tilted></feature>
            <threshold>-0.0100839203223586</threshold>
            <left_val>0.6350505948066711</left_val>
            <right_val>-0.1623573005199432</right_val></_></_>
        <_>
          <_>
            <feature>
              <rects>
                <_>
                  10 0 1 9 -1.</_>
                <_>
                  7 3 1 3 3.</_></rects>
              <tilted>1</tilted></feature>
            <threshold>-0.0140821002423763</threshold>
            <left_val>0.4065803885459900</left_val>
            <right_val>-0.1723290979862213</right_val></_></_>
        <_>
          <_>
            <feature>
              <rects>
                <_>
                  10 3 6 1 -1.</_>
                <_>
                  12 5 2 1 3.</_></rects>
              <tilted>1</tilted></feature>
            <threshold>-9.1421939432621002e-003</threshold>
            <left_val>0.4852002859115601</left_val>
            <right_val>-0.2100418061017990</right_val></_></_>
        <_>
          <_>
            <feature>
              <rects>
                <_>
                  13 0 7 3 -1.</_>
                <_>
                  12 1 7 1 3.</_></rects>
              <tilted>1</tilted></feature>
            <threshold>-9.2866085469722748e-003</threshold>
            <left_val>0.3734098076820374</left_val>
            <right_val>-0.1106844991445541</right_val></_></_>
        <_>
          <_>
            <feature>
              <rects>
                <_>
                  0 0 16 20 -1.</_>
                <_>
                  8 0 8 20 2.</_></rects>
              <tilted>0</tilted></feature>
            <threshold>0.0821367576718330</threshold>
            <left_val>0.2167295962572098</left_val>
            <right_val>-0.4960102140903473</right_val></_></_>
        <_>
          <_>
            <feature>
              <rects>
                <_>
                  9 13 5 6 -1.</_>
                <_>
                  9 16 5 3 2.</_></rects>
              <tilted>0</tilted></feature>
            <threshold>-0.0328838787972927</threshold>
            <left_val>0.2897315025329590</left_val>
            <right_val>-0.1737914979457855</right_val></_></_>
        <_>
          <_>
            <feature>
              <rects>
                <_>
                  3 6 4 4 -1.</_>
                <_>
                  3 6 2 2 2.</_>
                <_>
                  5 8 2 2 2.</_></rects>
              <tilted>0</tilted></feature>
            <threshold>1.8544689519330859e-003</threshold>
            <left_val>-0.2349283993244171</left_val>
            <right_val>0.3556995987892151</right_val></_></_>
        <_>
          <_>
            <feature>
              <rects>
                <_>
                  13 18 4 2 -1.</_>
                <_>
                  13 19 4 1 2.</_></rects>
              <tilted>0</tilted></feature>
            <threshold>5.3163180127739906e-003</threshold>
            <left_val>-0.0544159896671772</left_val>
            <right_val>0.3362118899822235</right_val></_></_>
        <_>
          <_>
            <feature>
              <rects>
                <_>
                  2 4 3 1 -1.</_>
                <_>
                  3 4 1 1 3.</_></rects>
              <tilted>0</tilted></feature>
            <threshold>-1.3005950022488832e-003</threshold>
            <left_val>0.5632777810096741</left_val>
            <right_val>-0.1294372975826263</right_val></_></_>
        <_>
          <_>
            <feature>
              <rects>
                <_>
                  14 4 6 1 -1.</_>
                <_>
                  16 4 2 1 3.</_></rects>
              <tilted>0</tilted></feature>
            <threshold>-2.5979271158576012e-003</threshold>
            <left_val>0.4340158998966217</left_val>
            <right_val>-0.1368494033813477</right_val></_></_></trees>
      <stage_threshold>-1.5784989595413208</stage_threshold>
      <parent>-1</parent>
      <next>-1</next></_>
    <_>
      <trees>
        <_>
          <_>
            <feature>
              <rects>
                <_>
                  0 12 20 8 -1.</_>
                <_>
                  0 14 20 4 2.</_></rects>
              <tilted>0</tilted></feature>
            <threshold>-0.0443410612642765</threshold>
            <left_val>0.4676480889320374</left_val>
            <right_val>-0.4801990091800690</right_val></_></_>
        <_>
          <_>
            <feature>
              <rects>
                <_>
                  11 2 9 18 -1.</_>
                <_>
                  11 11 9 9 2.</_></rects>
              <tilted>0</tilted></feature>
            <threshold>0.0175842605531216</threshold>
            <left_val>0.2298890948295593</left_val>
            <right_val>-0.6681048274040222</right_val></_></_>
        <_>
          <_>
            <feature>
              <rects>
                <_>
                  4 4 12 16 -1.</_>
                <_>
                  4 8 12 8 2.</_></rects>
              <tilted>0</tilted></feature>
            <threshold>0.2132827937602997</threshold>
            <left_val>-0.2458250969648361</left_val>
            <right_val>0.5679507851600647</right_val></_></_>
        <_>
          <_>
            <feature>
              <rects>
                <_>
                  0 19 20 1 -1.</_>
                <_>
                  5 19 10 1 2.</_></rects>
              <tilted>0</tilted></feature>
            <threshold>-2.2860330063849688e-003</threshold>
            <left_val>0.3636386096477509</left_val>
            <right_val>-0.4153296947479248</right_val></_></_>
        <_>
          <_>
            <feature>
              <rects>
                <_>
                  2 2 14 18 -1.</_>
                <_>
                  2 2 7 9 2.</_>
                <_>
                  9 11 7 9 2.</_></rects>
              <tilted>0</tilted></feature>
            <threshold>-0.0185369309037924</threshold>
            <left_val>-0.4878971874713898</left_val>
            <right_val>0.2381467968225479</right_val></_></_>
        <_>
          <_>
            <feature>
              <rects>
                <_>
                  13 18 5 2 -1.</_>
                <_>
                  13 19 5 1 2.</_></rects>
              <tilted>0</tilted></feature>
            <threshold>2.0751820411533117e-003</threshold>
            <left_val>-0.2194236963987351</left_val>
            <right_val>0.2611624002456665</right_val></_></_>
        <_>
          <_>
            <feature>
              <rects>
                <_>
                  7 0 5 6 -1.</_>
                <_>
                  5 2 5 2 3.</_></rects>
              <tilted>1</tilted></feature>
            <threshold>-0.0165685191750526</threshold>
            <left_val>0.2868185937404633</left_val>
            <right_val>-0.2819654941558838</right_val></_></_>
        <_>
          <_>
            <feature>
              <rects>
                <_>
                  18 13 2 1 -1.</_>
                <_>
                  18 13 1 1 2.</_></rects>
              <tilted>1</tilted></feature>
            <threshold>-3.1129899434745312e-003</threshold>
            <left_val>0.3830054104328156</left_val>
            <right_val>-0.0765117034316063</right_val></_></_>
        <_>
          <_>
            <feature>
              <rects>
                <_>
                  6 5 4 6 -1.</_>
                <_>
                  4 7 4 2 3.</_></rects>
              <tilted>1</tilted></feature>
            <threshold>-9.6172597259283066e-003</threshold>
            <left_val>0.3479436039924622</left_val>
            <right_val>-0.2147743999958038</right_val></_></_>
        <_>
          <_>
            <feature>
              <rects>
                <_>
                  18 18 2 2 -1.</_>
                <_>
                  18 18 1 2 2.</_></rects>
              <tilted>0</tilted></feature>
            <threshold>1.7159299750346690e-004</threshold>
            <left_val>0.1199487969279289</left_val>
            <right_val>-0.3009305000305176</right_val></_></_>
        <_>
          <_>
            <feature>
              <rects>
                <_>
                  3 0 2 20 -1.</_>
                <_>
                  3 10 2 10 2.</_></rects>
              <tilted>0</tilted></feature>
            <threshold>0.0182980597019196</threshold>
            <left_val>0.1193332001566887</left_val>
            <right_val>-0.5531532168388367</right_val></_></_>
        <_>
          <_>
            <feature>
              <rects>
                <_>
                  12 13 8 4 -1.</_>
                <_>
                  16 13 4 2 2.</_>
                <_>
                  12 15 4 2 2.</_></rects>
              <tilted>0</tilted></feature>
            <threshold>-9.4748381525278091e-003</threshold>
            <left_val>0.1685162037611008</left_val>
            <right_val>-0.0744226798415184</right_val></_></_>
        <_>
          <_>
            <feature>
              <rects>
                <_>
                  0 13 3 2 -1.</_>
                <_>
                  0 14 3 1 2.</_></rects>
              <tilted>0</tilted></feature>
            <threshold>6.1081489548087120e-005</threshold>
            <left_val>-0.2433280944824219</left_val>
            <right_val>0.3209835886955261</right_val></_></_>
        <_>
          <_>
            <feature>
              <rects>
                <_>
                  13 4 2 8 -1.</_>
                <_>
                  13 4 2 4 2.</_></rects>
              <tilted>1</tilted></feature>
            <threshold>-0.0234774891287088</threshold>
            <left_val>0.3189216852188110</left_val>
            <right_val>-0.1664409041404724</right_val></_></_>
        <_>
          <_>
            <feature>
              <rects>
                <_>
                  0 18 2 2 -1.</_>
                <_>
                  1 18 1 2 2.</_></rects>
              <tilted>0</tilted></feature>
            <threshold>3.7937500746920705e-004</threshold>
            <left_val>0.1432873010635376</left_val>
            <right_val>-0.4515326917171478</right_val></_></_>
        <_>
          <_>
            <feature>
              <rects>
                <_>
                  11 18 7 2 -1.</_>
                <_>
                  11 19 7 1 2.</_></rects>
              <tilted>0</tilted></feature>
            <threshold>-0.0163273606449366</threshold>
            <left_val>0.3550494909286499</left_val>
            <right_val>-0.0297758504748344</right_val></_></_>
        <_>
          <_>
            <feature>
              <rects>
                <_>
                  2 18 7 2 -1.</_>
                <_>
                  2 19 7 1 2.</_></rects>
              <tilted>0</tilted></feature>
            <threshold>6.5092383010778576e-005</threshold>
            <left_val>-0.2674058079719544</left_val>
            <right_val>0.2324074953794479</right_val></_></_>
        <_>
          <_>
            <feature>
              <rects>
                <_>
                  0 9 20 6 -1.</_>
                <_>
                  0 12 20 3 2.</_></rects>
              <tilted>0</tilted></feature>
            <threshold>-0.1707935035228729</threshold>
            <left_val>0.6245188713073731</left_val>
            <right_val>-0.1168704032897949</right_val></_></_>
        <_>
          <_>
            <feature>
              <rects>
                <_>
                  2 0 10 10 -1.</_>
                <_>
                  2 5 10 5 2.</_></rects>
              <tilted>0</tilted></feature>
            <threshold>0.0607044696807861</threshold>
            <left_val>0.1258579939603806</left_val>
            <right_val>-0.5257161259651184</right_val></_></_>
        <_>
          <_>
            <feature>
              <rects>
                <_>
                  9 4 8 16 -1.</_>
                <_>
                  9 4 4 16 2.</_></rects>
              <tilted>0</tilted></feature>
            <threshold>-0.0745361000299454</threshold>
            <left_val>-0.2937234938144684</left_val>
            <right_val>0.0373007506132126</right_val></_></_>
        <_>
          <_>
            <feature>
              <rects>
                <_>
                  3 4 8 16 -1.</_>
                <_>
                  7 4 4 16 2.</_></rects>
              <tilted>0</tilted></feature>
            <threshold>0.0665762200951576</threshold>
            <left_val>0.0729639530181885</left_val>
            <right_val>-0.6900169849395752</right_val></_></_>
        <_>
          <_>
            <feature>
              <rects>
                <_>
                  12 2 4 12 -1.</_>
                <_>
                  9 5 4 6 2.</_></rects>
              <tilted>1</tilted></feature>
            <threshold>-0.0836088135838509</threshold>
            <left_val>0.3544858098030090</left_val>
            <right_val>-0.0531203411519527</right_val></_></_>
        <_>
          <_>
            <feature>
              <rects>
                <_>
                  8 2 12 4 -1.</_>
                <_>
                  11 5 6 4 2.</_></rects>
              <tilted>1</tilted></feature>
            <threshold>0.1279800981283188</threshold>
            <left_val>-0.0947734490036964</left_val>
            <right_val>0.5916364789009094</right_val></_></_>
        <_>
          <_>
            <feature>
              <rects>
                <_>
                  14 4 3 8 -1.</_>
                <_>
                  14 4 3 4 2.</_></rects>
              <tilted>1</tilted></feature>
            <threshold>0.0528593286871910</threshold>
            <left_val>-0.0514685697853565</left_val>
            <right_val>0.2343062013387680</right_val></_></_>
        <_>
          <_>
            <feature>
              <rects>
                <_>
                  8 0 2 1 -1.</_>
                <_>
                  9 0 1 1 2.</_></rects>
              <tilted>0</tilted></feature>
            <threshold>-1.0954949539154768e-003</threshold>
            <left_val>-0.5700243711471558</left_val>
            <right_val>0.0906562134623528</right_val></_></_></trees>
      <stage_threshold>-1.4650059938430786</stage_threshold>
      <parent>0</parent>
      <next>-1</next></_>
    <_>
      <trees>
        <_>
          <_>
            <feature>
              <rects>
                <_>
                  2 7 9 12 -1.</_>
                <_>
                  2 13 9 6 2.</_></rects>
              <tilted>0</tilted></feature>
            <threshold>-0.1042120978236198</threshold>
            <left_val>0.3998048901557922</left_val>
            <right_val>-0.4731105864048004</right_val></_></_>
        <_>
          <_>
            <feature>
              <rects>
                <_>
                  13 16 7 4 -1.</_>
                <_>
                  13 18 7 2 2.</_></rects>
              <tilted>0</tilted></feature>
            <threshold>3.0417940579354763e-003</threshold>
            <left_val>-0.3790625035762787</left_val>
            <right_val>0.3305239975452423</right_val></_></_>
        <_>
          <_>
            <feature>
              <rects>
                <_>
                  3 4 14 15 -1.</_>
                <_>
                  3 9 14 5 3.</_></rects>
              <tilted>0</tilted></feature>
            <threshold>0.4502930939197540</threshold>
            <left_val>-0.1936610937118530</left_val>
            <right_val>0.8273270130157471</right_val></_></_>
        <_>
          <_>
            <feature>
              <rects>
                <_>
                  16 10 4 8 -1.</_>
                <_>
                  16 10 2 8 2.</_></rects>
              <tilted>0</tilted></feature>
            <threshold>-0.0226371996104717</threshold>
            <left_val>0.6215857863426209</left_val>
            <right_val>-0.1467590034008026</right_val></_></_>
        <_>
          <_>
            <feature>
              <rects>
                <_>
                  10 0 6 1 -1.</_>
                <_>
                  10 0 3 1 2.</_></rects>
              <tilted>1</tilted></feature>
            <threshold>4.7691580839455128e-003</threshold>
            <left_val>-0.3305959999561310</left_val>
            <right_val>0.2873165905475617</right_val></_></_>
        <_>
          <_>
            <feature>
              <rects>
                <_>
                  1 5 18 7 -1.</_>
                <_>
                  1 5 9 7 2.</_></rects>
              <tilted>0</tilted></feature>
            <threshold>0.0496910102665424</threshold>
            <left_val>0.2182911038398743</left_val>
            <right_val>-0.4362451136112213</right_val></_></_>
        <_>
          <_>
            <feature>
              <rects>
                <_>
                  0 8 2 8 -1.</_>
                <_>
                  1 8 1 8 2.</_></rects>
              <tilted>0</tilted></feature>
            <threshold>-6.5613850019872189e-003</threshold>
            <left_val>0.5026478767395020</left_val>
            <right_val>-0.1456685066223145</right_val></_></_>
        <_>
          <_>
            <feature>
              <rects>
                <_>
                  7 3 8 6 -1.</_>
                <_>
                  7 5 8 2 3.</_></rects>
              <tilted>0</tilted></feature>
            <threshold>-7.5371009297668934e-003</threshold>
            <left_val>0.1944634020328522</left_val>
            <right_val>-0.2626326978206635</right_val></_></_>
        <_>
          <_>
            <feature>
              <rects>
                <_>
                  7 13 4 6 -1.</_>
                <_>
                  7 16 4 3 2.</_></rects>
              <tilted>0</tilted></feature>
            <threshold>-0.0141167901456356</threshold>
            <left_val>0.2877452969551086</left_val>
            <right_val>-0.2562940120697022</right_val></_></_>
        <_>
          <_>
            <feature>
              <rects>
                <_>
                  16 5 4 8 -1.</_>
                <_>
                  16 5 4 4 2.</_></rects>
              <tilted>1</tilted></feature>
            <threshold>0.0269274003803730</threshold>
            <left_val>-0.1739578992128372</left_val>
            <right_val>0.1622191965579987</right_val></_></_>
        <_>
          <_>
            <feature>
              <rects>
                <_>
                  7 17 2 1 -1.</_>
                <_>
                  7 17 1 1 2.</_></rects>
              <tilted>1</tilted></feature>
            <threshold>-4.2186598875559866e-004</threshold>
            <left_val>0.3024170100688934</left_val>
            <right_val>-0.2479601949453354</right_val></_></_>
        <_>
          <_>
            <feature>
              <rects>
                <_>
                  10 4 3 6 -1.</_>
                <_>
                  10 4 3 3 2.</_></rects>
              <tilted>1</tilted></feature>
            <threshold>0.0430145002901554</threshold>
            <left_val>-0.0629285201430321</left_val>
            <right_val>0.3058714866638184</right_val></_></_>
        <_>
          <_>
            <feature>
              <rects>
                <_>
                  6 0 13 6 -1.</_>
                <_>
                  6 0 13 3 2.</_></rects>
              <tilted>1</tilted></feature>
            <threshold>0.0723406523466110</threshold>
            <left_val>0.1696905046701431</left_val>
            <right_val>-0.3859165906906128</right_val></_></_>
        <_>
          <_>
            <feature>
              <rects>
                <_>
                  4 0 12 2 -1.</_>
                <_>
                  4 1 12 1 2.</_></rects>
              <tilted>0</tilted></feature>
            <threshold>-0.0117283696308732</threshold>
            <left_val>0.4032557904720306</left_val>
            <right_val>-0.1624242961406708</right_val></_></_>
        <_>
          <_>
            <feature>
              <rects>
                <_>
                  0 0 20 1 -1.</_>
                <_>
                  10 0 10 1 2.</_></rects>
              <tilted>0</tilted></feature>
            <threshold>-0.0365624092519283</threshold>
            <left_val>-0.8836011886596680</left_val>
            <right_val>0.0737456902861595</right_val></_></_>
        <_>
          <_>
            <feature>
              <rects>
                <_>
                  3 0 16 7 -1.</_>
                <_>
                  3 0 8 7 2.</_></rects>
              <tilted>0</tilted></feature>
            <threshold>-0.0859278067946434</threshold>
            <left_val>-0.5598359704017639</left_val>
            <right_val>0.0638544633984566</right_val></_></_>
        <_>
          <_>
            <feature>
              <rects>
                <_>
                  6 6 4 2 -1.</_>
                <_>
                  8 6 2 2 2.</_></rects>
              <tilted>0</tilted></feature>
            <threshold>2.1934940377832390e-005</threshold>
            <left_val>-0.2563717961311340</left_val>
            <right_val>0.2380813956260681</right_val></_></_>
        <_>
          <_>
            <feature>
              <rects>
                <_>
                  9 0 4 16 -1.</_>
                <_>
                  9 0 2 16 2.</_></rects>
              <tilted>0</tilted></feature>
            <threshold>-5.2983718924224377e-003</threshold>
            <left_val>0.1193962022662163</left_val>
            <right_val>-0.0587485916912556</right_val></_></_>
        <_>
          <_>
            <feature>
              <rects>
                <_>
                  7 0 4 16 -1.</_>
                <_>
                  9 0 2 16 2.</_></rects>
              <tilted>0</tilted></feature>
            <threshold>0.0290321595966816</threshold>
            <left_val>0.0782162770628929</left_val>
            <right_val>-0.7722939252853394</right_val></_></_>
        <_>
          <_>
            <feature>
              <rects>
                <_>
                  12 4 4 8 -1.</_>
                <_>
                  12 4 4 4 2.</_></rects>
              <tilted>1</tilted></feature>
            <threshold>-0.0450983792543411</threshold>
            <left_val>0.2629672884941101</left_val>
            <right_val>-0.1184561997652054</right_val></_></_></trees>
      <stage_threshold>-1.2815419435501099</stage_threshold>
      <parent>1</parent>
      <next>-1</next></_>
    <_>
      <trees>
        <_>
          <_>
            <feature>
              <rects>
                <_>
                  5 5 10 12 -1.</_>
                <_>
                  5 8 10 6 2.</_></rects>
              <tilted>0</tilted></feature>
            <threshold>0.1901745051145554</threshold>
            <left_val>-0.2182926982641220</left_val>
            <right_val>0.8571674227714539</right_val></_></_>
        <_>
          <_>
            <feature>
              <rects>
                <_>
                  9 2 11 18 -1.</_>
                <_>
                  9 11 11 9 2.</_></rects>
              <tilted>0</tilted></feature>
            <threshold>-0.0798267722129822</threshold>
            <left_val>0.2586325109004974</left_val>
            <right_val>-0.4855817854404450</right_val></_></_>
        <_>
          <_>
            <feature>
              <rects>
                <_>
                  6 12 2 6 -1.</_>
                <_>
                  4 14 2 2 3.</_></rects>
              <tilted>1</tilted></feature>
            <threshold>-0.0215587094426155</threshold>
            <left_val>0.5544462800025940</left_val>
            <right_val>-0.2386727035045624</right_val></_></_>
        <_>
          <_>
            <feature>
              <rects>
                <_>
                  1 19 18 1 -1.</_>
                <_>
                  7 19 6 1 3.</_></rects>
              <tilted>0</tilted></feature>
            <threshold>-6.4709602156654000e-005</threshold>
            <left_val>0.1799069046974182</left_val>
            <right_val>-0.4833632111549377</right_val></_></_>
        <_>
          <_>
            <feature>
              <rects>
                <_>
                  5 1 7 3 -1.</_>
                <_>
                  5 2 7 1 3.</_></rects>
              <tilted>0</tilted></feature>
            <threshold>0.0135125704109669</threshold>
            <left_val>-0.1143838018178940</left_val>
            <right_val>0.6938905715942383</right_val></_></_>
        <_>
          <_>
            <feature>
              <rects>
                <_>
                  2 1 16 3 -1.</_>
                <_>
                  2 2 16 1 3.</_></rects>
              <tilted>0</tilted></feature>
            <threshold>-0.0127785596996546</threshold>
            <left_val>0.5082916021347046</left_val>
            <right_val>-0.1791016012430191</right_val></_></_>
        <_>
          <_>
            <feature>
              <rects>
                <_>
                  4 6 12 12 -1.</_>
                <_>
                  4 10 12 4 3.</_></rects>
              <tilted>0</tilted></feature>
            <threshold>0.3210889995098114</threshold>
            <left_val>-0.0821662023663521</left_val>
            <right_val>0.9749444127082825</right_val></_></_>
        <_>
          <_>
            <feature>
              <rects>
                <_>
                  4 0 14 6 -1.</_>
                <_>
                  4 0 7 6 2.</_></rects>
              <tilted>0</tilted></feature>
            <threshold>-0.0644309893250465</threshold>
            <left_val>-0.6497094035148621</left_val>
            <right_val>0.1067914962768555</right_val></_></_>
        <_>
          <_>
            <feature>
              <rects>
                <_>
                  6 7 2 6 -1.</_>
                <_>
                  6 7 1 6 2.</_></rects>
              <tilted>1</tilted></feature>
            <threshold>4.4755730777978897e-003</threshold>
            <left_val>-0.3273803889751434</left_val>
            <right_val>0.2648408114910126</right_val></_></_>
        <_>
          <_>
            <feature>
              <rects>
                <_>
                  7 5 12 9 -1.</_>
                <_>
                  11 8 4 3 9.</_></rects>
              <tilted>0</tilted></feature>
            <threshold>-0.1142925992608070</threshold>
            <left_val>0.2868663072586060</left_val>
            <right_val>-0.0708807632327080</right_val></_></_>
        <_>
          <_>
            <feature>
              <rects>
                <_>
                  4 0 8 3 -1.</_>
                <_>
                  6 2 4 3 2.</_></rects>
              <tilted>1</tilted></feature>
            <threshold>-0.0186429005116224</threshold>
            <left_val>0.3896943926811218</left_val>
            <right_val>-0.2402610033750534</right_val></_></_>
        <_>
          <_>
            <feature>
              <rects>
                <_>
                  4 2 16 5 -1.</_>
                <_>
                  8 2 8 5 2.</_></rects>
              <tilted>0</tilted></feature>
            <threshold>0.0656951069831848</threshold>
            <left_val>0.0410596691071987</left_val>
            <right_val>-0.7952210903167725</right_val></_></_>
        <_>
          <_>
            <feature>
              <rects>
                <_>
                  0 2 16 5 -1.</_>
                <_>
                  4 2 8 5 2.</_></rects>
              <tilted>0</tilted></feature>
            <threshold>0.1103790029883385</threshold>
            <left_val>-0.1148737967014313</left_val>
            <right_val>0.8921445012092590</right_val></_></_>
        <_>
          <_>
            <feature>
              <rects>
                <_>
                  4 16 16 4 -1.</_>
                <_>
                  4 17 16 2 2.</_></rects>
              <tilted>0</tilted></feature>
            <threshold>-0.0349092893302441</threshold>
            <left_val>0.5874623060226440</left_val>
            <right_val>-0.0664344727993011</right_val></_></_>
        <_>
          <_>
            <feature>
              <rects>
                <_>
                  0 0 20 1 -1.</_>
                <_>
                  10 0 10 1 2.</_></rects>
              <tilted>0</tilted></feature>
            <threshold>-0.0200203396379948</threshold>
            <left_val>-0.4839236140251160</left_val>
            <right_val>0.1294620931148529</right_val></_></_>
        <_>
          <_>
            <feature>
              <rects>
                <_>
                  11 4 3 8 -1.</_>
                <_>
                  11 4 3 4 2.</_></rects>
              <tilted>1</tilted></feature>
            <threshold>0.1152694001793861</threshold>
            <left_val>-4.8743389197625220e-004</left_val>
            <right_val>-0.7272080779075623</right_val></_></_>
        <_>
          <_>
            <feature>
              <rects>
                <_>
                  9 4 8 3 -1.</_>
                <_>
                  9 4 4 3 2.</_></rects>
              <tilted>1</tilted></feature>
            <threshold>-0.0833018571138382</threshold>
            <left_val>0.7154365181922913</left_val>
            <right_val>-0.0924332663416862</right_val></_></_>
        <_>
          <_>
            <feature>
              <rects>
                <_>
                  15 4 1 15 -1.</_>
                <_>
                  10 9 1 5 3.</_></rects>
              <tilted>1</tilted></feature>
            <threshold>-0.0567556805908680</threshold>
            <left_val>0.4907684028148651</left_val>
            <right_val>-0.0395173281431198</right_val></_></_>
        <_>
          <_>
            <feature>
              <rects>
                <_>
                  10 4 10 4 -1.</_>
                <_>
                  10 4 5 4 2.</_></rects>
              <tilted>1</tilted></feature>
            <threshold>0.0525238290429115</threshold>
            <left_val>-0.2871462106704712</left_val>
            <right_val>0.2240034937858582</right_val></_></_>
        <_>
          <_>
            <feature>
              <rects>
                <_>
                  12 4 4 2 -1.</_>
                <_>
                  13 4 2 2 2.</_></rects>
              <tilted>0</tilted></feature>
            <threshold>4.5238169841468334e-003</threshold>
            <left_val>-0.0384796001017094</left_val>
            <right_val>0.4106793105602264</right_val></_></_>
        <_>
          <_>
            <feature>
              <rects>
                <_>
                  4 4 4 2 -1.</_>
                <_>
                  5 4 2 2 2.</_></rects>
              <tilted>0</tilted></feature>
            <threshold>-2.1541789465118200e-005</threshold>
            <left_val>0.2616637051105499</left_val>
            <right_val>-0.2832930982112885</right_val></_></_>
        <_>
          <_>
            <feature>
              <rects>
                <_>
                  18 18 2 2 -1.</_>
                <_>
                  18 19 2 1 2.</_></rects>
              <tilted>0</tilted></feature>
            <threshold>-4.2311029392294586e-004</threshold>
            <left_val>-0.2982183992862701</left_val>
            <right_val>0.1034443005919457</right_val></_></_>
        <_>
          <_>
            <feature>
              <rects>
                <_>
                  8 13 4 3 -1.</_>
                <_>
                  8 14 4 1 3.</_></rects>
              <tilted>0</tilted></feature>
            <threshold>9.3752881512045860e-003</threshold>
            <left_val>-0.1019721031188965</left_val>
            <right_val>0.6460220813751221</right_val></_></_>
        <_>
          <_>
            <feature>
              <rects>
                <_>
                  18 18 2 2 -1.</_>
                <_>
                  18 19 2 1 2.</_></rects>
              <tilted>0</tilted></feature>
            <threshold>0.0124437799677253</threshold>
            <left_val>0.0260161198675632</left_val>
            <right_val>-0.8115190267562866</right_val></_></_></trees>
      <stage_threshold>-1.2542779445648193</stage_threshold>
      <parent>2</parent>
      <next>-1</next></_>
    <_>
      <trees>
        <_>
          <_>
            <feature>
              <rects>
                <_>
                  4 10 11 8 -1.</_>
                <_>
                  4 14 11 4 2.</_></rects>
              <tilted>0</tilted></feature>
            <threshold>-0.2110003978013992</threshold>
            <left_val>0.9735894203186035</left_val>
            <right_val>-0.1793107986450195</right_val></_></_>
        <_>
          <_>
            <feature>
              <rects>
                <_>
                  1 16 18 4 -1.</_>
                <_>
                  1 18 18 2 2.</_></rects>
              <tilted>0</tilted></feature>
            <threshold>0.0429515093564987</threshold>
            <left_val>-0.2131710946559906</left_val>
            <right_val>0.6280704140663147</right_val></_></_>
        <_>
          <_>
            <feature>
              <rects>
                <_>
                  1 8 17 10 -1.</_>
                <_>
                  1 13 17 5 2.</_></rects>
              <tilted>0</tilted></feature>
            <threshold>-0.3153088986873627</threshold>
            <left_val>0.7357829809188843</left_val>
            <right_val>-0.1293185949325562</right_val></_></_>
        <_>
          <_>
            <feature>
              <rects>
                <_>
                  5 1 12 6 -1.</_>
                <_>
                  9 3 4 2 9.</_></rects>
              <tilted>0</tilted></feature>
            <threshold>0.0671220570802689</threshold>
            <left_val>-0.1164510995149612</left_val>
            <right_val>0.4298106133937836</right_val></_></_>
        <_>
          <_>
            <feature>
              <rects>
                <_>
                  0 19 20 1 -1.</_>
                <_>
                  5 19 10 1 2.</_></rects>
              <tilted>0</tilted></feature>
            <threshold>-5.1546277245506644e-004</threshold>
            <left_val>0.2022452056407929</left_val>
            <right_val>-0.4804905951023102</right_val></_></_>
        <_>
          <_>
            <feature>
              <rects>
                <_>
                  10 12 6 4 -1.</_>
                <_>
                  10 12 3 4 2.</_></rects>
              <tilted>0</tilted></feature>
            <threshold>-0.0324912108480930</threshold>
            <left_val>-0.6335465908050537</left_val>
            <right_val>0.0334772318601608</right_val></_></_>
        <_>
          <_>
            <feature>
              <rects>
                <_>
                  4 12 6 4 -1.</_>
                <_>
                  7 12 3 4 2.</_></rects>
              <tilted>0</tilted></feature>
            <threshold>-0.0115432199090719</threshold>
            <left_val>-0.6028686165809631</left_val>
            <right_val>0.1591902971267700</right_val></_></_>
        <_>
          <_>
            <feature>
              <rects>
                <_>
                  4 0 13 2 -1.</_>
                <_>
                  4 1 13 1 2.</_></rects>
              <tilted>0</tilted></feature>
            <threshold>-0.0248886607587337</threshold>
            <left_val>0.6892104744911194</left_val>
            <right_val>-0.1417188942432404</right_val></_></_>
        <_>
          <_>
            <feature>
              <rects>
                <_>
                  8 5 8 1 -1.</_>
                <_>
                  8 5 4 1 2.</_></rects>
              <tilted>1</tilted></feature>
            <threshold>-0.0233057904988527</threshold>
            <left_val>0.7341688275337219</left_val>
            <right_val>-0.1046938970685005</right_val></_></_>
        <_>
          <_>
            <feature>
              <rects>
                <_>
                  15 4 1 15 -1.</_>
                <_>
                  10 9 1 5 3.</_></rects>
              <tilted>1</tilted></feature>
            <threshold>0.0890441164374352</threshold>
            <left_val>-0.0211169999092817</left_val>
            <right_val>0.6265953183174133</right_val></_></_>
        <_>
          <_>
            <feature>
              <rects>
                <_>
                  3 3 12 3 -1.</_>
                <_>
                  3 3 6 3 2.</_></rects>
              <tilted>1</tilted></feature>
            <threshold>0.0682885795831680</threshold>
            <left_val>-0.3704723119735718</left_val>
            <right_val>0.2818874120712280</right_val></_></_>
        <_>
          <_>
            <feature>
              <rects>
                <_>
                  10 0 1 9 -1.</_>
                <_>
                  7 3 1 3 3.</_></rects>
              <tilted>1</tilted></feature>
            <threshold>-0.0194719806313515</threshold>
            <left_val>0.2622640132904053</left_val>
            <right_val>-0.0829243734478951</right_val></_></_>
        <_>
          <_>
            <feature>
              <rects>
                <_>
                  5 0 8 2 -1.</_>
                <_>
                  7 2 4 2 2.</_></rects>
              <tilted>1</tilted></feature>
            <threshold>0.0404127798974514</threshold>
            <left_val>-0.1002866998314858</left_val>
            <right_val>0.8049129247665405</right_val></_></_>
        <_>
          <_>
            <feature>
              <rects>
                <_>
                  11 0 4 3 -1.</_>
                <_>
                  11 1 4 1 3.</_></rects>
              <tilted>0</tilted></feature>
            <threshold>0.0112160500138998</threshold>
            <left_val>-0.0376252196729183</left_val>
            <right_val>0.5605778098106384</right_val></_></_>
        <_>
          <_>
            <feature>
              <rects>
                <_>
                  3 0 5 4 -1.</_>
                <_>
                  3 2 5 2 2.</_></rects>
              <tilted>0</tilted></feature>
            <threshold>-7.6247910037636757e-003</threshold>
            <left_val>0.3094168007373810</left_val>
            <right_val>-0.2425969988107681</right_val></_></_>
        <_>
          <_>
            <feature>
              <rects>
                <_>
                  2 17 18 3 -1.</_>
                <_>
                  2 18 18 1 3.</_></rects>
              <tilted>0</tilted></feature>
            <threshold>-0.0331425704061985</threshold>
            <left_val>0.6209136843681335</left_val>
            <right_val>-0.0880458205938339</right_val></_></_>
        <_>
          <_>
            <feature>
              <rects>
                <_>
                  2 18 2 2 -1.</_>
                <_>
                  2 19 2 1 2.</_></rects>
              <tilted>0</tilted></feature>
            <threshold>-2.6297959266230464e-004</threshold>
            <left_val>-0.3407545089721680</left_val>
            <right_val>0.2226783931255341</right_val></_></_>
        <_>
          <_>
            <feature>
              <rects>
                <_>
                  12 10 3 1 -1.</_>
                <_>
                  13 10 1 1 3.</_></rects>
              <tilted>0</tilted></feature>
            <threshold>3.2753450796008110e-004</threshold>
            <left_val>0.0829136520624161</left_val>
            <right_val>-0.2280060946941376</right_val></_></_>
        <_>
          <_>
            <feature>
              <rects>
                <_>
                  5 10 3 1 -1.</_>
                <_>
                  6 10 1 1 3.</_></rects>
              <tilted>0</tilted></feature>
            <threshold>-7.8119017416611314e-004</threshold>
            <left_val>-0.5399042963981628</left_val>
            <right_val>0.1585911065340042</right_val></_></_>
        <_>
          <_>
            <feature>
              <rects>
                <_>
                  7 3 6 2 -1.</_>
                <_>
                  7 3 3 2 2.</_></rects>
              <tilted>0</tilted></feature>
            <threshold>-4.7755558043718338e-003</threshold>
            <left_val>-0.5323292016983032</left_val>
            <right_val>0.1367198973894119</right_val></_></_>
        <_>
          <_>
            <feature>
              <rects>
                <_>
                  1 14 1 4 -1.</_>
                <_>
                  1 15 1 2 2.</_></rects>
              <tilted>0</tilted></feature>
            <threshold>-3.3208570675924420e-004</threshold>
            <left_val>-0.3124117851257324</left_val>
            <right_val>0.2216497063636780</right_val></_></_>
        <_>
          <_>
            <feature>
              <rects>
                <_>
                  3 2 14 16 -1.</_>
                <_>
                  3 10 14 8 2.</_></rects>
              <tilted>0</tilted></feature>
            <threshold>-0.4673083126544952</threshold>
            <left_val>-0.8183478116989136</left_val>
            <right_val>0.0953745767474175</right_val></_></_>
        <_>
          <_>
            <feature>
              <rects>
                <_>
                  0 12 19 4 -1.</_>
                <_>
                  0 13 19 2 2.</_></rects>
              <tilted>0</tilted></feature>
            <threshold>0.0441413111984730</threshold>
            <left_val>-0.0972065627574921</left_val>
            <right_val>0.8681122064590454</right_val></_></_>
        <_>
          <_>
            <feature>
              <rects>
                <_>
                  8 4 12 2 -1.</_>
                <_>
                  8 4 6 2 2.</_></rects>
              <tilted>0</tilted></feature>
            <threshold>-0.0457048192620277</threshold>
            <left_val>-0.3378739953041077</left_val>
            <right_val>0.0562049299478531</right_val></_></_>
        <_>
          <_>
            <feature>
              <rects>
                <_>
                  0 4 12 2 -1.</_>
                <_>
                  6 4 6 2 2.</_></rects>
              <tilted>0</tilted></feature>
            <threshold>-1.4765940140932798e-003</threshold>
            <left_val>0.2062959969043732</left_val>
            <right_val>-0.3630900979042053</right_val></_></_></trees>
      <stage_threshold>-1.2581390142440796</stage_threshold>
      <parent>3</parent>
      <next>-1</next></_>
    <_>
      <trees>
        <_>
          <_>
            <feature>
              <rects>
                <_>
                  4 5 12 12 -1.</_>
                <_>
                  4 8 12 6 2.</_></rects>
              <tilted>0</tilted></feature>
            <threshold>0.2458055019378662</threshold>
            <left_val>-0.2062454968690872</left_val>
            <right_val>0.9124758243560791</right_val></_></_>
        <_>
          <_>
            <feature>
              <rects>
                <_>
                  13 16 6 4 -1.</_>
                <_>
                  13 18 6 2 2.</_></rects>
              <tilted>0</tilted></feature>
            <threshold>0.0213176496326923</threshold>
            <left_val>-0.1394027024507523</left_val>
            <right_val>0.5046541094779968</right_val></_></_>
        <_>
          <_>
            <feature>
              <rects>
                <_>
                  6 1 4 17 -1.</_>
                <_>
                  8 1 2 17 2.</_></rects>
              <tilted>0</tilted></feature>
            <threshold>-0.0104648200795054</threshold>
            <left_val>-0.5096713900566101</left_val>
            <right_val>0.2464873045682907</right_val></_></_>
        <_>
          <_>
            <feature>
              <rects>
                <_>
                  5 0 12 2 -1.</_>
                <_>
                  5 1 12 1 2.</_></rects>
              <tilted>0</tilted></feature>
            <threshold>-0.0231852494180202</threshold>
            <left_val>0.6551638245582581</left_val>
            <right_val>-0.1270219981670380</right_val></_></_>
        <_>
          <_>
            <feature>
              <rects>
                <_>
                  5 0 8 2 -1.</_>
                <_>
                  7 2 4 2 2.</_></rects>
              <tilted>1</tilted></feature>
            <threshold>0.0451658107340336</threshold>
            <left_val>-0.0874954834580421</left_val>
            <right_val>0.8458461165428162</right_val></_></_>
        <_>
          <_>
            <feature>
              <rects>
                <_>
                  11 6 8 3 -1.</_>
                <_>
                  13 8 4 3 2.</_></rects>
              <tilted>1</tilted></feature>
            <threshold>0.0681794136762619</threshold>
            <left_val>-0.0477578714489937</left_val>
            <right_val>0.7022675275802612</right_val></_></_>
        <_>
          <_>
            <feature>
              <rects>
                <_>
                  5 8 6 5 -1.</_>
                <_>
                  5 8 3 5 2.</_></rects>
              <tilted>1</tilted></feature>
            <threshold>-0.0133439302444458</threshold>
            <left_val>-0.7083296179771423</left_val>
            <right_val>0.1392606943845749</right_val></_></_>
        <_>
          <_>
            <feature>
              <rects>
                <_>
                  6 18 14 2 -1.</_>
                <_>
                  6 19 14 1 2.</_></rects>
              <tilted>0</tilted></feature>
            <threshold>0.0119346501305699</threshold>
            <left_val>-0.1101420968770981</left_val>
            <right_val>0.2847971022129059</right_val></_></_>
        <_>
          <_>
            <feature>
              <rects>
                <_>
                  1 9 12 6 -1.</_>
                <_>
                  5 11 4 2 9.</_></rects>
              <tilted>0</tilted></feature>
            <threshold>0.0711121410131454</threshold>
            <left_val>-0.1895326972007752</left_val>
            <right_val>0.4342185854911804</right_val></_></_>
        <_>
          <_>
            <feature>
              <rects>
                <_>
                  12 7 8 1 -1.</_>
                <_>
                  14 9 4 1 2.</_></rects>
              <tilted>1</tilted></feature>
            <threshold>-5.5275158956646919e-003</threshold>
            <left_val>0.1964759975671768</left_val>
            <right_val>-0.0928613394498825</right_val></_></_>
        <_>
          <_>
            <feature>
              <rects>
                <_>
                  4 0 12 14 -1.</_>
                <_>
                  4 0 6 7 2.</_>
                <_>
                  10 7 6 7 2.</_></rects>
              <tilted>0</tilted></feature>
            <threshold>-0.0401009805500507</threshold>
            <left_val>-0.5284094810485840</left_val>
            <right_val>0.1937925070524216</right_val></_></_>
        <_>
          <_>
            <feature>
              <rects>
                <_>
                  12 0 6 3 -1.</_>
                <_>
                  14 2 2 3 3.</_></rects>
              <tilted>1</tilted></feature>
            <threshold>-2.0795769523829222e-003</threshold>
            <left_val>0.1128164008259773</left_val>
            <right_val>-0.2141578942537308</right_val></_></_>
        <_>
          <_>
            <feature>
              <rects>
                <_>
                  0 3 8 3 -1.</_>
                <_>
                  4 3 4 3 2.</_></rects>
              <tilted>0</tilted></feature>
            <threshold>-4.6602268703281879e-003</threshold>
            <left_val>0.2739692032337189</left_val>
            <right_val>-0.2972990870475769</right_val></_></_>
        <_>
          <_>
            <feature>
              <rects>
                <_>
                  0 0 20 3 -1.</_>
                <_>
                  0 0 10 3 2.</_></rects>
              <tilted>0</tilted></feature>
            <threshold>0.0675132572650909</threshold>
            <left_val>0.1369034945964813</left_val>
            <right_val>-0.6422622799873352</right_val></_></_>
        <_>
          <_>
            <feature>
              <rects>
                <_>
                  2 5 16 6 -1.</_>
                <_>
                  2 8 16 3 2.</_></rects>
              <tilted>0</tilted></feature>
            <threshold>-0.1142167001962662</threshold>
            <left_val>0.7229436039924622</left_val>
            <right_val>-0.1337303966283798</right_val></_></_>
        <_>
          <_>
            <feature>
              <rects>
                <_>
                  7 5 12 9 -1.</_>
                <_>
                  11 8 4 3 9.</_></rects>
              <tilted>0</tilted></feature>
            <threshold>-0.1587211936712265</threshold>
            <left_val>0.5396379828453064</left_val>
            <right_val>-0.0606942102313042</right_val></_></_>
        <_>
          <_>
            <feature>
              <rects>
                <_>
                  1 5 12 9 -1.</_>
                <_>
                  5 8 4 3 9.</_></rects>
              <tilted>0</tilted></feature>
            <threshold>0.2178789973258972</threshold>
            <left_val>-0.0982810035347939</left_val>
            <right_val>0.7760872840881348</right_val></_></_>
        <_>
          <_>
            <feature>
              <rects>
                <_>
                  4 6 14 8 -1.</_>
                <_>
                  4 10 14 4 2.</_></rects>
              <tilted>0</tilted></feature>
            <threshold>0.1598300933837891</threshold>
            <left_val>-0.0856703519821167</left_val>
            <right_val>0.8240637183189392</right_val></_></_>
        <_>
          <_>
            <feature>
              <rects>
                <_>
                  1 3 16 1 -1.</_>
                <_>
                  1 3 8 1 2.</_></rects>
              <tilted>1</tilted></feature>
            <threshold>0.0534023009240627</threshold>
            <left_val>-0.2417404949665070</left_val>
            <right_val>0.3650394976139069</right_val></_></_>
        <_>
          <_>
            <feature>
              <rects>
                <_>
                  10 0 2 4 -1.</_>
                <_>
                  10 0 1 4 2.</_></rects>
              <tilted>0</tilted></feature>
            <threshold>1.7124860314652324e-003</threshold>
            <left_val>0.1302396953105927</left_val>
            <right_val>-0.2501738071441650</right_val></_></_>
        <_>
          <_>
            <feature>
              <rects>
                <_>
                  8 7 1 8 -1.</_>
                <_>
                  6 9 1 4 2.</_></rects>
              <tilted>1</tilted></feature>
            <threshold>-7.3462259024381638e-003</threshold>
            <left_val>0.3968512117862701</left_val>
            <right_val>-0.1967712938785553</right_val></_></_>
        <_>
          <_>
            <feature>
              <rects>
                <_>
                  13 10 2 2 -1.</_>
                <_>
                  14 10 1 1 2.</_>
                <_>
                  13 11 1 1 2.</_></rects>
              <tilted>0</tilted></feature>
            <threshold>7.8597210813313723e-004</threshold>
            <left_val>0.0636318102478981</left_val>
            <right_val>-0.2315634042024612</right_val></_></_>
        <_>
          <_>
            <feature>
              <rects>
                <_>
                  5 10 2 2 -1.</_>
                <_>
                  5 10 1 1 2.</_>
                <_>
                  6 11 1 1 2.</_></rects>
              <tilted>0</tilted></feature>
            <threshold>-5.9355091070756316e-004</threshold>
            <left_val>-0.4895125925540924</left_val>
            <right_val>0.1523891985416412</right_val></_></_>
        <_>
          <_>
            <feature>
              <rects>
                <_>
                  9 0 5 3 -1.</_>
                <_>
                  9 1 5 1 3.</_></rects>
              <tilted>0</tilted></feature>
            <threshold>6.1906222254037857e-003</threshold>
            <left_val>-0.1288385987281799</left_val>
            <right_val>0.2822717130184174</right_val></_></_>
        <_>
          <_>
            <feature>
              <rects>
                <_>
                  5 0 3 3 -1.</_>
                <_>
                  6 0 1 3 3.</_></rects>
              <tilted>0</tilted></feature>
            <threshold>-1.9444630015641451e-003</threshold>
            <left_val>-0.4408867061138153</left_val>
            <right_val>0.1558054983615875</right_val></_></_>
        <_>
          <_>
            <feature>
              <rects>
                <_>
                  13 0 6 13 -1.</_>
                <_>
                  13 0 3 13 2.</_></rects>
              <tilted>1</tilted></feature>
            <threshold>-0.1987112015485764</threshold>
            <left_val>0.5969752073287964</left_val>
            <right_val>-0.0236152093857527</right_val></_></_>
        <_>
          <_>
            <feature>
              <rects>
                <_>
                  7 0 13 6 -1.</_>
                <_>
                  7 0 13 3 2.</_></rects>
              <tilted>1</tilted></feature>
            <threshold>-0.0675600916147232</threshold>
            <left_val>-0.7121102809906006</left_val>
            <right_val>0.0993151217699051</right_val></_></_></trees>
      <stage_threshold>-1.3358089923858643</stage_threshold>
      <parent>4</parent>
      <next>-1</next></_>
    <_>
      <trees>
        <_>
          <_>
            <feature>
              <rects>
                <_>
                  3 5 14 12 -1.</_>
                <_>
                  3 8 14 6 2.</_></rects>
              <tilted>0</tilted></feature>
            <threshold>0.2867654860019684</threshold>
            <left_val>-0.1947239935398102</left_val>
            <right_val>0.9385896921157837</right_val></_></_>
        <_>
          <_>
            <feature>
              <rects>
                <_>
                  12 16 8 1 -1.</_>
                <_>
                  14 16 4 1 2.</_></rects>
              <tilted>0</tilted></feature>
            <threshold>-1.1586550390347838e-003</threshold>
            <left_val>0.2985351085662842</left_val>
            <right_val>-0.1789485067129135</right_val></_></_>
        <_>
          <_>
            <feature>
              <rects>
                <_>
                  3 1 12 6 -1.</_>
                <_>
                  7 3 4 2 9.</_></rects>
              <tilted>0</tilted></feature>
            <threshold>0.1268541961908341</threshold>
            <left_val>-0.1967875063419342</left_val>
            <right_val>0.7313290834426880</right_val></_></_>
        <_>
          <_>
            <feature>
              <rects>
                <_>
                  4 2 14 18 -1.</_>
                <_>
                  11 2 7 9 2.</_>
                <_>
                  4 11 7 9 2.</_></rects>
              <tilted>0</tilted></feature>
            <threshold>0.1243027970194817</threshold>
            <left_val>0.1167865991592407</left_val>
            <right_val>-0.6060720086097717</right_val></_></_>
        <_>
          <_>
            <feature>
              <rects>
                <_>
                  8 3 12 5 -1.</_>
                <_>
                  11 6 6 5 2.</_></rects>
              <tilted>1</tilted></feature>
            <threshold>0.0886466130614281</threshold>
            <left_val>-0.1599372029304504</left_val>
            <right_val>0.5736830234527588</right_val></_></_>
        <_>
          <_>
            <feature>
              <rects>
                <_>
                  16 5 4 8 -1.</_>
                <_>
                  16 5 4 4 2.</_></rects>
              <tilted>1</tilted></feature>
            <threshold>0.0252290107309818</threshold>
            <left_val>-0.2039185017347336</left_val>
            <right_val>0.0905630066990852</right_val></_></_>
        <_>
          <_>
            <feature>
              <rects>
                <_>
                  1 5 16 14 -1.</_>
                <_>
                  1 5 8 7 2.</_>
                <_>
                  9 12 8 7 2.</_></rects>
              <tilted>0</tilted></feature>
            <threshold>-9.0298205614089966e-003</threshold>
            <left_val>-0.4112110137939453</left_val>
            <right_val>0.2313991934061050</right_val></_></_>
        <_>
          <_>
            <feature>
              <rects>
                <_>
                  4 0 14 2 -1.</_>
                <_>
                  4 1 14 1 2.</_></rects>
              <tilted>0</tilted></feature>
            <threshold>-0.0252561308443546</threshold>
            <left_val>0.6301540136337280</left_val>
            <right_val>-0.1094203963875771</right_val></_></_>
        <_>
          <_>
            <feature>
              <rects>
                <_>
                  0 19 2 1 -1.</_>
                <_>
                  1 19 1 1 2.</_></rects>
              <tilted>0</tilted></feature>
            <threshold>2.4813768686726689e-004</threshold>
            <left_val>0.1590937972068787</left_val>
            <right_val>-0.5535361170768738</right_val></_></_>
        <_>
          <_>
            <feature>
              <rects>
                <_>
                  4 16 15 4 -1.</_>
                <_>
                  4 17 15 2 2.</_></rects>
              <tilted>0</tilted></feature>
            <threshold>-0.0179976206272841</threshold>
            <left_val>0.2700585126876831</left_val>
            <right_val>-0.1189007014036179</right_val></_></_>
        <_>
          <_>
            <feature>
              <rects>
                <_>
                  5 0 6 3 -1.</_>
                <_>
                  5 1 6 1 3.</_></rects>
              <tilted>0</tilted></feature>
            <threshold>5.3982981480658054e-003</threshold>
            <left_val>-0.2188874036073685</left_val>
            <right_val>0.4231381118297577</right_val></_></_>
        <_>
          <_>
            <feature>
              <rects>
                <_>
                  7 5 9 15 -1.</_>
                <_>
                  7 10 9 5 3.</_></rects>
              <tilted>0</tilted></feature>
            <threshold>0.3903084099292755</threshold>
            <left_val>-0.0453130900859833</left_val>
            <right_val>0.8106877207756043</right_val></_></_>
        <_>
          <_>
            <feature>
              <rects>
                <_>
                  4 16 2 4 -1.</_>
                <_>
                  4 18 2 2 2.</_></rects>
              <tilted>0</tilted></feature>
            <threshold>2.6732159312814474e-003</threshold>
            <left_val>-0.2354733049869537</left_val>
            <right_val>0.3242006003856659</right_val></_></_>
        <_>
          <_>
            <feature>
              <rects>
                <_>
                  4 8 12 12 -1.</_>
                <_>
                  7 8 6 12 2.</_></rects>
              <tilted>0</tilted></feature>
            <threshold>-0.0680084377527237</threshold>
            <left_val>-0.7976832985877991</left_val>
            <right_val>0.0978688299655914</right_val></_></_>
        <_>
          <_>
            <feature>
              <rects>
                <_>
                  0 4 16 4 -1.</_>
                <_>
                  4 4 8 4 2.</_></rects>
              <tilted>0</tilted></feature>
            <threshold>-5.4741771891713142e-003</threshold>
            <left_val>0.2942166030406952</left_val>
            <right_val>-0.2978157997131348</right_val></_></_>
        <_>
          <_>
            <feature>
              <rects>
                <_>
                  11 0 8 10 -1.</_>
                <_>
                  11 0 8 5 2.</_></rects>
              <tilted>1</tilted></feature>
            <threshold>0.2502059936523438</threshold>
            <left_val>0.0234191603958607</left_val>
            <right_val>-0.4525874853134155</right_val></_></_>
        <_>
          <_>
            <feature>
              <rects>
                <_>
                  9 0 10 8 -1.</_>
                <_>
                  9 0 5 8 2.</_></rects>
              <tilted>1</tilted></feature>
            <threshold>0.2582913935184479</threshold>
            <left_val>-0.1522399932146072</left_val>
            <right_val>0.6251537799835205</right_val></_></_>
        <_>
          <_>
            <feature>
              <rects>
                <_>
                  1 0 18 8 -1.</_>
                <_>
                  1 2 18 4 2.</_></rects>
              <tilted>0</tilted></feature>
            <threshold>-0.1393685936927795</threshold>
            <left_val>0.8159809708595276</left_val>
            <right_val>-0.0785199776291847</right_val></_></_>
        <_>
          <_>
            <feature>
              <rects>
                <_>
                  5 19 3 1 -1.</_>
                <_>
                  6 19 1 1 3.</_></rects>
              <tilted>0</tilted></feature>
            <threshold>-5.4421072127297521e-004</threshold>
            <left_val>-0.4482096135616303</left_val>
            <right_val>0.1814863979816437</right_val></_></_>
        <_>
          <_>
            <feature>
              <rects>
                <_>
                  12 19 3 1 -1.</_>
                <_>
                  13 19 1 1 3.</_></rects>
              <tilted>0</tilted></feature>
            <threshold>5.4553610971197486e-004</threshold>
            <left_val>0.0772366300225258</left_val>
            <right_val>-0.3872435986995697</right_val></_></_>
        <_>
          <_>
            <feature>
              <rects>
                <_>
                  5 19 3 1 -1.</_>
                <_>
                  6 19 1 1 3.</_></rects>
              <tilted>0</tilted></feature>
            <threshold>3.5537109943106771e-004</threshold>
            <left_val>0.1910745054483414</left_val>
            <right_val>-0.3994658887386322</right_val></_></_>
        <_>
          <_>
            <feature>
              <rects>
                <_>
                  5 10 12 10 -1.</_>
                <_>
                  5 15 12 5 2.</_></rects>
              <tilted>0</tilted></feature>
            <threshold>-0.3235956132411957</threshold>
            <left_val>0.7401316761970520</left_val>
            <right_val>-0.0638519078493118</right_val></_></_>
        <_>
          <_>
            <feature>
              <rects>
                <_>
                  6 1 8 3 -1.</_>
                <_>
                  6 2 8 1 3.</_></rects>
              <tilted>0</tilted></feature>
            <threshold>0.0174818392843008</threshold>
            <left_val>-0.1054601967334747</left_val>
            <right_val>0.6200162172317505</right_val></_></_>
        <_>
          <_>
            <feature>
              <rects>
                <_>
                  14 10 6 2 -1.</_>
                <_>
                  14 11 6 1 2.</_></rects>
              <tilted>0</tilted></feature>
            <threshold>4.7312630340456963e-003</threshold>
            <left_val>0.0758992135524750</left_val>
            <right_val>-0.3267168104648590</right_val></_></_>
        <_>
          <_>
            <feature>
              <rects>
                <_>
                  0 10 6 2 -1.</_>
                <_>
                  0 11 6 1 2.</_></rects>
              <tilted>0</tilted></feature>
            <threshold>-4.3268459849059582e-003</threshold>
            <left_val>-0.3823325037956238</left_val>
            <right_val>0.1878987997770309</right_val></_></_></trees>
      <stage_threshold>-1.2936890125274658</stage_threshold>
      <parent>5</parent>
      <next>-1</next></_>
    <_>
      <trees>
        <_>
          <_>
            <feature>
              <rects>
                <_>
                  2 9 14 10 -1.</_>
                <_>
                  2 14 14 5 2.</_></rects>
              <tilted>0</tilted></feature>
            <threshold>-0.2825070917606354</threshold>
            <left_val>0.6780816912651062</left_val>
            <right_val>-0.2380584031343460</right_val></_></_>
        <_>
          <_>
            <feature>
              <rects>
                <_>
                  12 8 8 1 -1.</_>
                <_>
                  14 10 4 1 2.</_></rects>
              <tilted>1</tilted></feature>
            <threshold>-4.8093497753143311e-003</threshold>
            <left_val>0.1622360050678253</left_val>
            <right_val>-0.0357466898858547</right_val></_></_>
        <_>
          <_>
            <feature>
              <rects>
                <_>
                  8 8 1 8 -1.</_>
                <_>
                  6 10 1 4 2.</_></rects>
              <tilted>1</tilted></feature>
            <threshold>-3.5539988894015551e-003</threshold>
            <left_val>0.3248375952243805</left_val>
            <right_val>-0.3285168111324310</right_val></_></_>
        <_>
          <_>
            <feature>
              <rects>
                <_>
                  5 4 12 15 -1.</_>
                <_>
                  5 9 12 5 3.</_></rects>
              <tilted>0</tilted></feature>
            <threshold>0.4977942109107971</threshold>
            <left_val>-0.1094811037182808</left_val>
            <right_val>0.9371199011802673</right_val></_></_>
        <_>
          <_>
            <feature>
              <rects>
                <_>
                  1 0 15 6 -1.</_>
                <_>
                  6 2 5 2 9.</_></rects>
              <tilted>0</tilted></feature>
            <threshold>0.2140088975429535</threshold>
            <left_val>-0.1055930033326149</left_val>
            <right_val>0.7618439197540283</right_val></_></_>
        <_>
          <_>
            <feature>
              <rects>
                <_>
                  1 19 18 1 -1.</_>
                <_>
                  1 19 9 1 2.</_></rects>
              <tilted>0</tilted></feature>
            <threshold>-0.0295905806124210</threshold>
            <left_val>-0.7917960286140442</left_val>
            <right_val>0.1175791025161743</right_val></_></_>
        <_>
          <_>
            <feature>
              <rects>
                <_>
                  7 9 2 1 -1.</_>
                <_>
                  8 9 1 1 2.</_></rects>
              <tilted>0</tilted></feature>
            <threshold>-3.6425009602680802e-004</threshold>
            <left_val>-0.4379923045635223</left_val>
            <right_val>0.1810325980186462</right_val></_></_>
        <_>
          <_>
            <feature>
              <rects>
                <_>
                  6 6 14 1 -1.</_>
                <_>
                  6 6 7 1 2.</_></rects>
              <tilted>0</tilted></feature>
            <threshold>-0.0236563105136156</threshold>
            <left_val>0.4202809929847717</left_val>
            <right_val>-0.0550593398511410</right_val></_></_>
        <_>
          <_>
            <feature>
              <rects>
                <_>
                  2 14 12 6 -1.</_>
                <_>
                  2 16 12 2 3.</_></rects>
              <tilted>0</tilted></feature>
            <threshold>-0.0521746203303337</threshold>
            <left_val>0.3790890872478485</left_val>
            <right_val>-0.1801604926586151</right_val></_></_>
        <_>
          <_>
            <feature>
              <rects>
                <_>
                  6 4 14 8 -1.</_>
                <_>
                  6 4 7 8 2.</_></rects>
              <tilted>0</tilted></feature>
            <threshold>-7.4939890764653683e-003</threshold>
            <left_val>0.1265435069799423</left_val>
            <right_val>-0.0573832988739014</right_val></_></_>
        <_>
          <_>
            <feature>
              <rects>
                <_>
                  0 8 18 12 -1.</_>
                <_>
                  0 8 9 6 2.</_>
                <_>
                  9 14 9 6 2.</_></rects>
              <tilted>0</tilted></feature>
            <threshold>-0.0379776805639267</threshold>
            <left_val>-0.4182235896587372</left_val>
            <right_val>0.1743898987770081</right_val></_></_>
        <_>
          <_>
            <feature>
              <rects>
                <_>
                  4 0 12 5 -1.</_>
                <_>
                  7 0 6 5 2.</_></rects>
              <tilted>0</tilted></feature>
            <threshold>-0.0419702194631100</threshold>
            <left_val>-0.7352089881896973</left_val>
            <right_val>0.0967237278819084</right_val></_></_>
        <_>
          <_>
            <feature>
              <rects>
                <_>
                  1 0 1 18 -1.</_>
                <_>
                  1 9 1 9 2.</_></rects>
              <tilted>0</tilted></feature>
            <threshold>-0.0463009513914585</threshold>
            <left_val>0.6780170202255249</left_val>
            <right_val>-0.1365464925765991</right_val></_></_>
        <_>
          <_>
            <feature>
              <rects>
                <_>
                  16 18 2 2 -1.</_>
                <_>
                  16 18 1 2 2.</_></rects>
              <tilted>0</tilted></feature>
            <threshold>5.7349511189386249e-004</threshold>
            <left_val>0.1041330993175507</left_val>
            <right_val>-0.2516038119792938</right_val></_></_>
        <_>
          <_>
            <feature>
              <rects>
                <_>
                  8 3 12 2 -1.</_>
                <_>
                  11 6 6 2 2.</_></rects>
              <tilted>1</tilted></feature>
            <threshold>0.0651794821023941</threshold>
            <left_val>-0.1432532072067261</left_val>
            <right_val>0.5525320768356323</right_val></_></_>
        <_>
          <_>
            <feature>
              <rects>
                <_>
                  10 6 1 6 -1.</_>
                <_>
                  8 8 1 2 3.</_></rects>
              <tilted>1</tilted></feature>
            <threshold>-3.9183381013572216e-003</threshold>
            <left_val>0.2738159894943237</left_val>
            <right_val>-0.1313108056783676</right_val></_></_>
        <_>
          <_>
            <feature>
              <rects>
                <_>
                  0 0 6 20 -1.</_>
                <_>
                  0 0 3 10 2.</_>
                <_>
                  3 10 3 10 2.</_></rects>
              <tilted>0</tilted></feature>
            <threshold>-0.0739261209964752</threshold>
            <left_val>0.6345416903495789</left_val>
            <right_val>-0.1102588996291161</right_val></_></_>
        <_>
          <_>
            <feature>
              <rects>
                <_>
                  2 14 16 3 -1.</_>
                <_>
                  2 15 16 1 3.</_></rects>
              <tilted>0</tilted></feature>
            <threshold>-0.0347404703497887</threshold>
            <left_val>0.7860581874847412</left_val>
            <right_val>-0.0560392402112484</right_val></_></_>
        <_>
          <_>
            <feature>
              <rects>
                <_>
                  0 10 20 4 -1.</_>
                <_>
                  0 12 20 2 2.</_></rects>
              <tilted>0</tilted></feature>
            <threshold>-0.1206291988492012</threshold>
            <left_val>0.7870631217956543</left_val>
            <right_val>-0.0694302022457123</right_val></_></_>
        <_>
          <_>
            <feature>
              <rects>
                <_>
                  19 13 1 6 -1.</_>
                <_>
                  19 15 1 2 3.</_></rects>
              <tilted>0</tilted></feature>
            <threshold>0.0164410993456841</threshold>
            <left_val>0.0260303691029549</left_val>
            <right_val>-0.5559515953063965</right_val></_></_>
        <_>
          <_>
            <feature>
              <rects>
                <_>
                  0 13 1 6 -1.</_>
                <_>
                  0 15 1 2 3.</_></rects>
              <tilted>0</tilted></feature>
            <threshold>-1.1896770447492599e-003</threshold>
            <left_val>-0.2827978134155273</left_val>
            <right_val>0.2264107018709183</right_val></_></_>
        <_>
          <_>
            <feature>
              <rects>
                <_>
                  3 1 14 3 -1.</_>
                <_>
                  3 2 14 1 3.</_></rects>
              <tilted>0</tilted></feature>
            <threshold>-0.0328338406980038</threshold>
            <left_val>0.8157498836517334</left_val>
            <right_val>-0.0835797265172005</right_val></_></_>
        <_>
          <_>
            <feature>
              <rects>
                <_>
                  5 8 2 5 -1.</_>
                <_>
                  6 8 1 5 2.</_></rects>
              <tilted>0</tilted></feature>
            <threshold>-3.4577390179038048e-003</threshold>
            <left_val>-0.6312037110328674</left_val>
            <right_val>0.1032864004373550</right_val></_></_>
        <_>
          <_>
            <feature>
              <rects>
                <_>
                  2 10 16 10 -1.</_>
                <_>
                  2 15 16 5 2.</_></rects>
              <tilted>0</tilted></feature>
            <threshold>-0.3435207903385162</threshold>
            <left_val>0.6649109125137329</left_val>
            <right_val>-0.0992511585354805</right_val></_></_>
        <_>
          <_>
            <feature>
              <rects>
                <_>
                  6 3 8 5 -1.</_>
                <_>
                  6 3 4 5 2.</_></rects>
              <tilted>1</tilted></feature>
            <threshold>0.0771404504776001</threshold>
            <left_val>-0.2018754929304123</left_val>
            <right_val>0.3386062979698181</right_val></_></_>
        <_>
          <_>
            <feature>
              <rects>
                <_>
                  16 0 4 8 -1.</_>
                <_>
                  14 2 4 4 2.</_></rects>
              <tilted>1</tilted></feature>
            <threshold>-0.0420208498835564</threshold>
            <left_val>0.3277269005775452</left_val>
            <right_val>-0.1567360013723373</right_val></_></_>
        <_>
          <_>
            <feature>
              <rects>
                <_>
                  7 6 6 13 -1.</_>
                <_>
                  10 6 3 13 2.</_></rects>
              <tilted>0</tilted></feature>
            <threshold>0.0116437496617436</threshold>
            <left_val>-0.1735150963068008</left_val>
            <right_val>0.3530395030975342</right_val></_></_>
        <_>
          <_>
            <feature>
              <rects>
                <_>
                  7 10 12 6 -1.</_>
                <_>
                  11 12 4 2 9.</_></rects>
              <tilted>0</tilted></feature>
            <threshold>-0.0208560898900032</threshold>
            <left_val>0.1798962056636810</left_val>
            <right_val>-0.1281215995550156</right_val></_></_>
        <_>
          <_>
            <feature>
              <rects>
                <_>
                  1 12 6 6 -1.</_>
                <_>
                  4 12 3 6 2.</_></rects>
              <tilted>0</tilted></feature>
            <threshold>6.6580069251358509e-003</threshold>
            <left_val>-0.1608857065439224</left_val>
            <right_val>0.4171336889266968</right_val></_></_>
        <_>
          <_>
            <feature>
              <rects>
                <_>
                  16 19 2 1 -1.</_>
                <_>
                  16 19 1 1 2.</_></rects>
              <tilted>0</tilted></feature>
            <threshold>3.4639530349522829e-004</threshold>
            <left_val>0.0799722969532013</left_val>
            <right_val>-0.3749119937419891</right_val></_></_>
        <_>
          <_>
            <feature>
              <rects>
                <_>
                  5 1 10 3 -1.</_>
                <_>
                  5 2 10 1 3.</_></rects>
              <tilted>0</tilted></feature>
            <threshold>0.0323162004351616</threshold>
            <left_val>-0.0733941569924355</left_val>
            <right_val>0.8351551294326782</right_val></_></_></trees>
      <stage_threshold>-1.3542970418930054</stage_threshold>
      <parent>6</parent>
      <next>-1</next></_>
    <_>
      <trees>
        <_>
          <_>
            <feature>
              <rects>
                <_>
                  3 5 14 12 -1.</_>
                <_>
                  3 8 14 6 2.</_></rects>
              <tilted>0</tilted></feature>
            <threshold>0.3519792854785919</threshold>
            <left_val>-0.1109222024679184</left_val>
            <right_val>0.9422569870948792</right_val></_></_>
        <_>
          <_>
            <feature>
              <rects>
                <_>
                  11 0 2 10 -1.</_>
                <_>
                  11 0 2 5 2.</_></rects>
              <tilted>1</tilted></feature>
            <threshold>-0.0217856205999851</threshold>
            <left_val>-0.3844389915466309</left_val>
            <right_val>0.1335075050592423</right_val></_></_>
        <_>
          <_>
            <feature>
              <rects>
                <_>
                  6 19 8 1 -1.</_>
                <_>
                  8 19 4 1 2.</_></rects>
              <tilted>0</tilted></feature>
            <threshold>1.4926970470696688e-003</threshold>
            <left_val>0.1824482977390289</left_val>
            <right_val>-0.5911070704460144</right_val></_></_>
        <_>
          <_>
            <feature>
              <rects>
                <_>
                  13 9 2 8 -1.</_>
                <_>
                  13 9 2 4 2.</_></rects>
              <tilted>1</tilted></feature>
            <threshold>0.0752227902412415</threshold>
            <left_val>-0.0891043022274971</left_val>
            <right_val>0.4096640944480896</right_val></_></_>
        <_>
          <_>
            <feature>
              <rects>
                <_>
                  3 10 2 3 -1.</_>
                <_>
                  3 10 1 3 2.</_></rects>
              <tilted>1</tilted></feature>
            <threshold>2.3136709351092577e-003</threshold>
            <left_val>-0.3799510896205902</left_val>
            <right_val>0.2230125963687897</right_val></_></_>
        <_>
          <_>
            <feature>
              <rects>
                <_>
                  1 14 18 6 -1.</_>
                <_>
                  1 14 9 6 2.</_></rects>
              <tilted>0</tilted></feature>
            <threshold>-0.0935103669762611</threshold>
            <left_val>-0.6842681765556335</left_val>
            <right_val>0.1305014044046402</right_val></_></_>
        <_>
          <_>
            <feature>
              <rects>
                <_>
                  0 19 4 1 -1.</_>
                <_>
                  2 19 2 1 2.</_></rects>
              <tilted>0</tilted></feature>
            <threshold>2.8837000718340278e-004</threshold>
            <left_val>0.1316495984792709</left_val>
            <right_val>-0.4751070141792297</right_val></_></_>
        <_>
          <_>
            <feature>
              <rects>
                <_>
                  17 0 3 8 -1.</_>
                <_>
                  17 4 3 4 2.</_></rects>
              <tilted>0</tilted></feature>
            <threshold>0.0393974296748638</threshold>
            <left_val>0.0142137799412012</left_val>
            <right_val>-0.6425811052322388</right_val></_></_>
        <_>
          <_>
            <feature>
              <rects>
                <_>
                  0 0 3 8 -1.</_>
                <_>
                  0 4 3 4 2.</_></rects>
              <tilted>0</tilted></feature>
            <threshold>0.0394582413136959</threshold>
            <left_val>0.0801383629441261</left_val>
            <right_val>-0.9144995808601379</right_val></_></_>
        <_>
          <_>
            <feature>
              <rects>
                <_>
                  10 19 2 1 -1.</_>
                <_>
                  10 19 1 1 2.</_></rects>
              <tilted>0</tilted></feature>
            <threshold>-7.7941088238731027e-004</threshold>
            <left_val>-0.5487576723098755</left_val>
            <right_val>0.0749159082770348</right_val></_></_>
        <_>
          <_>
            <feature>
              <rects>
                <_>
                  0 4 7 16 -1.</_>
                <_>
                  0 12 7 8 2.</_></rects>
              <tilted>0</tilted></feature>
            <threshold>0.0475224703550339</threshold>
            <left_val>0.0880400091409683</left_val>
            <right_val>-0.7091068029403687</right_val></_></_>
        <_>
          <_>
            <feature>
              <rects>
                <_>
                  16 4 4 15 -1.</_>
                <_>
                  17 4 2 15 2.</_></rects>
              <tilted>0</tilted></feature>
            <threshold>-0.0339154191315174</threshold>
            <left_val>0.8712025284767151</left_val>
            <right_val>-0.0802093967795372</right_val></_></_>
        <_>
          <_>
            <feature>
              <rects>
                <_>
                  3 4 13 6 -1.</_>
                <_>
                  3 7 13 3 2.</_></rects>
              <tilted>0</tilted></feature>
            <threshold>0.1084178984165192</threshold>
            <left_val>-0.0950578004121780</left_val>
            <right_val>0.5861356258392334</right_val></_></_>
        <_>
          <_>
            <feature>
              <rects>
                <_>
                  2 6 16 6 -1.</_>
                <_>
                  2 8 16 2 3.</_></rects>
              <tilted>0</tilted></feature>
            <threshold>-0.0767050236463547</threshold>
            <left_val>0.7114902138710022</left_val>
            <right_val>-0.1127042025327683</right_val></_></_>
        <_>
          <_>
            <feature>
              <rects>
                <_>
                  1 16 12 4 -1.</_>
                <_>
                  1 17 12 2 2.</_></rects>
              <tilted>0</tilted></feature>
            <threshold>-0.0104249399155378</threshold>
            <left_val>0.2995055913925171</left_val>
            <right_val>-0.1924041062593460</right_val></_></_>
        <_>
          <_>
            <feature>
              <rects>
                <_>
                  17 0 3 6 -1.</_>
                <_>
                  17 2 3 2 3.</_></rects>
              <tilted>0</tilted></feature>
            <threshold>0.0236145295202732</threshold>
            <left_val>0.0419611893594265</left_val>
            <right_val>-0.6978628039360046</right_val></_></_>
        <_>
          <_>
            <feature>
              <rects>
                <_>
                  4 16 10 3 -1.</_>
                <_>
                  4 17 10 1 3.</_></rects>
              <tilted>0</tilted></feature>
            <threshold>4.4019841589033604e-003</threshold>
            <left_val>-0.1447084993124008</left_val>
            <right_val>0.3913379013538361</right_val></_></_>
        <_>
          <_>
            <feature>
              <rects>
                <_>
                  17 0 3 6 -1.</_>
                <_>
                  17 2 3 2 3.</_></rects>
              <tilted>0</tilted></feature>
            <threshold>-0.0416663698852062</threshold>
            <left_val>-0.7211756706237793</left_val>
            <right_val>0.0295371804386377</right_val></_></_>
        <_>
          <_>
            <feature>
              <rects>
                <_>
                  0 12 15 2 -1.</_>
                <_>
                  5 12 5 2 3.</_></rects>
              <tilted>0</tilted></feature>
            <threshold>0.0275405999273062</threshold>
            <left_val>-0.1291117966175079</left_val>
            <right_val>0.4427810013294220</right_val></_></_>
        <_>
          <_>
            <feature>
              <rects>
                <_>
                  9 10 2 2 -1.</_>
                <_>
                  9 10 1 2 2.</_></rects>
              <tilted>0</tilted></feature>
            <threshold>2.9631590587086976e-004</threshold>
            <left_val>0.1742143929004669</left_val>
            <right_val>-0.3559804856777191</right_val></_></_>
        <_>
          <_>
            <feature>
              <rects>
                <_>
                  9 10 2 1 -1.</_>
                <_>
                  10 10 1 1 2.</_></rects>
              <tilted>0</tilted></feature>
            <threshold>5.4758251644670963e-004</threshold>
            <left_val>0.1120034009218216</left_val>
            <right_val>-0.5244150757789612</right_val></_></_>
        <_>
          <_>
            <feature>
              <rects>
                <_>
                  10 1 8 9 -1.</_>
                <_>
                  7 4 8 3 3.</_></rects>
              <tilted>1</tilted></feature>
            <threshold>0.1318407952785492</threshold>
            <left_val>0.0352227315306664</left_val>
            <right_val>-0.3281239867210388</right_val></_></_>
        <_>
          <_>
            <feature>
              <rects>
                <_>
                  4 6 12 2 -1.</_>
                <_>
                  10 6 6 2 2.</_></rects>
              <tilted>0</tilted></feature>
            <threshold>0.0232620500028133</threshold>
            <left_val>0.0857283174991608</left_val>
            <right_val>-0.6441230773925781</right_val></_></_>
        <_>
          <_>
            <feature>
              <rects>
                <_>
                  4 2 16 6 -1.</_>
                <_>
                  8 2 8 6 2.</_></rects>
              <tilted>0</tilted></feature>
            <threshold>-2.4041018914431334e-003</threshold>
            <left_val>0.1455222070217133</left_val>
            <right_val>-0.2700631916522980</right_val></_></_>
        <_>
          <_>
            <feature>
              <rects>
                <_>
                  0 6 14 2 -1.</_>
                <_>
                  7 6 7 2 2.</_></rects>
              <tilted>0</tilted></feature>
            <threshold>-0.0369830690324306</threshold>
            <left_val>-0.5445247888565064</left_val>
            <right_val>0.1108219996094704</right_val></_></_>
        <_>
          <_>
            <feature>
              <rects>
                <_>
                  5 6 15 1 -1.</_>
                <_>
                  10 6 5 1 3.</_></rects>
              <tilted>0</tilted></feature>
            <threshold>-1.8622979987412691e-003</threshold>
            <left_val>0.1137252971529961</left_val>
            <right_val>-0.1972476989030838</right_val></_></_>
        <_>
          <_>
            <feature>
              <rects>
                <_>
                  2 6 12 2 -1.</_>
                <_>
                  6 6 4 2 3.</_></rects>
              <tilted>0</tilted></feature>
            <threshold>-1.2706919806078076e-003</threshold>
            <left_val>0.2594245970249176</left_val>
            <right_val>-0.3351492881774902</right_val></_></_>
        <_>
          <_>
            <feature>
              <rects>
                <_>
                  13 19 3 1 -1.</_>
                <_>
                  14 19 1 1 3.</_></rects>
              <tilted>0</tilted></feature>
            <threshold>3.4623651299625635e-004</threshold>
            <left_val>0.1065725013613701</left_val>
            <right_val>-0.3044796884059906</right_val></_></_>
        <_>
          <_>
            <feature>
              <rects>
                <_>
                  9 6 2 9 -1.</_>
                <_>
                  6 9 2 3 3.</_></rects>
              <tilted>1</tilted></feature>
            <threshold>-0.0200996100902557</threshold>
            <left_val>0.3617312908172607</left_val>
            <right_val>-0.1475560069084168</right_val></_></_>
        <_>
          <_>
            <feature>
              <rects>
                <_>
                  0 6 20 4 -1.</_>
                <_>
                  0 7 20 2 2.</_></rects>
              <tilted>0</tilted></feature>
            <threshold>-0.0412570200860500</threshold>
            <left_val>0.8268892765045166</left_val>
            <right_val>-0.0762725397944450</right_val></_></_>
        <_>
          <_>
            <feature>
              <rects>
                <_>
                  5 4 8 3 -1.</_>
                <_>
                  7 6 4 3 2.</_></rects>
              <tilted>1</tilted></feature>
            <threshold>0.0472221001982689</threshold>
            <left_val>-0.1058278977870941</left_val>
            <right_val>0.5096318721771240</right_val></_></_>
        <_>
          <_>
            <feature>
              <rects>
                <_>
                  11 8 2 4 -1.</_>
                <_>
                  11 8 2 2 2.</_></rects>
              <tilted>1</tilted></feature>
            <threshold>-0.0220305100083351</threshold>
            <left_val>0.5560014247894287</left_val>
            <right_val>-0.0625600889325142</right_val></_></_>
        <_>
          <_>
            <feature>
              <rects>
                <_>
                  0 2 18 8 -1.</_>
                <_>
                  0 2 9 4 2.</_>
                <_>
                  9 6 9 4 2.</_></rects>
              <tilted>0</tilted></feature>
            <threshold>-0.0958162993192673</threshold>
            <left_val>-0.8887724876403809</left_val>
            <right_val>0.0731222331523895</right_val></_></_></trees>
      <stage_threshold>-1.2790720462799072</stage_threshold>
      <parent>7</parent>
      <next>-1</next></_>
    <_>
      <trees>
        <_>
          <_>
            <feature>
              <rects>
                <_>
                  4 14 1 4 -1.</_>
                <_>
                  4 14 1 2 2.</_></rects>
              <tilted>1</tilted></feature>
            <threshold>-4.2111808434128761e-003</threshold>
            <left_val>0.4350112080574036</left_val>
            <right_val>-0.2878612875938416</right_val></_></_>
        <_>
          <_>
            <feature>
              <rects>
                <_>
                  11 5 4 9 -1.</_>
                <_>
                  8 8 4 3 3.</_></rects>
              <tilted>1</tilted></feature>
            <threshold>0.1300545930862427</threshold>
            <left_val>-0.0874525830149651</left_val>
            <right_val>0.4353528916835785</right_val></_></_>
        <_>
          <_>
            <feature>
              <rects>
                <_>
                  0 2 20 18 -1.</_>
                <_>
                  0 11 20 9 2.</_></rects>
              <tilted>0</tilted></feature>
            <threshold>0.0690450072288513</threshold>
            <left_val>0.1223696991801262</left_val>
            <right_val>-0.7368792891502380</right_val></_></_>
        <_>
          <_>
            <feature>
              <rects>
                <_>
                  4 5 12 12 -1.</_>
                <_>
                  4 8 12 6 2.</_></rects>
              <tilted>0</tilted></feature>
            <threshold>0.2797263860702515</threshold>
            <left_val>-0.1018173992633820</left_val>
            <right_val>0.8257308006286621</right_val></_></_>
        <_>
          <_>
            <feature>
              <rects>
                <_>
                  1 14 15 6 -1.</_>
                <_>
                  1 16 15 2 3.</_></rects>
              <tilted>0</tilted></feature>
            <threshold>-0.0625037029385567</threshold>
            <left_val>0.3968130052089691</left_val>
            <right_val>-0.2325185984373093</right_val></_></_>
        <_>
          <_>
            <feature>
              <rects>
                <_>
                  17 4 3 15 -1.</_>
                <_>
                  18 4 1 15 3.</_></rects>
              <tilted>0</tilted></feature>
            <threshold>-0.0195279605686665</threshold>
            <left_val>0.6937785148620606</left_val>
            <right_val>-0.0839337185025215</right_val></_></_>
        <_>
          <_>
            <feature>
              <rects>
                <_>
                  4 15 11 3 -1.</_>
                <_>
                  4 16 11 1 3.</_></rects>
              <tilted>0</tilted></feature>
            <threshold>8.7105687707662582e-003</threshold>
            <left_val>-0.1173013970255852</left_val>
            <right_val>0.4829823076725006</right_val></_></_>
        <_>
          <_>
            <feature>
              <rects>
                <_>
                  7 14 6 3 -1.</_>
                <_>
                  7 15 6 1 3.</_></rects>
              <tilted>0</tilted></feature>
            <threshold>9.7401859238743782e-003</threshold>
            <left_val>-0.1036159992218018</left_val>
            <right_val>0.5741537809371948</right_val></_></_>
        <_>
          <_>
            <feature>
              <rects>
                <_>
                  5 16 10 3 -1.</_>
                <_>
                  5 17 10 1 3.</_></rects>
              <tilted>0</tilted></feature>
            <threshold>6.5076150931417942e-003</threshold>
            <left_val>-0.1466346979141235</left_val>
            <right_val>0.4301621019840241</right_val></_></_>
        <_>
          <_>
            <feature>
              <rects>
                <_>
                  9 1 10 18 -1.</_>
                <_>
                  14 1 5 9 2.</_>
                <_>
                  9 10 5 9 2.</_></rects>
              <tilted>0</tilted></feature>
            <threshold>0.0440773703157902</threshold>
            <left_val>-0.0638187006115913</left_val>
            <right_val>0.1743624955415726</right_val></_></_>
        <_>
          <_>
            <feature>
              <rects>
                <_>
                  1 1 10 18 -1.</_>
                <_>
                  1 1 5 9 2.</_>
                <_>
                  6 10 5 9 2.</_></rects>
              <tilted>0</tilted></feature>
            <threshold>-0.1249945983290672</threshold>
            <left_val>0.7538853883743286</left_val>
            <right_val>-0.0769082903862000</right_val></_></_>
        <_>
          <_>
            <feature>
              <rects>
                <_>
                  8 4 12 4 -1.</_>
                <_>
                  8 4 6 4 2.</_></rects>
              <tilted>0</tilted></feature>
            <threshold>-0.0333827100694180</threshold>
            <left_val>0.2297388017177582</left_val>
            <right_val>-0.0517023093998432</right_val></_></_>
        <_>
          <_>
            <feature>
              <rects>
                <_>
                  0 2 8 16 -1.</_>
                <_>
                  0 2 4 8 2.</_>
