<?xml version="1.0"?>
<opencv_storage>
<car_demo type_id="opencv-haar-classifier">
  <size>
    20 20</size>
  <stages>
    <_>
      <trees>
        <_>
          <_>
            <feature>
              <rects>
                <_>
                  2 16 16 4 -1.</_>
                <_>
                  2 18 16 2 2.</_></rects>
              <tilted>0</tilted></feature>
            <threshold>7.3579940944910049e-003</threshold>
            <left_val>-0.7201752066612244</left_val>
            <right_val>0.6394153833389282</right_val></_></_>
        <_>
          <_>
            <feature>
              <rects>
                <_>
                  0 14 20 4 -1.</_>
                <_>
                  5 14 10 4 2.</_></rects>
              <tilted>0</tilted></feature>
            <threshold>-0.0149520300328732</threshold>
            <left_val>0.3893884122371674</left_val>
            <right_val>-0.7143608927726746</right_val></_></_>
        <_>
          <_>
            <feature>
              <rects>
                <_>
                  0 7 4 13 -1.</_>
                <_>
                  2 7 2 13 2.</_></rects>
              <tilted>0</tilted></feature>
            <threshold>-0.0212225094437599</threshold>
            <left_val>0.4847595989704132</left_val>
            <right_val>-0.3445760011672974</right_val></_></_>
        <_>
          <_>
            <feature>
              <rects>
                <_>
                  11 0 4 4 -1.</_>
                <_>
                  12 1 2 4 2.</_></rects>
              <tilted>1</tilted></feature>
            <threshold>0.0124162100255489</threshold>
            <left_val>-0.1273179054260254</left_val>
            <right_val>0.5706291198730469</right_val></_></_>
        <_>
          <_>
            <feature>
              <rects>
                <_>
                  0 0 2 6 -1.</_>
                <_>
                  0 3 2 3 2.</_></rects>
              <tilted>0</tilted></feature>
            <threshold>-1.3715550303459167e-003</threshold>
            <left_val>-0.3388727903366089</left_val>
            <right_val>0.3532421886920929</right_val></_></_>
        <_>
          <_>
            <feature>
              <rects>
                <_>
                  14 1 6 5 -1.</_>
                <_>
                  16 3 2 5 3.</_></rects>
              <tilted>1</tilted></feature>
            <threshold>-0.0264621302485466</threshold>
            <left_val>0.2592510879039764</left_val>
            <right_val>-0.0639040470123291</right_val></_></_>
        <_>
          <_>
            <feature>
              <rects>
                <_>
                  6 1 5 6 -1.</_>
                <_>
                  4 3 5 2 3.</_></rects>
              <tilted>1</tilted></feature>
            <threshold>-0.0338851995766163</threshold>
            <left_val>0.5782040953636169</left_val>
            <right_val>-0.1777434051036835</right_val></_></_>
        <_>
          <_>
            <feature>
              <rects>
                <_>
                  6 8 8 12 -1.</_>
                <_>
                  6 11 8 6 2.</_></rects>
              <tilted>0</tilted></feature>
            <threshold>-0.0404532290995121</threshold>
            <left_val>0.3062399923801422</left_val>
            <right_val>-0.3239943981170654</right_val></_></_>
        <_>
          <_>
            <feature>
              <rects>
                <_>
                  1 1 14 2 -1.</_>
                <_>
                  1 1 7 1 2.</_>
                <_>
                  8 2 7 1 2.</_></rects>
              <tilted>0</tilted></feature>
            <threshold>-5.1569528877735138e-003</threshold>
            <left_val>0.4505831003189087</left_val>
            <right_val>-0.2059486955404282</right_val></_></_></trees>
      <stage_threshold>-1.6044139862060547</stage_threshold>
      <parent>-1</parent>
      <next>-1</next></_>
    <_>
      <trees>
        <_>
          <_>
            <feature>
              <rects>
                <_>
                  4 2 12 16 -1.</_>
                <_>
                  4 10 12 8 2.</_></rects>
              <tilted>0</tilted></feature>
            <threshold>-0.0660372003912926</threshold>
            <left_val>0.3866719007492065</left_val>
            <right_val>-0.8311027884483337</right_val></_></_>
        <_>
          <_>
            <feature>
              <rects>
                <_>
                  10 13 10 4 -1.</_>
                <_>
                  10 13 5 4 2.</_></rects>
              <tilted>0</tilted></feature>
            <threshold>-8.9286193251609802e-003</threshold>
            <left_val>0.0858085229992867</left_val>
            <right_val>-0.2436839938163757</right_val></_></_>
        <_>
          <_>
            <feature>
              <rects>
                <_>
                  0 13 10 4 -1.</_>
                <_>
                  5 13 5 4 2.</_></rects>
              <tilted>0</tilted></feature>
            <threshold>-0.0210811495780945</threshold>
            <left_val>0.4337224066257477</left_val>
            <right_val>-0.5563160181045532</right_val></_></_>
        <_>
          <_>
            <feature>
              <rects>
                <_>
                  2 16 18 4 -1.</_>
                <_>
                  2 18 18 2 2.</_></rects>
              <tilted>0</tilted></feature>
            <threshold>0.0168669708073139</threshold>
            <left_val>-0.4018923938274384</left_val>
            <right_val>0.3890469968318939</right_val></_></_>
        <_>
          <_>
            <feature>
              <rects>
                <_>
                  0 11 4 8 -1.</_>
                <_>
                  2 11 2 8 2.</_></rects>
              <tilted>0</tilted></feature>
            <threshold>-7.3410919867455959e-005</threshold>
            <left_val>0.1789921969175339</left_val>
            <right_val>-0.5578022003173828</right_val></_></_>
        <_>
          <_>
            <feature>
              <rects>
                <_>
                  10 2 4 3 -1.</_>
                <_>
                  10 2 2 3 2.</_></rects>
              <tilted>1</tilted></feature>
            <threshold>3.4800120629370213e-003</threshold>
            <left_val>-0.2229184955358505</left_val>
            <right_val>0.1599902063608170</right_val></_></_>
        <_>
          <_>
            <feature>
              <rects>
                <_>
                  8 12 4 8 -1.</_>
                <_>
                  8 14 4 4 2.</_></rects>
              <tilted>0</tilted></feature>
            <threshold>-0.0192392095923424</threshold>
            <left_val>0.3479371964931488</left_val>
            <right_val>-0.2201191931962967</right_val></_></_>
        <_>
          <_>
            <feature>
              <rects>
                <_>
                  8 5 12 7 -1.</_>
                <_>
                  11 5 6 7 2.</_></rects>
              <tilted>0</tilted></feature>
            <threshold>-0.0693102702498436</threshold>
            <left_val>0.5182055234909058</left_val>
            <right_val>-0.0714450031518936</right_val></_></_>
        <_>
          <_>
            <feature>
              <rects>
                <_>
                  0 5 12 7 -1.</_>
                <_>
                  3 5 6 7 2.</_></rects>
              <tilted>0</tilted></feature>
            <threshold>-0.0250034704804420</threshold>
            <left_val>0.3732343018054962</left_val>
            <right_val>-0.2845501005649567</right_val></_></_>
        <_>
          <_>
            <feature>
              <rects>
                <_>
                  10 18 3 1 -1.</_>
                <_>
                  11 18 1 1 3.</_></rects>
              <tilted>0</tilted></feature>
            <threshold>-1.0764009784907103e-003</threshold>
            <left_val>-0.5059614181518555</left_val>
            <right_val>0.0844834372401237</right_val></_></_>
        <_>
          <_>
            <feature>
              <rects>
                <_>
                  3 1 7 12 -1.</_>
                <_>
                  3 5 7 4 3.</_></rects>
              <tilted>0</tilted></feature>
            <threshold>-0.1341646015644074</threshold>
            <left_val>0.6886765956878662</left_val>
            <right_val>-0.1127728968858719</right_val></_></_>
        <_>
          <_>
            <feature>
              <rects>
                <_>
                  11 0 9 18 -1.</_>
                <_>
                  11 9 9 9 2.</_></rects>
              <tilted>0</tilted></feature>
            <threshold>-0.0267726406455040</threshold>
            <left_val>0.1302874982357025</left_val>
            <right_val>-0.3071326017379761</right_val></_></_>
        <_>
          <_>
            <feature>
              <rects>
                <_>
                  7 18 3 1 -1.</_>
                <_>
                  8 18 1 1 3.</_></rects>
              <tilted>0</tilted></feature>
            <threshold>5.1974272355437279e-004</threshold>
            <left_val>0.1260299980640411</left_val>
            <right_val>-0.5161157250404358</right_val></_></_>
        <_>
          <_>
            <feature>
              <rects>
                <_>
                  10 19 3 1 -1.</_>
                <_>
                  11 19 1 1 3.</_></rects>
              <tilted>0</tilted></feature>
            <threshold>4.7616619849577546e-004</threshold>
            <left_val>0.1077267974615097</left_val>
            <right_val>-0.5753129720687866</right_val></_></_>
        <_>
          <_>
            <feature>
              <rects>
                <_>
                  10 13 1 6 -1.</_>
                <_>
                  8 15 1 2 3.</_></rects>
              <tilted>1</tilted></feature>
            <threshold>4.3954867869615555e-003</threshold>
            <left_val>-0.1752635985612869</left_val>
            <right_val>0.3855606913566589</right_val></_></_></trees>
      <stage_threshold>-1.4507399797439575</stage_threshold>
      <parent>0</parent>
      <next>-1</next></_>
    <_>
      <trees>
        <_>
          <_>
            <feature>
              <rects>
                <_>
                  0 16 16 4 -1.</_>
                <_>
                  0 18 16 2 2.</_></rects>
              <tilted>0</tilted></feature>
            <threshold>9.7383111715316772e-003</threshold>
            <left_val>-0.5832967162132263</left_val>
            <right_val>0.3350372910499573</right_val></_></_>
        <_>
          <_>
            <feature>
              <rects>
                <_>
                  0 13 20 7 -1.</_>
                <_>
                  5 13 10 7 2.</_></rects>
              <tilted>0</tilted></feature>
            <threshold>-0.0602068305015564</threshold>
            <left_val>0.2901993095874786</left_val>
            <right_val>-0.4352597892284393</right_val></_></_>
        <_>
          <_>
            <feature>
              <rects>
                <_>
                  7 0 3 20 -1.</_>
                <_>
                  7 10 3 10 2.</_></rects>
              <tilted>0</tilted></feature>
            <threshold>-0.0142063498497009</threshold>
            <left_val>0.1480719000101090</left_val>
            <right_val>-0.6401752233505249</right_val></_></_>
        <_>
          <_>
            <feature>
              <rects>
                <_>
                  16 8 4 7 -1.</_>
                <_>
                  16 8 2 7 2.</_></rects>
              <tilted>0</tilted></feature>
            <threshold>-9.2962589114904404e-003</threshold>
            <left_val>0.4382897019386292</left_val>
            <right_val>-0.2751874029636383</right_val></_></_>
        <_>
          <_>
            <feature>
              <rects>
                <_>
                  0 0 6 14 -1.</_>
                <_>
                  0 0 3 7 2.</_>
                <_>
                  3 7 3 7 2.</_></rects>
              <tilted>0</tilted></feature>
            <threshold>-0.0207605306059122</threshold>
            <left_val>0.3554671108722687</left_val>
            <right_val>-0.2758288085460663</right_val></_></_>
        <_>
          <_>
            <feature>
              <rects>
                <_>
                  9 10 4 6 -1.</_>
                <_>
                  9 13 4 3 2.</_></rects>
              <tilted>0</tilted></feature>
            <threshold>-0.0135240703821182</threshold>
            <left_val>0.2538287937641144</left_val>
            <right_val>-0.1500117927789688</right_val></_></_>
        <_>
          <_>
            <feature>
              <rects>
                <_>
                  9 3 3 2 -1.</_>
                <_>
                  9 3 3 1 2.</_></rects>
              <tilted>1</tilted></feature>
            <threshold>7.7794129028916359e-003</threshold>
            <left_val>-0.1759500056505203</left_val>
            <right_val>0.4810309112071991</right_val></_></_>
        <_>
          <_>
            <feature>
              <rects>
                <_>
                  19 14 1 4 -1.</_>
                <_>
                  19 14 1 2 2.</_></rects>
              <tilted>1</tilted></feature>
            <threshold>0.0177295096218586</threshold>
            <left_val>0.0209720805287361</left_val>
            <right_val>-0.5445330142974854</right_val></_></_>
        <_>
          <_>
            <feature>
              <rects>
                <_>
                  1 14 4 1 -1.</_>
                <_>
                  1 14 2 1 2.</_></rects>
              <tilted>1</tilted></feature>
            <threshold>-2.3663509637117386e-003</threshold>
            <left_val>-0.6475598812103272</left_val>
            <right_val>0.1407794058322907</right_val></_></_>
        <_>
          <_>
            <feature>
              <rects>
                <_>
                  7 12 8 8 -1.</_>
                <_>
                  7 16 8 4 2.</_></rects>
              <tilted>0</tilted></feature>
            <threshold>0.0303888302296400</threshold>
            <left_val>-0.2499137073755264</left_val>
            <right_val>0.3139087855815888</right_val></_></_>
        <_>
          <_>
            <feature>
              <rects>
                <_>
                  9 19 2 1 -1.</_>
                <_>
                  10 19 1 1 2.</_></rects>
              <tilted>0</tilted></feature>
            <threshold>5.8542221086099744e-004</threshold>
            <left_val>0.0948116928339005</left_val>
            <right_val>-0.7328088879585266</right_val></_></_>
        <_>
          <_>
            <feature>
              <rects>
                <_>
                  12 11 2 3 -1.</_>
                <_>
                  12 11 1 3 2.</_></rects>
              <tilted>1</tilted></feature>
            <threshold>8.5034649819135666e-003</threshold>
            <left_val>-0.0975958481431007</left_val>
            <right_val>0.2439849972724915</right_val></_></_>
        <_>
          <_>
            <feature>
              <rects>
                <_>
                  0 1 18 18 -1.</_>
                <_>
                  9 1 9 18 2.</_></rects>
              <tilted>0</tilted></feature>
            <threshold>0.1193334013223648</threshold>
            <left_val>0.1165041029453278</left_val>
            <right_val>-0.5668597221374512</right_val></_></_>
        <_>
          <_>
            <feature>
              <rects>
                <_>
                  16 5 4 14 -1.</_>
                <_>
                  17 5 2 14 2.</_></rects>
              <tilted>0</tilted></feature>
            <threshold>-7.9674655571579933e-003</threshold>
            <left_val>0.5057284832000732</left_val>
            <right_val>-0.2309202998876572</right_val></_></_>
        <_>
          <_>
            <feature>
              <rects>
                <_>
                  9 13 2 2 -1.</_>
                <_>
                  10 13 1 2 2.</_></rects>
              <tilted>0</tilted></feature>
            <threshold>2.2090609490987845e-005</threshold>
            <left_val>-0.2377845942974091</left_val>
            <right_val>0.2906723022460938</right_val></_></_>
        <_>
          <_>
            <feature>
              <rects>
                <_>
                  16 9 4 7 -1.</_>
                <_>
                  17 10 2 7 2.</_></rects>
              <tilted>1</tilted></feature>
            <threshold>6.0884128324687481e-003</threshold>
            <left_val>-0.0378865301609039</left_val>
            <right_val>0.1731809973716736</right_val></_></_>
        <_>
          <_>
            <feature>
              <rects>
                <_>
                  4 9 7 4 -1.</_>
                <_>
                  3 10 7 2 2.</_></rects>
              <tilted>1</tilted></feature>
            <threshold>-0.0157245099544525</threshold>
            <left_val>0.4282912909984589</left_val>
            <right_val>-0.1612809002399445</right_val></_></_>
        <_>
          <_>
            <feature>
              <rects>
                <_>
                  19 2 1 18 -1.</_>
                <_>
                  19 11 1 9 2.</_></rects>
              <tilted>0</tilted></feature>
            <threshold>0.0143412100151181</threshold>
            <left_val>0.0633317828178406</left_val>
            <right_val>-0.3247486054897308</right_val></_></_>
        <_>
          <_>
            <feature>
              <rects>
                <_>
                  8 14 2 6 -1.</_>
                <_>
                  8 16 2 2 3.</_></rects>
              <tilted>0</tilted></feature>
            <threshold>3.1520149204879999e-003</threshold>
            <left_val>-0.1639644950628281</left_val>
            <right_val>0.3522622883319855</right_val></_></_>
        <_>
          <_>
            <feature>
              <rects>
                <_>
                  9 13 3 3 -1.</_>
                <_>
                  10 14 1 1 9.</_></rects>
              <tilted>0</tilted></feature>
            <threshold>3.9558880962431431e-003</threshold>
            <left_val>-0.0903487727046013</left_val>
            <right_val>0.3288708925247192</right_val></_></_>
        <_>
          <_>
            <feature>
              <rects>
                <_>
                  1 11 4 1 -1.</_>
                <_>
                  1 11 2 1 2.</_></rects>
              <tilted>1</tilted></feature>
            <threshold>-5.6374641135334969e-003</threshold>
            <left_val>-0.6949663758277893</left_val>
            <right_val>0.0834162831306458</right_val></_></_></trees>
      <stage_threshold>-1.3321189880371094</stage_threshold>
      <parent>1</parent>
      <next>-1</next></_>
    <_>
      <trees>
        <_>
          <_>
            <feature>
              <rects>
                <_>
                  6 16 8 4 -1.</_>
                <_>
                  6 18 8 2 2.</_></rects>
              <tilted>0</tilted></feature>
            <threshold>0.0251065399497747</threshold>
            <left_val>-0.3211264908313751</left_val>
            <right_val>0.4450016915798187</right_val></_></_>
        <_>
          <_>
            <feature>
              <rects>
                <_>
                  2 1 18 6 -1.</_>
                <_>
                  8 3 6 2 9.</_></rects>
              <tilted>0</tilted></feature>
            <threshold>0.0640010535717011</threshold>
            <left_val>-0.1454294025897980</left_val>
            <right_val>0.2693538069725037</right_val></_></_>
        <_>
          <_>
            <feature>
              <rects>
                <_>
                  1 13 6 1 -1.</_>
                <_>
                  1 13 3 1 2.</_></rects>
              <tilted>1</tilted></feature>
            <threshold>-3.7622950039803982e-003</threshold>
            <left_val>-0.6511059999465942</left_val>
            <right_val>0.1536042988300324</right_val></_></_>
        <_>
          <_>
            <feature>
              <rects>
                <_>
                  12 14 8 6 -1.</_>
                <_>
                  12 17 8 3 2.</_></rects>
              <tilted>0</tilted></feature>
            <threshold>-5.4181669838726521e-003</threshold>
            <left_val>-0.4821969866752625</left_val>
            <right_val>0.2076455056667328</right_val></_></_>
        <_>
          <_>
            <feature>
              <rects>
                <_>
                  2 19 8 1 -1.</_>
                <_>
                  6 19 4 1 2.</_></rects>
              <tilted>0</tilted></feature>
            <threshold>1.4673520345240831e-003</threshold>
            <left_val>0.1618849039077759</left_val>
            <right_val>-0.5449368953704834</right_val></_></_>
        <_>
          <_>
            <feature>
              <rects>
                <_>
                  9 7 8 8 -1.</_>
                <_>
                  9 11 8 4 2.</_></rects>
              <tilted>0</tilted></feature>
            <threshold>-0.0244962498545647</threshold>
            <left_val>0.1884154975414276</left_val>
            <right_val>-0.3158878087997437</right_val></_></_>
        <_>
          <_>
            <feature>
              <rects>
                <_>
                  6 6 4 12 -1.</_>
                <_>
                  8 6 2 12 2.</_></rects>
              <tilted>0</tilted></feature>
            <threshold>-0.0183052700012922</threshold>
            <left_val>-0.5757204890251160</left_val>
            <right_val>0.1281048059463501</right_val></_></_>
        <_>
          <_>
            <feature>
              <rects>
                <_>
                  4 1 16 9 -1.</_>
                <_>
                  4 1 8 9 2.</_></rects>
              <tilted>0</tilted></feature>
            <threshold>-0.2106261998414993</threshold>
            <left_val>-0.6581236720085144</left_val>
            <right_val>0.0608439818024635</right_val></_></_>
        <_>
          <_>
            <feature>
              <rects>
                <_>
                  9 18 2 2 -1.</_>
                <_>
                  9 19 2 1 2.</_></rects>
              <tilted>0</tilted></feature>
            <threshold>-4.6112670679576695e-004</threshold>
            <left_val>-0.5591632723808289</left_val>
            <right_val>0.1309404969215393</right_val></_></_>
        <_>
          <_>
            <feature>
              <rects>
                <_>
                  9 19 3 1 -1.</_>
                <_>
                  10 19 1 1 3.</_></rects>
              <tilted>0</tilted></feature>
            <threshold>-4.3882030877284706e-004</threshold>
            <left_val>-0.5041570067405701</left_val>
            <right_val>0.1083974987268448</right_val></_></_>
        <_>
          <_>
            <feature>
              <rects>
                <_>
                  8 19 4 1 -1.</_>
                <_>
                  9 19 2 1 2.</_></rects>
              <tilted>0</tilted></feature>
            <threshold>6.4070231746882200e-004</threshold>
            <left_val>0.1456706970930100</left_val>
            <right_val>-0.5573880076408386</right_val></_></_>
        <_>
          <_>
            <feature>
              <rects>
                <_>
                  19 7 1 10 -1.</_>
                <_>
                  19 7 1 5 2.</_></rects>
              <tilted>1</tilted></feature>
            <threshold>0.0653239265084267</threshold>
            <left_val>-0.0453264191746712</left_val>
            <right_val>1.0000180006027222</right_val></_></_>
        <_>
          <_>
            <feature>
              <rects>
                <_>
                  1 7 10 1 -1.</_>
                <_>
                  1 7 5 1 2.</_></rects>
              <tilted>1</tilted></feature>
            <threshold>3.4679469536058605e-005</threshold>
            <left_val>-0.5876320004463196</left_val>
            <right_val>0.1676028966903687</right_val></_></_>
        <_>
          <_>
            <feature>
              <rects>
                <_>
                  16 5 4 7 -1.</_>
                <_>
                  16 5 2 7 2.</_></rects>
              <tilted>0</tilted></feature>
            <threshold>-0.0255342107266188</threshold>
            <left_val>0.5695689916610718</left_val>
            <right_val>-0.1760517954826355</right_val></_></_>
        <_>
          <_>
            <feature>
              <rects>
                <_>
                  0 5 4 7 -1.</_>
                <_>
                  2 5 2 7 2.</_></rects>
              <tilted>0</tilted></feature>
            <threshold>-0.0387809611856937</threshold>
            <left_val>0.8201690912246704</left_val>
            <right_val>-0.0806274265050888</right_val></_></_>
        <_>
          <_>
            <feature>
              <rects>
                <_>
                  2 2 18 3 -1.</_>
                <_>
                  8 3 6 1 9.</_></rects>
              <tilted>0</tilted></feature>
            <threshold>0.1300151944160461</threshold>
            <left_val>-0.0277655702084303</left_val>
            <right_val>0.6273294091224670</right_val></_></_>
        <_>
          <_>
            <feature>
              <rects>
                <_>
                  5 1 4 4 -1.</_>
                <_>
                  5 2 4 2 2.</_></rects>
              <tilted>0</tilted></feature>
            <threshold>7.9307109117507935e-003</threshold>
            <left_val>-0.1434872001409531</left_val>
            <right_val>0.4946744143962860</right_val></_></_>
        <_>
          <_>
            <feature>
              <rects>
                <_>
                  4 1 12 3 -1.</_>
                <_>
                  4 2 12 1 3.</_></rects>
              <tilted>0</tilted></feature>
            <threshold>-0.0228749494999647</threshold>
            <left_val>0.7431452274322510</left_val>
            <right_val>-0.1031974032521248</right_val></_></_>
        <_>
          <_>
            <feature>
              <rects>
                <_>
                  8 19 3 1 -1.</_>
                <_>
                  9 19 1 1 3.</_></rects>
              <tilted>0</tilted></feature>
            <threshold>-4.9317901721224189e-004</threshold>
            <left_val>-0.5370563864707947</left_val>
            <right_val>0.1422065943479538</right_val></_></_>
        <_>
          <_>
            <feature>
              <rects>
                <_>
                  6 6 14 2 -1.</_>
                <_>
                  6 6 7 2 2.</_></rects>
              <tilted>0</tilted></feature>
            <threshold>-0.0167300999164581</threshold>
            <left_val>0.1001921966671944</left_val>
            <right_val>-0.0634450912475586</right_val></_></_>
        <_>
          <_>
            <feature>
              <rects>
                <_>
                  0 3 14 17 -1.</_>
                <_>
                  7 3 7 17 2.</_></rects>
              <tilted>0</tilted></feature>
            <threshold>0.0399484597146511</threshold>
            <left_val>0.1308902055025101</left_val>
            <right_val>-0.5513703823089600</right_val></_></_>
        <_>
          <_>
            <feature>
              <rects>
                <_>
                  10 11 4 1 -1.</_>
                <_>
                  10 11 2 1 2.</_></rects>
              <tilted>1</tilted></feature>
            <threshold>0.0147159099578857</threshold>
            <left_val>-0.0621012598276138</left_val>
            <right_val>0.4512825906276703</right_val></_></_>
        <_>
          <_>
            <feature>
              <rects>
                <_>
                  2 13 12 2 -1.</_>
                <_>
                  5 13 6 2 2.</_></rects>
              <tilted>0</tilted></feature>
            <threshold>-0.0189201608300209</threshold>
            <left_val>0.5120406150817871</left_val>
            <right_val>-0.1527103930711746</right_val></_></_>
        <_>
          <_>
            <feature>
              <rects>
                <_>
                  10 11 6 2 -1.</_>
                <_>
                  10 11 3 2 2.</_></rects>
              <tilted>1</tilted></feature>
            <threshold>0.0154127702116966</threshold>
            <left_val>-0.1147345975041390</left_val>
            <right_val>0.2649072110652924</right_val></_></_>
        <_>
          <_>
            <feature>
              <rects>
                <_>
                  8 2 2 2 -1.</_>
                <_>
                  8 2 2 1 2.</_></rects>
              <tilted>1</tilted></feature>
            <threshold>8.1283051986247301e-004</threshold>
            <left_val>-0.2842741012573242</left_val>
            <right_val>0.2611744105815888</right_val></_></_>
        <_>
          <_>
            <feature>
              <rects>
                <_>
                  10 8 2 2 -1.</_>
                <_>
                  10 9 2 1 2.</_></rects>
              <tilted>0</tilted></feature>
            <threshold>-6.7729590227827430e-005</threshold>
            <left_val>0.1206770017743111</left_val>
            <right_val>-0.1976711004972458</right_val></_></_>
        <_>
          <_>
            <feature>
              <rects>
                <_>
                  3 19 3 1 -1.</_>
                <_>
                  4 19 1 1 3.</_></rects>
              <tilted>0</tilted></feature>
            <threshold>1.2917680433019996e-003</threshold>
            <left_val>0.0979813635349274</left_val>
            <right_val>-0.6993836760520935</right_val></_></_>
        <_>
          <_>
            <feature>
              <rects>
                <_>
                  9 8 2 3 -1.</_>
                <_>
                  9 8 1 3 2.</_></rects>
              <tilted>0</tilted></feature>
            <threshold>1.2504749465733767e-003</threshold>
            <left_val>0.1513925939798355</left_val>
            <right_val>-0.4040031135082245</right_val></_></_></trees>
      <stage_threshold>-1.2369439601898193</stage_threshold>
      <parent>2</parent>
      <next>-1</next></_>
    <_>
      <trees>
        <_>
          <_>
            <feature>
              <rects>
                <_>
                  2 16 16 4 -1.</_>
                <_>
                  2 18 16 2 2.</_></rects>
              <tilted>0</tilted></feature>
            <threshold>0.0404646806418896</threshold>
            <left_val>-0.3238196969032288</left_val>
            <right_val>0.4251168966293335</right_val></_></_>
        <_>
          <_>
            <feature>
              <rects>
                <_>
                  16 8 4 7 -1.</_>
                <_>
                  16 8 2 7 2.</_></rects>
              <tilted>0</tilted></feature>
            <threshold>-0.0291180200874805</threshold>
            <left_val>0.5737277865409851</left_val>
            <right_val>-0.1357962936162949</right_val></_></_>
        <_>
          <_>
            <feature>
              <rects>
                <_>
                  0 8 4 7 -1.</_>
                <_>
                  2 8 2 7 2.</_></rects>
              <tilted>0</tilted></feature>
            <threshold>-0.0208571702241898</threshold>
            <left_val>0.5277361273765564</left_val>
            <right_val>-0.2029599994421005</right_val></_></_>
        <_>
          <_>
            <feature>
              <rects>
                <_>
                  9 19 3 1 -1.</_>
                <_>
                  10 19 1 1 3.</_></rects>
              <tilted>0</tilted></feature>
            <threshold>8.0879381857812405e-004</threshold>
            <left_val>0.1072050034999847</left_val>
            <right_val>-0.7290400266647339</right_val></_></_>
        <_>
          <_>
            <feature>
              <rects>
                <_>
                  8 19 3 1 -1.</_>
                <_>
                  9 19 1 1 3.</_></rects>
              <tilted>0</tilted></feature>
            <threshold>3.2515521161258221e-004</threshold>
            <left_val>0.2131862044334412</left_val>
            <right_val>-0.5022197961807251</right_val></_></_>
        <_>
          <_>
            <feature>
              <rects>
                <_>
                  9 7 5 10 -1.</_>
                <_>
                  9 12 5 5 2.</_></rects>
              <tilted>0</tilted></feature>
            <threshold>-0.0292413998395205</threshold>
            <left_val>0.1789413988590241</left_val>
            <right_val>-0.3223727941513062</right_val></_></_>
        <_>
          <_>
            <feature>
              <rects>
                <_>
                  1 2 6 12 -1.</_>
                <_>
                  1 2 3 6 2.</_>
                <_>
                  4 8 3 6 2.</_></rects>
              <tilted>0</tilted></feature>
            <threshold>-0.0350247398018837</threshold>
            <left_val>0.5635429024696350</left_val>
            <right_val>-0.1829295009374619</right_val></_></_>
        <_>
          <_>
            <feature>
              <rects>
                <_>
                  11 19 2 1 -1.</_>
                <_>
                  11 19 1 1 2.</_></rects>
              <tilted>0</tilted></feature>
            <threshold>-4.0314660873264074e-004</threshold>
            <left_val>-0.4444741904735565</left_val>
            <right_val>0.1012687981128693</right_val></_></_>
        <_>
          <_>
            <feature>
              <rects>
                <_>
                  5 16 9 4 -1.</_>
                <_>
                  5 17 9 2 2.</_></rects>
              <tilted>0</tilted></feature>
            <threshold>-0.0140613000839949</threshold>
            <left_val>0.5650507211685181</left_val>
            <right_val>-0.1488292068243027</right_val></_></_>
        <_>
          <_>
            <feature>
              <rects>
                <_>
                  9 11 3 6 -1.</_>
                <_>
                  9 13 3 2 3.</_></rects>
              <tilted>0</tilted></feature>
            <threshold>-0.0243746805936098</threshold>
            <left_val>0.6358668208122253</left_val>
            <right_val>-0.0615411885082722</right_val></_></_>
        <_>
          <_>
            <feature>
              <rects>
                <_>
                  7 0 12 1 -1.</_>
                <_>
                  7 0 6 1 2.</_></rects>
              <tilted>1</tilted></feature>
            <threshold>0.0336193703114986</threshold>
            <left_val>-0.2370402961969376</left_val>
            <right_val>0.3674798905849457</right_val></_></_>
        <_>
          <_>
            <feature>
              <rects>
                <_>
                  10 11 4 2 -1.</_>
                <_>
                  10 11 2 2 2.</_></rects>
              <tilted>1</tilted></feature>
            <threshold>0.0126305297017097</threshold>
            <left_val>-0.1175763979554176</left_val>
            <right_val>0.1912785023450851</right_val></_></_>
        <_>
          <_>
            <feature>
              <rects>
                <_>
                  5 13 10 5 -1.</_>
                <_>
                  10 13 5 5 2.</_></rects>
              <tilted>0</tilted></feature>
            <threshold>0.0165027994662523</threshold>
            <left_val>-0.1663265973329544</left_val>
            <right_val>0.5161573290824890</right_val></_></_>
        <_>
          <_>
            <feature>
              <rects>
                <_>
                  11 19 2 1 -1.</_>
                <_>
                  11 19 1 1 2.</_></rects>
              <tilted>0</tilted></feature>
            <threshold>6.9364090450108051e-004</threshold>
            <left_val>0.1023269966244698</left_val>
            <right_val>-0.6355237960815430</right_val></_></_>
        <_>
          <_>
            <feature>
              <rects>
                <_>
                  2 13 12 6 -1.</_>
                <_>
                  6 15 4 2 9.</_></rects>
              <tilted>0</tilted></feature>
            <threshold>0.0220550801604986</threshold>
            <left_val>-0.1605886965990067</left_val>
            <right_val>0.5946856737136841</right_val></_></_>
        <_>
          <_>
            <feature>
              <rects>
                <_>
                  15 19 2 1 -1.</_>
                <_>
                  15 19 1 1 2.</_></rects>
              <tilted>0</tilted></feature>
            <threshold>3.4304001019336283e-004</threshold>
            <left_val>0.1257787048816681</left_val>
            <right_val>-0.3146381080150604</right_val></_></_>
        <_>
          <_>
            <feature>
              <rects>
                <_>
                  2 19 4 1 -1.</_>
                <_>
                  4 19 2 1 2.</_></rects>
              <tilted>0</tilted></feature>
            <threshold>5.4157461272552609e-004</threshold>
            <left_val>0.1467188000679016</left_val>
            <right_val>-0.4942235052585602</right_val></_></_>
        <_>
          <_>
            <feature>
              <rects>
                <_>
                  6 6 14 2 -1.</_>
                <_>
                  6 6 7 2 2.</_></rects>
              <tilted>0</tilted></feature>
            <threshold>-6.7114089615643024e-003</threshold>
            <left_val>0.1152469962835312</left_val>
            <right_val>-0.1132740005850792</right_val></_></_>
        <_>
          <_>
            <feature>
              <rects>
                <_>
                  0 6 14 2 -1.</_>
                <_>
                  7 6 7 2 2.</_></rects>
              <tilted>0</tilted></feature>
            <threshold>0.0384916700422764</threshold>
            <left_val>0.1071728020906448</left_val>
            <right_val>-0.7544047236442566</right_val></_></_>
        <_>
          <_>
            <feature>
              <rects>
                <_>
                  10 5 4 3 -1.</_>
                <_>
                  10 5 2 3 2.</_></rects>
              <tilted>1</tilted></feature>
            <threshold>0.0381663516163826</threshold>
            <left_val>-0.0682289674878120</left_val>
            <right_val>0.4987356960773468</right_val></_></_>
        <_>
          <_>
            <feature>
              <rects>
                <_>
                  7 0 6 7 -1.</_>
                <_>
                  9 2 2 7 3.</_></rects>
              <tilted>1</tilted></feature>
            <threshold>-0.0400691591203213</threshold>
            <left_val>0.5479117035865784</left_val>
            <right_val>-0.1387045979499817</right_val></_></_>
        <_>
          <_>
            <feature>
              <rects>
                <_>
                  10 11 4 2 -1.</_>
                <_>
                  10 11 2 2 2.</_></rects>
              <tilted>1</tilted></feature>
            <threshold>0.0107949599623680</threshold>
            <left_val>-0.0773332118988037</left_val>
            <right_val>0.1525827944278717</right_val></_></_>
        <_>
          <_>
            <feature>
              <rects>
                <_>
                  10 5 3 4 -1.</_>
                <_>
                  10 5 3 2 2.</_></rects>
              <tilted>1</tilted></feature>
            <threshold>0.0164237692952156</threshold>
            <left_val>-0.2023303061723709</left_val>
            <right_val>0.3911663889884949</right_val></_></_>
        <_>
          <_>
            <feature>
              <rects>
                <_>
                  7 1 6 3 -1.</_>
                <_>
                  7 2 6 1 3.</_></rects>
              <tilted>0</tilted></feature>
            <threshold>-0.0121365999802947</threshold>
            <left_val>0.6235584020614624</left_val>
            <right_val>-0.1223270967602730</right_val></_></_>
        <_>
          <_>
            <feature>
              <rects>
                <_>
                  8 18 4 2 -1.</_>
                <_>
                  9 18 2 2 2.</_></rects>
              <tilted>0</tilted></feature>
            <threshold>-8.9650170411914587e-004</threshold>
            <left_val>-0.4721429049968720</left_val>
            <right_val>0.1884534060955048</right_val></_></_>
        <_>
          <_>
            <feature>
              <rects>
                <_>
                  9 13 9 4 -1.</_>
                <_>
                  9 15 9 2 2.</_></rects>
              <tilted>0</tilted></feature>
            <threshold>-0.0220366697758436</threshold>
            <left_val>0.3030546009540558</left_val>
            <right_val>-0.1237362027168274</right_val></_></_>
        <_>
          <_>
            <feature>
              <rects>
                <_>
                  3 12 14 6 -1.</_>
                <_>
                  3 12 7 3 2.</_>
                <_>
                  10 15 7 3 2.</_></rects>
              <tilted>0</tilted></feature>
            <threshold>0.0692890435457230</threshold>
            <left_val>-0.0860954523086548</left_val>
            <right_val>0.7784447073936462</right_val></_></_></trees>
      <stage_threshold>-1.2453060150146484</stage_threshold>
      <parent>3</parent>
      <next>-1</next></_>
    <_>
      <trees>
        <_>
          <_>
            <feature>
              <rects>
                <_>
                  8 8 4 8 -1.</_>
                <_>
                  6 10 4 4 2.</_></rects>
              <tilted>1</tilted></feature>
            <threshold>-0.0366588085889816</threshold>
            <left_val>0.4278196096420288</left_val>
            <right_val>-0.3125393092632294</right_val></_></_>
        <_>
          <_>
            <feature>
              <rects>
                <_>
                  3 14 14 6 -1.</_>
                <_>
                  3 16 14 2 3.</_></rects>
              <tilted>0</tilted></feature>
            <threshold>-0.0592226386070251</threshold>
            <left_val>0.5348855853080750</left_val>
            <right_val>-0.1987279057502747</right_val></_></_>
        <_>
          <_>
            <feature>
              <rects>
                <_>
                  6 19 3 1 -1.</_>
                <_>
                  7 19 1 1 3.</_></rects>
              <tilted>0</tilted></feature>
            <threshold>-4.5751870493404567e-004</threshold>
            <left_val>-0.5789046287536621</left_val>
            <right_val>0.1716887056827545</right_val></_></_>
        <_>
          <_>
            <feature>
              <rects>
                <_>
                  19 13 1 4 -1.</_>
                <_>
                  19 13 1 2 2.</_></rects>
              <tilted>1</tilted></feature>
            <threshold>0.0132678998634219</threshold>
            <left_val>0.0661871433258057</left_val>
            <right_val>-0.3184562921524048</right_val></_></_>
        <_>
          <_>
            <feature>
              <rects>
                <_>
                  1 13 4 1 -1.</_>
                <_>
                  1 13 2 1 2.</_></rects>
              <tilted>1</tilted></feature>
            <threshold>-1.8564449856057763e-003</threshold>
            <left_val>-0.5960685014724731</left_val>
            <right_val>0.1724248975515366</right_val></_></_>
        <_>
          <_>
            <feature>
              <rects>
                <_>
                  0 5 20 15 -1.</_>
                <_>
                  0 10 20 5 3.</_></rects>
              <tilted>0</tilted></feature>
            <threshold>-0.1742170006036758</threshold>
            <left_val>0.3646084070205689</left_val>
            <right_val>-0.3265261948108673</right_val></_></_>
        <_>
          <_>
            <feature>
              <rects>
                <_>
                  6 19 3 1 -1.</_>
                <_>
                  7 19 1 1 3.</_></rects>
              <tilted>0</tilted></feature>
            <threshold>6.8050192203372717e-004</threshold>
            <left_val>0.1583821028470993</left_val>
            <right_val>-0.5926126241683960</right_val></_></_>
        <_>
          <_>
            <feature>
              <rects>
                <_>
                  10 6 3 10 -1.</_>
                <_>
                  10 6 3 5 2.</_></rects>
              <tilted>1</tilted></feature>
            <threshold>-0.1619745939970017</threshold>
            <left_val>-0.6251357793807983</left_val>
            <right_val>-0.0195486303418875</right_val></_></_>
        <_>
          <_>
            <feature>
              <rects>
                <_>
                  3 1 6 12 -1.</_>
                <_>
                  3 5 6 4 3.</_></rects>
              <tilted>0</tilted></feature>
            <threshold>-0.1096559017896652</threshold>
            <left_val>0.8048449754714966</left_val>
            <right_val>-0.0969710797071457</right_val></_></_>
        <_>
          <_>
            <feature>
              <rects>
                <_>
                  13 9 7 4 -1.</_>
                <_>
                  13 9 7 2 2.</_></rects>
              <tilted>1</tilted></feature>
            <threshold>0.0497891306877136</threshold>
            <left_val>0.0557264313101768</left_val>
            <right_val>-0.1725582927465439</right_val></_></_>
        <_>
          <_>
            <feature>
              <rects>
                <_>
                  7 9 4 7 -1.</_>
                <_>
                  7 9 2 7 2.</_></rects>
              <tilted>1</tilted></feature>
            <threshold>-7.9825203865766525e-003</threshold>
            <left_val>-0.6879696846008301</left_val>
            <right_val>0.1167403981089592</right_val></_></_>
        <_>
          <_>
            <feature>
              <rects>
                <_>
                  18 16 1 4 -1.</_>
                <_>
                  18 18 1 2 2.</_></rects>
              <tilted>0</tilted></feature>
            <threshold>-2.8815900441259146e-004</threshold>
            <left_val>-0.2993153929710388</left_val>
            <right_val>0.1528355032205582</right_val></_></_>
        <_>
          <_>
            <feature>
              <rects>
                <_>
                  1 17 2 2 -1.</_>
                <_>
                  1 18 2 1 2.</_></rects>
              <tilted>0</tilted></feature>
            <threshold>-3.7123518995940685e-004</threshold>
            <left_val>-0.3545630872249603</left_val>
            <right_val>0.1965741962194443</right_val></_></_>
        <_>
          <_>
            <feature>
              <rects>
                <_>
                  9 19 2 1 -1.</_>
                <_>
                  9 19 1 1 2.</_></rects>
              <tilted>0</tilted></feature>
            <threshold>-3.2781308982521296e-004</threshold>
            <left_val>-0.5430318117141724</left_val>
            <right_val>0.1195396035909653</right_val></_></_>
        <_>
          <_>
            <feature>
              <rects>
                <_>
                  5 0 8 20 -1.</_>
                <_>
                  5 10 8 10 2.</_></rects>
              <tilted>0</tilted></feature>
            <threshold>0.0348786003887653</threshold>
            <left_val>0.0865680873394012</left_val>
            <right_val>-0.7564796805381775</right_val></_></_>
        <_>
          <_>
            <feature>
              <rects>
                <_>
                  9 18 2 2 -1.</_>
                <_>
                  9 18 1 2 2.</_></rects>
              <tilted>0</tilted></feature>
            <threshold>4.7164870193228126e-004</threshold>
            <left_val>0.1641104966402054</left_val>
            <right_val>-0.4318957924842835</right_val></_></_>
        <_>
          <_>
            <feature>
              <rects>
                <_>
                  2 2 1 16 -1.</_>
                <_>
                  2 10 1 8 2.</_></rects>
              <tilted>0</tilted></feature>
            <threshold>-1.9063380314037204e-003</threshold>
            <left_val>-0.2245116978883743</left_val>
            <right_val>0.3700748085975647</right_val></_></_>
        <_>
          <_>
            <feature>
              <rects>
                <_>
                  8 5 12 10 -1.</_>
                <_>
                  14 5 6 5 2.</_>
                <_>
                  8 10 6 5 2.</_></rects>
              <tilted>0</tilted></feature>
            <threshold>0.0358394309878349</threshold>
            <left_val>-0.0617836490273476</left_val>
            <right_val>0.1888633072376251</right_val></_></_>
        <_>
          <_>
            <feature>
              <rects>
                <_>
                  1 7 4 6 -1.</_>
                <_>
                  1 10 4 3 2.</_></rects>
              <tilted>0</tilted></feature>
            <threshold>-0.0131360404193401</threshold>
            <left_val>0.3673273026943207</left_val>
            <right_val>-0.1959277987480164</right_val></_></_>
        <_>
          <_>
            <feature>
              <rects>
                <_>
                  7 13 7 6 -1.</_>
                <_>
                  7 15 7 2 3.</_></rects>
              <tilted>0</tilted></feature>
            <threshold>-0.0313914604485035</threshold>
            <left_val>0.4040654897689819</left_val>
            <right_val>-0.1528829932212830</right_val></_></_>
        <_>
          <_>
            <feature>
              <rects>
                <_>
                  4 0 12 4 -1.</_>
                <_>
                  4 2 12 2 2.</_></rects>
              <tilted>0</tilted></feature>
            <threshold>-0.0449279882013798</threshold>
            <left_val>0.5186991095542908</left_val>
            <right_val>-0.1240201964974403</right_val></_></_>
        <_>
          <_>
            <feature>
              <rects>
                <_>
                  9 3 11 10 -1.</_>
                <_>
                  9 8 11 5 2.</_></rects>
              <tilted>0</tilted></feature>
            <threshold>-0.0773638188838959</threshold>
            <left_val>0.1009744033217430</left_val>
            <right_val>-0.1240393966436386</right_val></_></_>
        <_>
          <_>
            <feature>
              <rects>
                <_>
                  9 2 9 2 -1.</_>
                <_>
                  12 5 3 2 3.</_></rects>
              <tilted>1</tilted></feature>
            <threshold>-0.0487871095538139</threshold>
            <left_val>0.6391350030899048</left_val>
            <right_val>-0.1124783009290695</right_val></_></_>
        <_>
          <_>
            <feature>
              <rects>
                <_>
                  3 17 15 3 -1.</_>
                <_>
                  3 18 15 1 3.</_></rects>
              <tilted>0</tilted></feature>
            <threshold>-0.0217908192425966</threshold>
            <left_val>0.6712895035743713</left_val>
            <right_val>-0.0704250186681747</right_val></_></_></trees>
      <stage_threshold>-1.0809149742126465</stage_threshold>
      <parent>4</parent>
      <next>-1</next></_>
    <_>
      <trees>
        <_>
          <_>
            <feature>
              <rects>
                <_>
                  7 16 6 4 -1.</_>
                <_>
                  7 18 6 2 2.</_></rects>
              <tilted>0</tilted></feature>
            <threshold>0.0230332892388105</threshold>
            <left_val>-0.2847054898738861</left_val>
            <right_val>0.4351423978805542</right_val></_></_>
        <_>
          <_>
            <feature>
              <rects>
                <_>
                  5 1 12 6 -1.</_>
                <_>
                  9 3 4 2 9.</_></rects>
              <tilted>0</tilted></feature>
            <threshold>0.0708049163222313</threshold>
            <left_val>-0.1047732979059219</left_val>
            <right_val>0.2560783922672272</right_val></_></_>
        <_>
          <_>
            <feature>
              <rects>
                <_>
                  1 4 15 2 -1.</_>
                <_>
                  6 4 5 2 3.</_></rects>
              <tilted>0</tilted></feature>
            <threshold>0.0620684586465359</threshold>
            <left_val>-0.0975667536258698</left_val>
            <right_val>0.8435857295989990</right_val></_></_>
        <_>
          <_>
            <feature>
              <rects>
                <_>
                  11 8 8 4 -1.</_>
                <_>
                  13 10 4 4 2.</_></rects>
              <tilted>1</tilted></feature>
            <threshold>-0.0803362429141998</threshold>
            <left_val>0.1945594996213913</left_val>
            <right_val>-7.4906060472130775e-003</right_val></_></_>
        <_>
          <_>
            <feature>
              <rects>
                <_>
                  9 8 4 8 -1.</_>
                <_>
                  7 10 4 4 2.</_></rects>
              <tilted>1</tilted></feature>
            <threshold>-0.0914305672049522</threshold>
            <left_val>0.8000258207321167</left_val>
            <right_val>-0.1116292998194695</right_val></_></_>
        <_>
          <_>
            <feature>
              <rects>
                <_>
                  19 11 1 8 -1.</_>
                <_>
                  19 11 1 4 2.</_></rects>
              <tilted>1</tilted></feature>
            <threshold>0.0419650487601757</threshold>
            <left_val>0.0251192804425955</left_val>
            <right_val>-0.6592018008232117</right_val></_></_>
        <_>
          <_>
            <feature>
              <rects>
                <_>
                  1 11 8 1 -1.</_>
                <_>
                  1 11 4 1 2.</_></rects>
              <tilted>1</tilted></feature>
            <threshold>-6.3597201369702816e-003</threshold>
            <left_val>-0.6378028988838196</left_val>
            <right_val>0.1270475983619690</right_val></_></_>
        <_>
          <_>
            <feature>
              <rects>
                <_>
                  5 0 10 12 -1.</_>
                <_>
                  5 6 10 6 2.</_></rects>
              <tilted>0</tilted></feature>
            <threshold>-0.0845977514982224</threshold>
            <left_val>0.2442070990800858</left_val>
            <right_val>-0.3450233042240143</right_val></_></_>
        <_>
          <_>
            <feature>
              <rects>
                <_>
                  6 19 4 1 -1.</_>
                <_>
                  7 19 2 1 2.</_></rects>
              <tilted>0</tilted></feature>
            <threshold>-7.2124728467315435e-004</threshold>
            <left_val>-0.5458251833915710</left_val>
            <right_val>0.1335085928440094</right_val></_></_>
        <_>
          <_>
            <feature>
              <rects>
                <_>
                  11 10 9 1 -1.</_>
                <_>
                  14 13 3 1 3.</_></rects>
              <tilted>1</tilted></feature>
            <threshold>-0.0241109095513821</threshold>
            <left_val>0.2274170070886612</left_val>
            <right_val>-0.1238956004381180</right_val></_></_>
        <_>
          <_>
            <feature>
              <rects>
                <_>
                  1 4 8 8 -1.</_>
                <_>
                  1 4 4 4 2.</_>
                <_>
                  5 8 4 4 2.</_></rects>
              <tilted>0</tilted></feature>
            <threshold>0.0259073600172997</threshold>
            <left_val>-0.1236378028988838</left_val>
            <right_val>0.5869305133819580</right_val></_></_>
        <_>
          <_>
            <feature>
              <rects>
                <_>
                  2 0 16 4 -1.</_>
                <_>
                  2 0 8 4 2.</_></rects>
              <tilted>0</tilted></feature>
            <threshold>0.0886960625648499</threshold>
            <left_val>0.1215108036994934</left_val>
            <right_val>-0.6743072867393494</right_val></_></_>
        <_>
          <_>
            <feature>
              <rects>
                <_>
                  0 10 1 6 -1.</_>
                <_>
                  0 13 1 3 2.</_></rects>
              <tilted>0</tilted></feature>
            <threshold>4.6003130264580250e-003</threshold>
            <left_val>0.1332644969224930</left_val>
            <right_val>-0.4981347024440765</right_val></_></_>
        <_>
          <_>
            <feature>
              <rects>
                <_>
                  13 10 7 10 -1.</_>
                <_>
                  13 15 7 5 2.</_></rects>
              <tilted>0</tilted></feature>
            <threshold>0.1988516002893448</threshold>
            <left_val>0.0108684403821826</left_val>
            <right_val>-0.7398105263710022</right_val></_></_>
        <_>
          <_>
            <feature>
              <rects>
                <_>
                  0 10 7 10 -1.</_>
                <_>
                  0 15 7 5 2.</_></rects>
              <tilted>0</tilted></feature>
            <threshold>8.9616989716887474e-003</threshold>
            <left_val>-0.2581424117088318</left_val>
            <right_val>0.3667649030685425</right_val></_></_>
        <_>
          <_>
            <feature>
              <rects>
                <_>
                  12 12 4 3 -1.</_>
                <_>
                  12 12 2 3 2.</_></rects>
              <tilted>1</tilted></feature>
            <threshold>0.0113507797941566</threshold>
            <left_val>-0.0974657163023949</left_val>
            <right_val>0.2268213033676148</right_val></_></_>
        <_>
          <_>
            <feature>
              <rects>
                <_>
                  8 0 4 4 -1.</_>
                <_>
                  8 1 4 2 2.</_></rects>
              <tilted>0</tilted></feature>
            <threshold>7.6226601377129555e-003</threshold>
            <left_val>-0.1178115010261536</left_val>
            <right_val>0.5070778727531433</right_val></_></_>
        <_>
          <_>
            <feature>
              <rects>
                <_>
                  9 1 4 4 -1.</_>
                <_>
                  9 1 2 4 2.</_></rects>
              <tilted>0</tilted></feature>
            <threshold>-6.6653499379754066e-003</threshold>
            <left_val>-0.2732180058956146</left_val>
            <right_val>0.0822506919503212</right_val></_></_>
        <_>
          <_>
            <feature>
              <rects>
                <_>
                  4 0 10 4 -1.</_>
                <_>
                  4 1 10 2 2.</_></rects>
              <tilted>0</tilted></feature>
            <threshold>-0.0144350603222847</threshold>
            <left_val>0.4437608122825623</left_val>
            <right_val>-0.1489968001842499</right_val></_></_>
        <_>
          <_>
            <feature>
              <rects>
                <_>
                  9 1 4 4 -1.</_>
                <_>
                  9 1 2 4 2.</_></rects>
              <tilted>0</tilted></feature>
            <threshold>0.0211361702531576</threshold>
            <left_val>-0.0252454392611980</left_val>
            <right_val>0.3456737995147705</right_val></_></_>
        <_>
          <_>
            <feature>
              <rects>
                <_>
                  7 1 4 4 -1.</_>
                <_>
                  9 1 2 4 2.</_></rects>
              <tilted>0</tilted></feature>
            <threshold>7.5971931219100952e-003</threshold>
            <left_val>0.1350923925638199</left_val>
            <right_val>-0.5077657103538513</right_val></_></_>
        <_>
          <_>
            <feature>
              <rects>
                <_>
                  6 0 12 2 -1.</_>
                <_>
                  10 0 4 2 3.</_></rects>
              <tilted>0</tilted></feature>
            <threshold>-0.0282668899744749</threshold>
            <left_val>-0.4293962121009827</left_val>
            <right_val>0.0263857599347830</right_val></_></_>
        <_>
          <_>
            <feature>
              <rects>
                <_>
                  2 19 3 1 -1.</_>
                <_>
                  3 19 1 1 3.</_></rects>
              <tilted>0</tilted></feature>
            <threshold>6.5845012431964278e-004</threshold>
            <left_val>0.1180367022752762</left_val>
            <right_val>-0.4666971862316132</right_val></_></_>
        <_>
          <_>
            <feature>
              <rects>
                <_>
                  7 6 6 8 -1.</_>
                <_>
                  7 10 6 4 2.</_></rects>
              <tilted>0</tilted></feature>
            <threshold>-0.0283677596598864</threshold>
            <left_val>0.2066071033477783</left_val>
            <right_val>-0.2743149101734161</right_val></_></_>
        <_>
          <_>
            <feature>
              <rects>
                <_>
                  0 0 1 16 -1.</_>
                <_>
                  0 8 1 8 2.</_></rects>
              <tilted>0</tilted></feature>
            <threshold>-3.8335958961397409e-003</threshold>
            <left_val>-0.2787388861179352</left_val>
            <right_val>0.2643060982227325</right_val></_></_>
        <_>
          <_>
            <feature>
              <rects>
                <_>
                  12 11 6 2 -1.</_>
                <_>
                  12 11 3 2 2.</_></rects>
              <tilted>1</tilted></feature>
            <threshold>0.0280206706374884</threshold>
            <left_val>-0.0560388192534447</left_val>
            <right_val>0.2762205004692078</right_val></_></_>
        <_>
          <_>
            <feature>
              <rects>
                <_>
                  3 18 6 2 -1.</_>
                <_>
                  3 19 6 1 2.</_></rects>
              <tilted>0</tilted></feature>
            <threshold>-8.9866807684302330e-004</threshold>
            <left_val>-0.4789907038211823</left_val>
            <right_val>0.1474644988775253</right_val></_></_>
        <_>
          <_>
            <feature>
              <rects>
                <_>
                  11 11 8 1 -1.</_>
                <_>
                  11 11 4 1 2.</_></rects>
              <tilted>1</tilted></feature>
            <threshold>1.3490039855241776e-003</threshold>
            <left_val>0.0662470385432243</left_val>
            <right_val>-0.1460223048925400</right_val></_></_>
        <_>
          <_>
            <feature>
              <rects>
                <_>
                  9 11 1 8 -1.</_>
                <_>
                  9 11 1 4 2.</_></rects>
              <tilted>1</tilted></feature>
            <threshold>0.0238573793321848</threshold>
            <left_val>-0.0904438570141792</left_val>
            <right_val>0.7794888019561768</right_val></_></_>
        <_>
          <_>
            <feature>
              <rects>
                <_>
                  5 0 15 20 -1.</_>
                <_>
                  10 0 5 20 3.</_></rects>
              <tilted>0</tilted></feature>
            <threshold>-0.4762060940265656</threshold>
            <left_val>1.</left_val>
            <right_val>0.0132853295654058</right_val></_></_>
        <_>
          <_>
            <feature>
              <rects>
                <_>
                  0 0 15 20 -1.</_>
                <_>
                  5 0 5 20 3.</_></rects>
              <tilted>0</tilted></feature>
            <threshold>-0.0180159602314234</threshold>
            <left_val>0.1963818073272705</left_val>
            <right_val>-0.3916192054748535</right_val></_></_>
        <_>
          <_>
            <feature>
              <rects>
                <_>
                  1 0 19 3 -1.</_>
                <_>
                  1 1 19 1 3.</_></rects>
              <tilted>0</tilted></feature>
            <threshold>0.0278231501579285</threshold>
            <left_val>-0.0889754667878151</left_val>
            <right_val>0.6228697896003723</right_val></_></_>
        <_>
          <_>
            <feature>
              <rects>
                <_>
                  10 0 8 2 -1.</_>
                <_>
                  10 0 4 2 2.</_></rects>
              <tilted>1</tilted></feature>
            <threshold>0.0389824099838734</threshold>
            <left_val>-0.1689743995666504</left_val>
            <right_val>0.3972570002079010</right_val></_></_>
        <_>
          <_>
            <feature>
              <rects>
                <_>
                  8 19 4 1 -1.</_>
                <_>
                  9 19 2 1 2.</_></rects>
              <tilted>0</tilted></feature>
            <threshold>-3.2330260728485882e-004</threshold>
            <left_val>-0.4231883883476257</left_val>
            <right_val>0.1514517068862915</right_val></_></_>
        <_>
          <_>
            <feature>
              <rects>
                <_>
                  8 11 4 6 -1.</_>
                <_>
                  8 14 4 3 2.</_></rects>
              <tilted>0</tilted></feature>
            <threshold>-0.0159666202962399</threshold>
            <left_val>0.3041087985038757</left_val>
            <right_val>-0.2045059949159622</right_val></_></_></trees>
      <stage_threshold>-1.2217530012130737</stage_threshold>
      <parent>5</parent>
      <next>-1</next></_>
    <_>
      <trees>
        <_>
          <_>
            <feature>
              <rects>
                <_>
                  0 2 12 16 -1.</_>
                <_>
                  0 2 6 8 2.</_>
                <_>
                  6 10 6 8 2.</_></rects>
              <tilted>0</tilted></feature>
            <threshold>-0.1589030027389526</threshold>
            <left_val>0.5603244900703430</left_val>
            <right_val>-0.1815907061100006</right_val></_></_>
        <_>
          <_>
            <feature>
              <rects>
                <_>
                  16 9 4 11 -1.</_>
                <_>
                  16 9 2 11 2.</_></rects>
              <tilted>0</tilted></feature>
            <threshold>-0.0440458096563816</threshold>
            <left_val>0.6381832957267761</left_val>
            <right_val>-0.1366371065378189</right_val></_></_>
        <_>
          <_>
            <feature>
              <rects>
                <_>
                  4 0 12 3 -1.</_>
                <_>
                  8 4 4 3 3.</_></rects>
              <tilted>1</tilted></feature>
            <threshold>-8.2847401499748230e-003</threshold>
            <left_val>0.2999731004238129</left_val>
            <right_val>-0.3027791976928711</right_val></_></_>
        <_>
          <_>
            <feature>
              <rects>
                <_>
                  11 6 1 12 -1.</_>
                <_>
                  11 12 1 6 2.</_></rects>
              <tilted>0</tilted></feature>
            <threshold>-9.3572847545146942e-003</threshold>
            <left_val>0.1961050927639008</left_val>
            <right_val>-0.1664731055498123</right_val></_></_>
        <_>
          <_>
            <feature>
              <rects>
                <_>
                  5 6 10 12 -1.</_>
                <_>
                  5 6 5 6 2.</_>
                <_>
                  10 12 5 6 2.</_></rects>
              <tilted>0</tilted></feature>
            <threshold>-0.0304396208375692</threshold>
            <left_val>-0.4157955944538117</left_val>
            <right_val>0.1690358966588974</right_val></_></_>
        <_>
          <_>
            <feature>
              <rects>
                <_>
                  12 19 3 1 -1.</_>
                <_>
                  13 19 1 1 3.</_></rects>
              <tilted>0</tilted></feature>
            <threshold>-5.7151837972924113e-004</threshold>
            <left_val>-0.4147490859031677</left_val>
            <right_val>0.1397210061550140</right_val></_></_>
        <_>
          <_>
            <feature>
              <rects>
                <_>
                  0 4 19 16 -1.</_>
                <_>
                  0 12 19 8 2.</_></rects>
              <tilted>0</tilted></feature>
            <threshold>-0.5252947211265564</threshold>
            <left_val>-0.7578117251396179</left_val>
            <right_val>0.0589601807296276</right_val></_></_>
        <_>
          <_>
            <feature>
              <rects>
                <_>
                  17 17 2 3 -1.</_>
                <_>
                  17 17 1 3 2.</_></rects>
              <tilted>0</tilted></feature>
            <threshold>5.2260758820921183e-004</threshold>
            <left_val>0.1089288964867592</left_val>
            <right_val>-0.3314690887928009</right_val></_></_>
        <_>
          <_>
            <feature>
              <rects>
                <_>
                  6 4 14 1 -1.</_>
                <_>
                  6 4 7 1 2.</_></rects>
              <tilted>1</tilted></feature>
            <threshold>1.4193609822541475e-003</threshold>
            <left_val>-0.4744252860546112</left_val>
            <right_val>0.1365292966365814</right_val></_></_>
        <_>
          <_>
            <feature>
              <rects>
                <_>
                  7 14 8 6 -1.</_>
                <_>
                  7 17 8 3 2.</_></rects>
              <tilted>0</tilted></feature>
            <threshold>5.2935141138732433e-003</threshold>
            <left_val>-0.4027056992053986</left_val>
            <right_val>0.1171412020921707</right_val></_></_>
        <_>
          <_>
            <feature>
              <rects>
                <_>
                  2 14 4 2 -1.</_>
                <_>
                  2 14 2 2 2.</_></rects>
              <tilted>1</tilted></feature>
            <threshold>-3.9171092212200165e-003</threshold>
            <left_val>-0.5032939910888672</left_val>
            <right_val>0.1189246028661728</right_val></_></_>
        <_>
          <_>
            <feature>
              <rects>
                <_>
                  7 11 7 6 -1.</_>
                <_>
                  7 14 7 3 2.</_></rects>
              <tilted>0</tilted></feature>
            <threshold>-0.1120339035987854</threshold>
            <left_val>0.9226614832878113</left_val>
            <right_val>-0.0643030479550362</right_val></_></_>
        <_>
          <_>
            <feature>
              <rects>
                <_>
                  0 3 1 14 -1.</_>
                <_>
                  0 10 1 7 2.</_></rects>
              <tilted>0</tilted></feature>
            <threshold>0.0304508097469807</threshold>
            <left_val>0.0808696001768112</left_val>
            <right_val>-0.9142853021621704</right_val></_></_>
        <_>
          <_>
            <feature>
              <rects>
                <_>
                  16 10 2 10 -1.</_>
                <_>
                  16 15 2 5 2.</_></rects>
              <tilted>0</tilted></feature>
            <threshold>2.3637209087610245e-003</threshold>
            <left_val>-0.2114741057157517</left_val>
            <right_val>0.1491284072399139</right_val></_></_>
        <_>
          <_>
            <feature>
              <rects>
                <_>
                  4 0 12 1 -1.</_>
                <_>
                  10 0 6 1 2.</_></rects>
              <tilted>0</tilted></feature>
            <threshold>-9.8793692886829376e-003</threshold>
            <left_val>-0.4956575036048889</left_val>
            <right_val>0.1210722029209137</right_val></_></_>
        <_>
          <_>
            <feature>
              <rects>
                <_>
                  10 19 4 1 -1.</_>
                <_>
                  10 19 2 1 2.</_></rects>
              <tilted>0</tilted></feature>
            <threshold>-2.0952650811523199e-003</threshold>
            <left_val>-0.4897136092185974</left_val>
            <right_val>0.0684495419263840</right_val></_></_>
        <_>
          <_>
            <feature>
              <rects>
                <_>
                  4 19 12 1 -1.</_>
                <_>
                  7 19 6 1 2.</_></rects>
              <tilted>0</tilted></feature>
            <threshold>7.8151142224669456e-003</threshold>
            <left_val>0.0691751018166542</left_val>
            <right_val>-0.6269245147705078</right_val></_></_>
        <_>
          <_>
            <feature>
              <rects>
                <_>
                  17 19 2 1 -1.</_>
                <_>
                  17 19 1 1 2.</_></rects>
              <tilted>0</tilted></feature>
            <threshold>-2.5045071379281580e-004</threshold>
            <left_val>-0.2935878932476044</left_val>
            <right_val>0.0930297225713730</right_val></_></_>
        <_>
          <_>
            <feature>
              <rects>
                <_>
                  1 19 2 1 -1.</_>
                <_>
                  2 19 1 1 2.</_></rects>
              <tilted>0</tilted></feature>
            <threshold>2.6395131135359406e-004</threshold>
            <left_val>0.1184457018971443</left_val>
            <right_val>-0.4387173056602478</right_val></_></_>
        <_>
          <_>
            <feature>
              <rects>
                <_>
                  15 8 5 6 -1.</_>
                <_>
                  15 8 5 3 2.</_></rects>
              <tilted>1</tilted></feature>
            <threshold>-0.0514012910425663</threshold>
            <left_val>-0.5375186800956726</left_val>
            <right_val>0.0299197006970644</right_val></_></_>
        <_>
          <_>
            <feature>
              <rects>
                <_>
                  0 4 4 15 -1.</_>
                <_>
                  2 4 2 15 2.</_></rects>
              <tilted>0</tilted></feature>
            <threshold>-0.0416100099682808</threshold>
            <left_val>0.3476580083370209</left_val>
            <right_val>-0.1458698064088821</right_val></_></_>
        <_>
          <_>
            <feature>
              <rects>
                <_>
                  9 3 11 8 -1.</_>
                <_>
                  9 7 11 4 2.</_></rects>
              <tilted>0</tilted></feature>
            <threshold>-0.0400474891066551</threshold>
            <left_val>0.1268832981586456</left_val>
            <right_val>-0.2043071985244751</right_val></_></_>
        <_>
          <_>
            <feature>
              <rects>
                <_>
                  5 8 6 5 -1.</_>
                <_>
                  5 8 3 5 2.</_></rects>
              <tilted>1</tilted></feature>
            <threshold>-0.0138031402602792</threshold>
            <left_val>-0.6466016769409180</left_val>
            <right_val>0.0786183699965477</right_val></_></_>
        <_>
          <_>
            <feature>
              <rects>
                <_>
                  11 8 2 4 -1.</_>
                <_>
                  11 8 1 4 2.</_></rects>
              <tilted>0</tilted></feature>
            <threshold>1.1806540424004197e-003</threshold>
            <left_val>0.1108340024948120</left_val>
            <right_val>-0.2824239134788513</right_val></_></_>
        <_>
          <_>
            <feature>
              <rects>
                <_>
                  5 19 3 1 -1.</_>
                <_>
                  6 19 1 1 3.</_></rects>
              <tilted>0</tilted></feature>
            <threshold>-6.5669149626046419e-004</threshold>
            <left_val>-0.4698590934276581</left_val>
            <right_val>0.1038101986050606</right_val></_></_>
        <_>
          <_>
            <feature>
              <rects>
                <_>
                  4 12 12 4 -1.</_>
                <_>
                  4 13 12 2 2.</_></rects>
              <tilted>0</tilted></feature>
            <threshold>0.0219079591333866</threshold>
            <left_val>-0.0829965770244598</left_val>
            <right_val>0.6881396174430847</right_val></_></_>
        <_>
          <_>
            <feature>
              <rects>
                <_>
                  2 0 11 3 -1.</_>
                <_>
                  2 1 11 1 3.</_></rects>
              <tilted>0</tilted></feature>
            <threshold>-0.0184646099805832</threshold>
            <left_val>0.4685106873512268</left_val>
            <right_val>-0.0955142304301262</right_val></_></_>
        <_>
          <_>
            <feature>
              <rects>
                <_>
                  11 9 2 3 -1.</_>
                <_>
                  11 9 1 3 2.</_></rects>
              <tilted>0</tilted></feature>
            <threshold>-2.4795110803097486e-003</threshold>
            <left_val>-0.3850803971290588</left_val>
            <right_val>0.0600335001945496</right_val></_></_>
        <_>
          <_>
            <feature>
              <rects>
                <_>
                  7 8 2 4 -1.</_>
                <_>
                  8 8 1 4 2.</_></rects>
              <tilted>0</tilted></feature>
            <threshold>-2.7212870772927999e-003</threshold>
            <left_val>-0.5325096845626831</left_val>
            <right_val>0.0900974124670029</right_val></_></_>
        <_>
          <_>
            <feature>
              <rects>
                <_>
                  12 8 5 4 -1.</_>
                <_>
                  12 10 5 2 2.</_></rects>
              <tilted>0</tilted></feature>
            <threshold>-0.0426542609930038</threshold>
            <left_val>0.5631815195083618</left_val>
            <right_val>-0.0341801792383194</right_val></_></_>
        <_>
          <_>
            <feature>
              <rects>
                <_>
                  4 5 6 6 -1.</_>
                <_>
                  6 7 2 2 9.</_></rects>
              <tilted>0</tilted></feature>
            <threshold>0.0152164101600647</threshold>
            <left_val>-0.1465312987565994</left_val>
            <right_val>0.3440127968788147</right_val></_></_>
        <_>
          <_>
            <feature>
              <rects>
                <_>
                  12 1 8 9 -1.</_>
                <_>
                  14 3 4 9 2.</_></rects>
              <tilted>1</tilted></feature>
            <threshold>0.1514040976762772</threshold>
            <left_val>6.9388467818498611e-003</left_val>
            <right_val>-0.7524541020393372</right_val></_></_>
        <_>
          <_>
            <feature>
              <rects>
                <_>
                  8 1 9 8 -1.</_>
                <_>
                  6 3 9 4 2.</_></rects>
              <tilted>1</tilted></feature>
            <threshold>-0.1637531071901321</threshold>
            <left_val>0.8300923705101013</left_val>
            <right_val>-0.0616735890507698</right_val></_></_></trees>
      <stage_threshold>-1.1748059988021851</stage_threshold>
      <parent>6</parent>
      <next>-1</next></_>
    <_>
      <trees>
        <_>
          <_>
            <feature>
              <rects>
                <_>
                  0 16 20 4 -1.</_>
                <_>
                  5 16 10 4 2.</_></rects>
              <tilted>0</tilted></feature>
            <threshold>-0.0263546500355005</threshold>
            <left_val>0.2346137017011643</left_val>
            <right_val>-0.3626950085163117</right_val></_></_>
        <_>
          <_>
            <feature>
              <rects>
                <_>
                  7 14 9 6 -1.</_>
                <_>
                  7 17 9 3 2.</_></rects>
              <tilted>0</tilted></feature>
            <threshold>7.2259781882166862e-003</threshold>
            <left_val>-0.3831354975700378</left_val>
            <right_val>0.1218290999531746</right_val></_></_>
        <_>
          <_>
            <feature>
              <rects>
                <_>
                  1 15 4 1 -1.</_>
                <_>
                  1 15 2 1 2.</_></rects>
              <tilted>1</tilted></feature>
            <threshold>-5.7399109937250614e-004</threshold>
            <left_val>-0.4158422946929932</left_val>
            <right_val>0.2165624052286148</right_val></_></_>
        <_>
          <_>
            <feature>
              <rects>
                <_>
                  13 14 6 6 -1.</_>
                <_>
                  13 17 6 3 2.</_></rects>
              <tilted>0</tilted></feature>
            <threshold>-3.3889319747686386e-003</threshold>
            <left_val>-0.3244937956333160</left_val>
            <right_val>0.0231138393282890</right_val></_></_>
        <_>
          <_>
            <feature>
              <rects>
                <_>
                  8 19 2 1 -1.</_>
                <_>
                  9 19 1 1 2.</_></rects>
              <tilted>0</tilted></feature>
            <threshold>3.3178910962305963e-004</threshold>
            <left_val>0.1416237056255341</left_val>
            <right_val>-0.5637893080711365</right_val></_></_>
        <_>
          <_>
            <feature>
              <rects>
                <_>
                  4 2 15 3 -1.</_>
                <_>
                  9 3 5 1 9.</_></rects>
              <tilted>0</tilted></feature>
            <threshold>7.1382778696715832e-003</threshold>
            <left_val>-0.0990089699625969</left_val>
            <right_val>0.1079789027571678</right_val></_></_>
        <_>
          <_>
            <feature>
              <rects>
                <_>
                  0 3 18 6 -1.</_>
                <_>
                  9 3 9 6 2.</_></rects>
              <tilted>0</tilted></feature>
            <threshold>0.1266701072454453</threshold>
            <left_val>0.0713317096233368</left_val>
            <right_val>-0.8044422864913940</right_val></_></_>
        <_>
          <_>
            <feature>
              <rects>
                <_>
                  14 14 5 6 -1.</_>
                <_>
                  14 17 5 3 2.</_></rects>
              <tilted>0</tilted></feature>
            <threshold>0.1151408031582832</threshold>
            <left_val>-0.0272741597145796</left_val>
            <right_val>0.6124482750892639</right_val></_></_>
        <_>
          <_>
            <feature>
              <rects>
                <_>
                  1 14 5 6 -1.</_>
                <_>
                  1 17 5 3 2.</_></rects>
              <tilted>0</tilted></feature>
            <threshold>-3.8330680690705776e-003</threshold>
            <left_val>-0.3900136053562164</left_val>
            <right_val>0.1532171964645386</right_val></_></_>
        <_>
          <_>
            <feature>
              <rects>
                <_>
                  8 14 4 4 -1.</_>
                <_>
                  8 16 4 2 2.</_></rects>
              <tilted>0</tilted></feature>
            <threshold>-0.0110042300075293</threshold>
            <left_val>0.5088974237442017</left_val>
            <right_val>-0.1300334036350250</right_val></_></_>
        <_>
          <_>
            <feature>
              <rects>
                <_>
                  8 19 4 1 -1.</_>
                <_>
                  10 19 2 1 2.</_></rects>
              <tilted>0</tilted></feature>
            <threshold>-7.1537471376359463e-004</threshold>
            <left_val>-0.4041182100772858</left_val>
            <right_val>0.1574399024248123</right_val></_></_>
        <_>
          <_>
            <feature>
              <rects>
                <_>
                  8 2 12 11 -1.</_>
                <_>
                  11 2 6 11 2.</_></rects>
              <tilted>0</tilted></feature>
            <threshold>-0.0970504730939865</threshold>
            <left_val>0.4750519990921021</left_val>
            <right_val>-0.1026263013482094</right_val></_></_>
        <_>
          <_>
            <feature>
              <rects>
                <_>
                  0 5 12 8 -1.</_>
                <_>
                  3 5 6 8 2.</_></rects>
              <tilted>0</tilted></feature>
            <threshold>-0.0388582907617092</threshold>
            <left_val>0.3185899853706360</left_val>
            <right_val>-0.2025258988142014</right_val></_></_>
        <_>
          <_>
            <feature>
              <rects>
                <_>
                  13 11 6 2 -1.</_>
                <_>
                  13 11 3 2 2.</_></rects>
              <tilted>1</tilted></feature>
            <threshold>-0.0616917796432972</threshold>
            <left_val>-0.5961449742317200</left_val>
            <right_val>0.0124035002663732</right_val></_></_>
        <_>
          <_>
            <feature>
              <rects>
                <_>
                  7 11 2 6 -1.</_>
                <_>
                  7 11 2 3 2.</_></rects>
              <tilted>1</tilted></feature>
            <threshold>0.0260498002171516</threshold>
            <left_val>-0.1010524034500122</left_val>
            <right_val>0.6576427221298218</right_val></_></_>
        <_>
          <_>
            <feature>
              <rects>
                <_>
                  5 1 10 2 -1.</_>
                <_>
                  5 2 10 1 2.</_></rects>
              <tilted>0</tilted></feature>
            <threshold>-0.0155400400981307</threshold>
            <left_val>0.5654141902923584</left_val>
            <right_val>-0.0801619067788124</right_val></_></_>
        <_>
          <_>
            <feature>
              <rects>
                <_>
                  6 1 6 3 -1.</_>
                <_>
                  6 2 6 1 3.</_></rects>
              <tilted>0</tilted></feature>
            <threshold>0.0140156401321292</threshold>
            <left_val>-0.0959671214222908</left_val>
            <right_val>0.5688663721084595</right_val></_></_>
        <_>
          <_>
            <feature>
              <rects>
                <_>
                  14 11 6 3 -1.</_>
                <_>
                  16 13 2 3 3.</_></rects>
              <tilted>1</tilted></feature>
            <threshold>-0.0484736897051334</threshold>
            <left_val>0.3137784004211426</left_val>
            <right_val>-0.0507966689765453</right_val></_></_>
        <_>
          <_>
            <feature>
              <rects>
                <_>
                  6 11 3 6 -1.</_>
                <_>
                  4 13 3 2 3.</_></rects>
              <tilted>1</tilted></feature>
            <threshold>9.2148864641785622e-003</threshold>
            <left_val>-0.1611001044511795</left_val>
            <right_val>0.3531045913696289</right_val></_></_>
        <_>
          <_>
            <feature>
              <rects>
                <_>
                  0 2 20 14 -1.</_>
                <_>
                  0 9 20 7 2.</_></rects>
              <tilted>0</tilted></feature>
            <threshold>-0.0398885905742645</threshold>
            <left_val>0.0981378480792046</left_val>
            <right_val>-0.6010903120040894</right_val></_></_>
        <_>
          <_>
            <feature>
              <rects>
                <_>
                  7 6 6 6 -1.</_>
                <_>
                  7 9 6 3 2.</_></rects>
              <tilted>0</tilted></feature>
            <threshold>0.0572263710200787</threshold>
            <left_val>-0.0801031813025475</left_val>
            <right_val>0.9067249894142151</right_val></_></_>
        <_>
          <_>
            <feature>
              <rects>
                <_>
                  9 19 4 1 -1.</_>
                <_>
                  10 19 2 1 2.</_></rects>
              <tilted>0</tilted></feature>
            <threshold>5.6478678015992045e-004</threshold>
            <left_val>0.1001456007361412</left_val>
            <right_val>-0.4620122015476227</right_val></_></_>
        <_>
          <_>
            <feature>
              <rects>
                <_>
                  1 3 12 12 -1.</_>
                <_>
                  1 3 6 6 2.</_>
                <_>
                  7 9 6 6 2.</_></rects>
              <tilted>0</tilted></feature>
            <threshold>-0.0740275681018829</threshold>
            <left_val>0.3210262954235077</left_val>
            <right_val>-0.1530362069606781</right_val></_></_>
        <_>
          <_>
            <feature>
              <rects>
                <_>
                  0 0 20 17 -1.</_>
                <_>
                  5 0 10 17 2.</_></rects>
              <tilted>0</tilted></feature>
            <threshold>-0.1147900968790054</threshold>
            <left_val>0.2298499047756195</left_val>
            <right_val>-0.2194193005561829</right_val></_></_>
        <_>
          <_>
            <feature>
              <rects>
                <_>
                  6 1 12 6 -1.</_>
                <_>
                  4 3 12 2 3.</_></rects>
              <tilted>1</tilted></feature>
            <threshold>-0.0274842996150255</threshold>
            <left_val>-0.2666046023368835</left_val>
            <right_val>0.1793120056390762</right_val></_></_>
        <_>
          <_>
            <feature>
              <rects>
                <_>
                  7 18 6 2 -1.</_>
                <_>
                  7 19 6 1 2.</_></rects>
              <tilted>0</tilted></feature>
            <threshold>-9.0387358795851469e-004</threshold>
            <left_val>-0.4756337106227875</left_val>
            <right_val>0.0928209275007248</right_val></_></_>
        <_>
          <_>
            <feature>
              <rects>
                <_>
                  3 14 12 6 -1.</_>
                <_>
                  7 16 4 2 9.</_></rects>
              <tilted>0</tilted></feature>
            <threshold>8.8071953505277634e-003</threshold>
            <left_val>-0.1470758020877838</left_val>
            <right_val>0.3464907109737396</right_val></_></_>
        <_>
          <_>
            <feature>
              <rects>
                <_>
                  4 2 12 18 -1.</_>
                <_>
                  4 11 12 9 2.</_></rects>
              <tilted>0</tilted></feature>
            <threshold>-0.1171261966228485</threshold>
            <left_val>0.1149284988641739</left_val>
            <right_val>-0.4202448129653931</right_val></_></_>
        <_>
          <_>
            <feature>
              <rects>
                <_>
                  6 4 5 16 -1.</_>
                <_>
                  6 12 5 8 2.</_></rects>
              <tilted>0</tilted></feature>
            <threshold>-0.1827117949724197</threshold>
            <left_val>-0.6062657237052918</left_val>
            <right_val>0.0667189732193947</right_val></_></_>
        <_>
          <_>
            <feature>
              <rects>
                <_>
                  10 6 10 14 -1.</_>
                <_>
                  15 6 5 7 2.</_>
                <_>
                  10 13 5 7 2.</_></rects>
              <tilted>0</tilted></feature>
            <threshold>-0.1462849974632263</threshold>
            <left_val>-0.4707665145397186</left_val>
            <right_val>8.6859893053770065e-003</right_val></_></_>
        <_>
          <_>
            <feature>
              <rects>
                <_>
                  0 6 10 14 -1.</_>
                <_>
                  0 6 5 7 2.</_>
                <_>
                  5 13 5 7 2.</_></rects>
              <tilted>0</tilted></feature>
            <threshold>-0.0866610929369926</threshold>
            <left_val>0.3964951932430267</left_val>
            <right_val>-0.1230975985527039</right_val></_></_>
        <_>
          <_>
            <feature>
              <rects>
                <_>
                  17 8 3 12 -1.</_>
                <_>
                  17 14 3 6 2.</_></rects>
              <tilted>0</tilted></feature>
            <threshold>-0.0111008603125811</threshold>
            <left_val>-0.1184946969151497</left_val>
            <right_val>0.0893964990973473</right_val></_></_>
        <_>
          <_>
            <feature>
              <rects>
                <_>
                  0 8 3 12 -1.</_>
                <_>
                  0 14 3 6 2.</_></rects>
              <tilted>0</tilted></feature>
            <threshold>0.0743714570999146</threshold>
            <left_val>0.0549057796597481</left_val>
            <right_val>-0.8876084089279175</right_val></_></_>
        <_>
          <_>
            <feature>
              <rects>
                <_>
                  16 11 4 4 -1.</_>
                <_>
                  17 12 2 4 2.</_></rects>
              <tilted>1</tilted></feature>
            <threshold>0.0115759195759892</threshold>
            <left_val>-0.0680189803242683</left_val>
            <right_val>0.4064063131809235</right_val></_></_></trees>
      <stage_threshold>-1.0714919567108154</stage_threshold>
      <parent>7</parent>
      <next>-1</next></_>
    <_>
      <trees>
        <_>
          <_>
            <feature>
              <rects>
                <_>
                  4 11 1 4 -1.</_>
                <_>
                  4 11 1 2 2.</_></rects>
              <tilted>1</tilted></feature>
            <threshold>-3.2424589153379202e-003</threshold>
            <left_val>0.3230297863483429</left_val>
            <right_val>-0.3131198883056641</right_val></_></_>
        <_>
          <_>
            <feature>
              <rects>
                <_>
                  2 3 18 2 -1.</_>
                <_>
                  8 3 6 2 3.</_></rects>
              <tilted>0</tilted></feature>
            <threshold>0.0744918733835220</threshold>
            <left_val>-0.0373814590275288</left_val>
            <right_val>0.4403097033500671</right_val></_></_>
        <_>
          <_>
            <feature>
              <rects>
                <_>
                  1 3 15 3 -1.</_>
                <_>
                  6 4 5 1 9.</_></rects>
              <tilted>0</tilted></feature>
            <threshold>0.0991427004337311</threshold>
            <left_val>-0.1152796968817711</left_val>
            <right_val>0.6283242702484131</right_val></_></_>
        <_>
          <_>
            <feature>
              <rects>
                <_>
                  18 16 2 2 -1.</_>
                <_>
                  18 16 2 1 2.</_></rects>
              <tilted>1</tilted></feature>
            <threshold>-2.6246809284202754e-004</threshold>
            <left_val>-0.1454627960920334</left_val>
            <right_val>0.1883482038974762</right_val></_></_>
        <_>
          <_>
            <feature>
              <rects>
                <_>
                  0 2 8 16 -1.</_>
                <_>
                  4 2 4 16 2.</_></rects>
              <tilted>0</tilted></feature>
            <threshold>-0.1455913931131363</threshold>
            <left_val>0.4145629107952118</left_val>
            <right_val>-0.1505381017923355</right_val></_></_>
        <_>
          <_>
            <feature>
              <rects>
                <_>
                  17 16 3 2 -1.</_>
                <_>
                  17 17 3 1 2.</_></rects>
              <tilted>0</tilted></feature>
            <threshold>-4.5768060954287648e-004</threshold>
            <left_val>-0.2139904052019119</left_val>
            <right_val>0.0916247591376305</right_val></_></_>
        <_>
          <_>
            <feature>
              <rects>
                <_>
                  0 3 18 6 -1.</_>
                <_>
                  0 5 18 2 3.</_></rects>
              <tilted>0</tilted></feature>
            <threshold>-0.0130465198308229</threshold>
            <left_val>0.2868317067623138</left_val>
            <right_val>-0.1993180960416794</right_val></_></_>
        <_>
          <_>
            <feature>
              <rects>
                <_>
                  13 3 7 8 -1.</_>
                <_>
                  13 7 7 4 2.</_></rects>
              <tilted>0</tilted></feature>
            <threshold>-3.6602180916815996e-003</threshold>
            <left_val>0.1014155969023705</left_val>
            <right_val>-0.1818407028913498</right_val></_></_>
        <_>
          <_>
            <feature>
              <rects>
                <_>
                  7 12 5 8 -1.</_>
                <_>
                  7 14 5 4 2.</_></rects>
              <tilted>0</tilted></feature>
            <threshold>-0.0275198891758919</threshold>
            <left_val>0.2366088926792145</left_val>
            <right_val>-0.2475270032882690</right_val></_></_>
        <_>
          <_>
            <feature>
              <rects>
                <_>
                  18 16 2 2 -1.</_>
                <_>
                  18 16 2 1 2.</_></rects>
              <tilted>1</tilted></feature>
            <threshold>6.2398408772423863e-004</threshold>
            <left_val>0.0606089197099209</left_val>
            <right_val>-0.0967661365866661</right_val></_></_>
        <_>
          <_>
            <feature>
              <rects>
                <_>
                  2 16 2 2 -1.</_>
                <_>
                  2 16 1 2 2.</_></rects>
