<?xml version="1.0"?>
<opencv_storage>
<cascade>
  <stageType>BOOST</stageType>
  <featureType>HAAR</featureType>
  <height>20</height>
  <width>20</width>
  <stageParams>
    <boostType>GAB</boostType>
    <minHitRate>9.9500000476837158e-01</minHitRate>
    <maxFalseAlarm>5.0000000000000000e-01</maxFalseAlarm>
    <weightTrimRate>9.4999999999999996e-01</weightTrimRate>
    <maxDepth>1</maxDepth>
    <maxWeakCount>100</maxWeakCount></stageParams>
  <featureParams>
    <maxCatCount>0</maxCatCount>
    <featSize>1</featSize>
    <mode>BASIC</mode></featureParams>
  <stageNum>20</stageNum>
  <stages>
    <!-- stage 0 -->
    <_>
      <maxWeakCount>9</maxWeakCount>
      <stageThreshold>-1.8188543319702148e+00</stageThreshold>
      <weakClassifiers>
        <_>
          <internalNodes>
            0 -1 215 -1.6580262454226613e-03</internalNodes>
          <leafValues>
            3.9477303624153137e-01 -6.3828808069229126e-01</leafValues></_>
        <_>
          <internalNodes>
            0 -1 51 -3.1163331586867571e-03</internalNodes>
          <leafValues>
            4.7460418939590454e-01 -4.7809758782386780e-01</leafValues></_>
        <_>
          <internalNodes>
            0 -1 290 2.9877065680921078e-03</internalNodes>
          <leafValues>
            -6.0704547166824341e-01 3.9036330580711365e-01</leafValues></_>
        <_>
          <internalNodes>
            0 -1 5 -2.2941529750823975e-03</internalNodes>
          <leafValues>
            5.1221066713333130e-01 -4.1128545999526978e-01</leafValues></_>
        <_>
          <internalNodes>
            0 -1 340 -3.4210972953587770e-03</internalNodes>
          <leafValues>
            3.9688864350318909e-01 -4.2922893166542053e-01</leafValues></_>
        <_>
          <internalNodes>
            0 -1 149 -1.0286332108080387e-02</internalNodes>
          <leafValues>
            6.6845583915710449e-01 -1.7716492712497711e-01</leafValues></_>
        <_>
          <internalNodes>
            0 -1 72 2.3198714479804039e-03</internalNodes>
          <leafValues>
            -4.7857654094696045e-01 2.6636442542076111e-01</leafValues></_>
        <_>
          <internalNodes>
            0 -1 388 -5.8035347610712051e-03</internalNodes>
          <leafValues>
            5.5591672658920288e-01 -2.0445565879344940e-01</leafValues></_>
        <_>
          <internalNodes>
            0 -1 151 -1.2064948678016663e-01</internalNodes>
          <leafValues>
            7.3466950654983521e-01 -1.4432545006275177e-01</leafValues></_></weakClassifiers></_>
    <!-- stage 1 -->
    <_>
      <maxWeakCount>9</maxWeakCount>
      <stageThreshold>-1.8143155574798584e+00</stageThreshold>
      <weakClassifiers>
        <_>
          <internalNodes>
            0 -1 42 -3.7612318992614746e-02</internalNodes>
          <leafValues>
            4.4791665673255920e-01 -5.8433735370635986e-01</leafValues></_>
        <_>
          <internalNodes>
            0 -1 297 -1.7644907347857952e-03</internalNodes>
          <leafValues>
            4.3819862604141235e-01 -4.6814689040184021e-01</leafValues></_>
        <_>
          <internalNodes>
            0 -1 72 2.3313807323575020e-03</internalNodes>
          <leafValues>
            -5.8966135978698730e-01 2.7854499220848083e-01</leafValues></_>
        <_>
          <internalNodes>
            0 -1 108 -7.9900035634636879e-03</internalNodes>
          <leafValues>
            2.8953659534454346e-01 -4.7651430964469910e-01</leafValues></_>
        <_>
          <internalNodes>
            0 -1 267 -4.0951799601316452e-03</internalNodes>
          <leafValues>
            5.6186157464981079e-01 -2.2261047363281250e-01</leafValues></_>
        <_>
          <internalNodes>
            0 -1 214 -9.8004192113876343e-03</internalNodes>
          <leafValues>
            4.3253314495086670e-01 -3.1589946150779724e-01</leafValues></_>
        <_>
          <internalNodes>
            0 -1 88 -1.1213663965463638e-03</internalNodes>
          <leafValues>
            4.3441796302795410e-01 -2.8216162323951721e-01</leafValues></_>
        <_>
          <internalNodes>
            0 -1 6 -3.9003752171993256e-02</internalNodes>
          <leafValues>
            6.6001254320144653e-01 -1.9278207421302795e-01</leafValues></_>
        <_>
          <internalNodes>
            0 -1 241 1.1610768735408783e-02</internalNodes>
          <leafValues>
            -3.3698010444641113e-01 3.8678857684135437e-01</leafValues></_></weakClassifiers></_>
    <!-- stage 2 -->
    <_>
      <maxWeakCount>15</maxWeakCount>
      <stageThreshold>-1.5951638221740723e+00</stageThreshold>
      <weakClassifiers>
        <_>
          <internalNodes>
            0 -1 354 -3.3123563975095749e-02</internalNodes>
          <leafValues>
            2.8462707996368408e-01 -5.7378512620925903e-01</leafValues></_>
        <_>
          <internalNodes>
            0 -1 182 2.0809499546885490e-03</internalNodes>
          <leafValues>
            -3.4698766469955444e-01 4.2346727848052979e-01</leafValues></_>
        <_>
          <internalNodes>
            0 -1 314 4.5689985156059265e-02</internalNodes>
          <leafValues>
            -2.0209327340126038e-01 5.3724604845046997e-01</leafValues></_>
        <_>
          <internalNodes>
            0 -1 132 -1.2571751140058041e-03</internalNodes>
          <leafValues>
            2.6126533746719360e-01 -4.4142654538154602e-01</leafValues></_>
        <_>
          <internalNodes>
            0 -1 83 -7.3580727912485600e-03</internalNodes>
          <leafValues>
            5.1828914880752563e-01 -2.0237511396408081e-01</leafValues></_>
        <_>
          <internalNodes>
            0 -1 36 -2.0446408540010452e-02</internalNodes>
          <leafValues>
            6.0115623474121094e-01 -1.5975648164749146e-01</leafValues></_>
        <_>
          <internalNodes>
            0 -1 288 -2.1074728574603796e-03</internalNodes>
          <leafValues>
            2.9604345560073853e-01 -3.6535981297492981e-01</leafValues></_>
        <_>
          <internalNodes>
            0 -1 186 -3.5163792781531811e-03</internalNodes>
          <leafValues>
            -7.0459467172622681e-01 1.3818508386611938e-01</leafValues></_>
        <_>
          <internalNodes>
            0 -1 78 -2.1365230903029442e-02</internalNodes>
          <leafValues>
            -7.8089219331741333e-01 9.0093195438385010e-02</leafValues></_>
        <_>
          <internalNodes>
            0 -1 190 -5.0503117963671684e-03</internalNodes>
          <leafValues>
            4.4704648852348328e-01 -2.2424151003360748e-01</leafValues></_>
        <_>
          <internalNodes>
            0 -1 140 -1.9800612702965736e-02</internalNodes>
          <leafValues>
            3.3175757527351379e-01 -3.2496047019958496e-01</leafValues></_>
        <_>
          <internalNodes>
            0 -1 257 -1.4484420418739319e-02</internalNodes>
          <leafValues>
            3.5279414057731628e-01 -2.9279518127441406e-01</leafValues></_>
        <_>
          <internalNodes>
            0 -1 24 7.7541143400594592e-04</internalNodes>
          <leafValues>
            -3.9176741242408752e-01 2.5259202718734741e-01</leafValues></_>
        <_>
          <internalNodes>
            0 -1 260 2.2118450142443180e-03</internalNodes>
          <leafValues>
            1.4814405143260956e-01 -6.0120791196823120e-01</leafValues></_>
        <_>
          <internalNodes>
            0 -1 401 1.7798161134123802e-03</internalNodes>
          <leafValues>
            -2.9685917496681213e-01 2.9695993661880493e-01</leafValues></_></weakClassifiers></_>
    <!-- stage 3 -->
    <_>
      <maxWeakCount>14</maxWeakCount>
      <stageThreshold>-1.4751877784729004e+00</stageThreshold>
      <weakClassifiers>
        <_>
          <internalNodes>
            0 -1 210 -6.0728774406015873e-03</internalNodes>
          <leafValues>
            -3.6823105067014694e-02 -6.9240921735763550e-01</leafValues></_>
        <_>
          <internalNodes>
            0 -1 92 -1.1772552505135536e-02</internalNodes>
          <leafValues>
            2.6464879512786865e-01 -3.9306467771530151e-01</leafValues></_>
        <_>
          <internalNodes>
            0 -1 226 -3.2623693346977234e-02</internalNodes>
          <leafValues>
            3.6937534809112549e-01 -2.4785518646240234e-01</leafValues></_>
        <_>
          <internalNodes>
            0 -1 240 9.0057335793972015e-02</internalNodes>
          <leafValues>
            -1.6342058777809143e-01 6.2732505798339844e-01</leafValues></_>
        <_>
          <internalNodes>
            0 -1 223 -2.4000902194529772e-03</internalNodes>
          <leafValues>
            -6.1382710933685303e-01 1.6029739379882812e-01</leafValues></_>
        <_>
          <internalNodes>
            0 -1 165 -5.3765224292874336e-03</internalNodes>
          <leafValues>
            -6.9315266609191895e-01 1.4956006407737732e-01</leafValues></_>
        <_>
          <internalNodes>
            0 -1 388 -5.8551933616399765e-03</internalNodes>
          <leafValues>
            4.9789181351661682e-01 -2.0264603197574615e-01</leafValues></_>
        <_>
          <internalNodes>
            0 -1 49 -1.5331278555095196e-03</internalNodes>
          <leafValues>
            3.4765967726707458e-01 -2.8183817863464355e-01</leafValues></_>
        <_>
          <internalNodes>
            0 -1 8 -8.5629080422222614e-04</internalNodes>
          <leafValues>
            2.7998268604278564e-01 -3.3890610933303833e-01</leafValues></_>
        <_>
          <internalNodes>
            0 -1 150 -3.1571947038173676e-03</internalNodes>
          <leafValues>
            5.5007606744766235e-01 -1.6738884150981903e-01</leafValues></_>
        <_>
          <internalNodes>
            0 -1 364 -1.4495458453893661e-02</internalNodes>
          <leafValues>
            5.7717162370681763e-01 -1.4592516422271729e-01</leafValues></_>
        <_>
          <internalNodes>
            0 -1 97 1.9700704142451286e-03</internalNodes>
          <leafValues>
            1.6085588932037354e-01 -6.1146259307861328e-01</leafValues></_>
        <_>
          <internalNodes>
            0 -1 413 6.9683818146586418e-03</internalNodes>
          <leafValues>
            -2.7434122562408447e-01 3.2597881555557251e-01</leafValues></_>
        <_>
          <internalNodes>
            0 -1 353 -3.2281052321195602e-02</internalNodes>
          <leafValues>
            4.6536603569984436e-01 -1.8206979334354401e-01</leafValues></_></weakClassifiers></_>
    <!-- stage 4 -->
    <_>
      <maxWeakCount>16</maxWeakCount>
      <stageThreshold>-1.3997547626495361e+00</stageThreshold>
      <weakClassifiers>
        <_>
          <internalNodes>
            0 -1 215 -2.0848833955824375e-03</internalNodes>
          <leafValues>
            1.1030302941799164e-01 -5.7397592067718506e-01</leafValues></_>
        <_>
          <internalNodes>
            0 -1 177 -1.0153703391551971e-02</internalNodes>
          <leafValues>
            4.6248754858970642e-01 -2.6143097877502441e-01</leafValues></_>
        <_>
          <internalNodes>
            0 -1 319 3.3086357871070504e-04</internalNodes>
          <leafValues>
            -3.6671468615531921e-01 2.4102300405502319e-01</leafValues></_>
        <_>
          <internalNodes>
            0 -1 291 9.3912696465849876e-03</internalNodes>
          <leafValues>
            -3.0908787250518799e-01 3.4015130996704102e-01</leafValues></_>
        <_>
          <internalNodes>
            0 -1 54 -3.6578043363988400e-03</internalNodes>
          <leafValues>
            3.2482442259788513e-01 -2.8747978806495667e-01</leafValues></_>
        <_>
          <internalNodes>
            0 -1 99 -3.8536898791790009e-03</internalNodes>
          <leafValues>
            -6.8736237287521362e-01 1.5392486751079559e-01</leafValues></_>
        <_>
          <internalNodes>
            0 -1 11 -2.1843956783413887e-03</internalNodes>
          <leafValues>
            4.7314992547035217e-01 -1.9785043597221375e-01</leafValues></_>
        <_>
          <internalNodes>
            0 -1 74 -6.4812205731868744e-02</internalNodes>
          <leafValues>
            4.6623381972312927e-01 -2.1719138324260712e-01</leafValues></_>
        <_>
          <internalNodes>
            0 -1 188 -2.9234276153147221e-03</internalNodes>
          <leafValues>
            4.2182764410972595e-01 -1.7953036725521088e-01</leafValues></_>
        <_>
          <internalNodes>
            0 -1 164 -4.6310145407915115e-03</internalNodes>
          <leafValues>
            5.8216148614883423e-01 -1.7205721139907837e-01</leafValues></_>
        <_>
          <internalNodes>
            0 -1 121 9.1075617820024490e-03</internalNodes>
          <leafValues>
            -2.9461637139320374e-01 2.8343009948730469e-01</leafValues></_>
        <_>
          <internalNodes>
            0 -1 183 -3.6945370957255363e-03</internalNodes>
          <leafValues>
            -6.5146553516387939e-01 1.0083737224340439e-01</leafValues></_>
        <_>
          <internalNodes>
            0 -1 154 -4.0629757568240166e-03</internalNodes>
          <leafValues>
            4.5654499530792236e-01 -1.7811135947704315e-01</leafValues></_>
        <_>
          <internalNodes>
            0 -1 306 3.0028792098164558e-03</internalNodes>
          <leafValues>
            1.1632195860147476e-01 -6.5808397531509399e-01</leafValues></_>
        <_>
          <internalNodes>
            0 -1 75 8.9810527861118317e-02</internalNodes>
          <leafValues>
            9.1733880341053009e-02 -7.5393491983413696e-01</leafValues></_>
        <_>
          <internalNodes>
            0 -1 106 -5.6765861809253693e-03</internalNodes>
          <leafValues>
            -6.7248666286468506e-01 9.2753089964389801e-02</leafValues></_></weakClassifiers></_>
    <!-- stage 5 -->
    <_>
      <maxWeakCount>21</maxWeakCount>
      <stageThreshold>-1.5806787014007568e+00</stageThreshold>
      <weakClassifiers>
        <_>
          <internalNodes>
            0 -1 293 2.8188025578856468e-02</internalNodes>
          <leafValues>
            -5.4485362768173218e-01 6.9053709506988525e-02</leafValues></_>
        <_>
          <internalNodes>
            0 -1 176 -1.3210580218583345e-03</internalNodes>
          <leafValues>
            1.9022013247013092e-01 -4.1817605495452881e-01</leafValues></_>
        <_>
          <internalNodes>
            0 -1 33 -1.4692457392811775e-02</internalNodes>
          <leafValues>
            2.8080767393112183e-01 -3.0585685372352600e-01</leafValues></_>
        <_>
          <internalNodes>
            0 -1 247 1.3322788290679455e-03</internalNodes>
          <leafValues>
            1.5739664435386658e-01 -5.2487707138061523e-01</leafValues></_>
        <_>
          <internalNodes>
            0 -1 71 1.0575747117400169e-02</internalNodes>
          <leafValues>
            -3.9449021220207214e-01 2.2850117087364197e-01</leafValues></_>
        <_>
          <internalNodes>
            0 -1 153 -1.2996797449886799e-03</internalNodes>
          <leafValues>
            3.5231417417526245e-01 -2.2814592719078064e-01</leafValues></_>
        <_>
          <internalNodes>
            0 -1 219 -1.5801163390278816e-03</internalNodes>
          <leafValues>
            3.3577901124954224e-01 -2.3383758962154388e-01</leafValues></_>
        <_>
          <internalNodes>
            0 -1 159 -4.3447978794574738e-02</internalNodes>
          <leafValues>
            6.3908249139785767e-01 -1.1100739240646362e-01</leafValues></_>
        <_>
          <internalNodes>
            0 -1 385 -1.7302990891039371e-03</internalNodes>
          <leafValues>
            -5.7727801799774170e-01 1.4524775743484497e-01</leafValues></_>
        <_>
          <internalNodes>
            0 -1 315 -2.6845228858292103e-03</internalNodes>
          <leafValues>
            2.4450886249542236e-01 -3.2893532514572144e-01</leafValues></_>
        <_>
          <internalNodes>
            0 -1 128 -3.4246863797307014e-03</internalNodes>
          <leafValues>
            3.9568933844566345e-01 -2.0264399051666260e-01</leafValues></_>
        <_>
          <internalNodes>
            0 -1 84 -8.2052964717149734e-03</internalNodes>
          <leafValues>
            3.7842634320259094e-01 -2.3988421261310577e-01</leafValues></_>
        <_>
          <internalNodes>
            0 -1 203 4.7108177095651627e-03</internalNodes>
          <leafValues>
            -1.7942640185356140e-01 4.2254853248596191e-01</leafValues></_>
        <_>
          <internalNodes>
            0 -1 217 1.9312917720526457e-03</internalNodes>
          <leafValues>
            1.1500908434391022e-01 -6.6182696819305420e-01</leafValues></_>
        <_>
          <internalNodes>
            0 -1 206 1.4843374956399202e-03</internalNodes>
          <leafValues>
            -2.5324407219886780e-01 2.7236455678939819e-01</leafValues></_>
        <_>
          <internalNodes>
            0 -1 104 3.2448731362819672e-03</internalNodes>
          <leafValues>
            1.2564021348953247e-01 -5.6751203536987305e-01</leafValues></_>
        <_>
          <internalNodes>
            0 -1 352 1.2711482122540474e-04</internalNodes>
          <leafValues>
            -3.3339896798133850e-01 2.1108917891979218e-01</leafValues></_>
        <_>
          <internalNodes>
            0 -1 386 -1.7187893390655518e-03</internalNodes>
          <leafValues>
            -5.4416364431381226e-01 1.3355585932731628e-01</leafValues></_>
        <_>
          <internalNodes>
            0 -1 393 -2.1263207308948040e-03</internalNodes>
          <leafValues>
            -5.7795828580856323e-01 1.0437151789665222e-01</leafValues></_>
        <_>
          <internalNodes>
            0 -1 256 -8.2383584231138229e-03</internalNodes>
          <leafValues>
            4.5024001598358154e-01 -1.6145363450050354e-01</leafValues></_>
        <_>
          <internalNodes>
            0 -1 277 -5.3446128964424133e-02</internalNodes>
          <leafValues>
            5.6842958927154541e-01 -1.2667658925056458e-01</leafValues></_></weakClassifiers></_>
    <!-- stage 6 -->
    <_>
      <maxWeakCount>22</maxWeakCount>
      <stageThreshold>-1.4279925823211670e+00</stageThreshold>
      <weakClassifiers>
        <_>
          <internalNodes>
            0 -1 406 -8.6513757705688477e-03</internalNodes>
          <leafValues>
            5.1079136133193970e-01 -4.7368422150611877e-01</leafValues></_>
        <_>
          <internalNodes>
            0 -1 346 3.6411796463653445e-04</internalNodes>
          <leafValues>
            -4.7088897228240967e-01 1.9935058057308197e-01</leafValues></_>
        <_>
          <internalNodes>
            0 -1 402 3.0793799669481814e-04</internalNodes>
          <leafValues>
            -3.6714315414428711e-01 2.7316576242446899e-01</leafValues></_>
        <_>
          <internalNodes>
            0 -1 50 -3.3751376904547215e-03</internalNodes>
          <leafValues>
            2.9412221908569336e-01 -2.3895210027694702e-01</leafValues></_>
        <_>
          <internalNodes>
            0 -1 212 -6.4383288845419884e-03</internalNodes>
          <leafValues>
            4.1273814439773560e-01 -1.3908137381076813e-01</leafValues></_>
        <_>
          <internalNodes>
            0 -1 274 1.1055920273065567e-01</internalNodes>
          <leafValues>
            -1.1596076190471649e-01 7.1473687887191772e-01</leafValues></_>
        <_>
          <internalNodes>
            0 -1 270 8.7791472673416138e-02</internalNodes>
          <leafValues>
            -1.1879913508892059e-01 5.2819061279296875e-01</leafValues></_>
        <_>
          <internalNodes>
            0 -1 3 -5.5780261754989624e-03</internalNodes>
          <leafValues>
            3.4836781024932861e-01 -2.0724338293075562e-01</leafValues></_>
        <_>
          <internalNodes>
            0 -1 136 -3.3818376250565052e-03</internalNodes>
          <leafValues>
            1.9303138554096222e-01 -3.2649895548820496e-01</leafValues></_>
        <_>
          <internalNodes>
            0 -1 228 -2.3427642881870270e-03</internalNodes>
          <leafValues>
            -4.5500802993774414e-01 1.4788669347763062e-01</leafValues></_>
        <_>
          <internalNodes>
            0 -1 227 3.9461897686123848e-03</internalNodes>
          <leafValues>
            1.3306452333927155e-01 -5.9733194112777710e-01</leafValues></_>
        <_>
          <internalNodes>
            0 -1 269 -2.4352567270398140e-03</internalNodes>
          <leafValues>
            3.8143408298492432e-01 -1.7762246727943420e-01</leafValues></_>
        <_>
          <internalNodes>
            0 -1 180 1.3921350240707397e-02</internalNodes>
          <leafValues>
            -3.4937199950218201e-01 2.0563122630119324e-01</leafValues></_>
        <_>
          <internalNodes>
            0 -1 181 -2.4220114573836327e-03</internalNodes>
          <leafValues>
            -5.0556135177612305e-01 1.1012325435876846e-01</leafValues></_>
        <_>
          <internalNodes>
            0 -1 162 -1.9089879468083382e-02</internalNodes>
          <leafValues>
            -7.8462034463882446e-01 6.8498417735099792e-02</leafValues></_>
        <_>
          <internalNodes>
            0 -1 360 1.2450972571969032e-03</internalNodes>
          <leafValues>
            -1.8148627877235413e-01 3.5137531161308289e-01</leafValues></_>
        <_>
          <internalNodes>
            0 -1 123 -1.2472973205149174e-02</internalNodes>
          <leafValues>
            5.6438314914703369e-01 -1.1955582350492477e-01</leafValues></_>
        <_>
          <internalNodes>
            0 -1 1 -5.1332522183656693e-02</internalNodes>
          <leafValues>
            4.5464161038398743e-01 -1.3910797238349915e-01</leafValues></_>
        <_>
          <internalNodes>
            0 -1 396 -5.3365100175142288e-03</internalNodes>
          <leafValues>
            -7.5739943981170654e-01 9.5177993178367615e-02</leafValues></_>
        <_>
          <internalNodes>
            0 -1 189 8.8475383818149567e-03</internalNodes>
          <leafValues>
            -1.1621820181608200e-01 6.9853919744491577e-01</leafValues></_>
        <_>
          <internalNodes>
            0 -1 191 -2.4079908616840839e-03</internalNodes>
          <leafValues>
            4.4719421863555908e-01 -1.5632556378841400e-01</leafValues></_>
        <_>
          <internalNodes>
            0 -1 52 -2.1243709325790405e-01</internalNodes>
          <leafValues>
            7.5094908475875854e-01 -9.8455592989921570e-02</leafValues></_></weakClassifiers></_>
    <!-- stage 7 -->
    <_>
      <maxWeakCount>23</maxWeakCount>
      <stageThreshold>-1.4762549400329590e+00</stageThreshold>
      <weakClassifiers>
        <_>
          <internalNodes>
            0 -1 273 -3.7489002570509911e-03</internalNodes>
          <leafValues>
            1.8264015018939972e-01 -5.1171708106994629e-01</leafValues></_>
        <_>
          <internalNodes>
            0 -1 362 -4.9362946301698685e-03</internalNodes>
          <leafValues>
            2.7056160569190979e-01 -2.8616616129875183e-01</leafValues></_>
        <_>
          <internalNodes>
            0 -1 171 -3.4165094257332385e-04</internalNodes>
          <leafValues>
            1.8551340699195862e-01 -3.6258822679519653e-01</leafValues></_>
        <_>
          <internalNodes>
            0 -1 186 -2.3974073119461536e-03</internalNodes>
          <leafValues>
            -5.2559781074523926e-01 1.3397575914859772e-01</leafValues></_>
        <_>
          <internalNodes>
            0 -1 334 9.1878604143857956e-03</internalNodes>
          <leafValues>
            1.2588009238243103e-01 -6.9143480062484741e-01</leafValues></_>
        <_>
          <internalNodes>
            0 -1 392 -2.4819448590278625e-03</internalNodes>
          <leafValues>
            3.8127741217613220e-01 -1.8323931097984314e-01</leafValues></_>
        <_>
          <internalNodes>
            0 -1 259 -7.3382169939577579e-03</internalNodes>
          <leafValues>
            4.8098471760749817e-01 -1.5655590593814850e-01</leafValues></_>
        <_>
          <internalNodes>
            0 -1 373 -9.8546016961336136e-03</internalNodes>
          <leafValues>
            5.3236627578735352e-01 -9.9072039127349854e-02</leafValues></_>
        <_>
          <internalNodes>
            0 -1 247 -4.7803586348891258e-03</internalNodes>
          <leafValues>
            -6.7065614461898804e-01 9.7166702151298523e-02</leafValues></_>
        <_>
          <internalNodes>
            0 -1 174 -8.0488032836001366e-05</internalNodes>
          <leafValues>
            2.0151692628860474e-01 -3.0042082071304321e-01</leafValues></_>
        <_>
          <internalNodes>
            0 -1 93 -6.5918089821934700e-03</internalNodes>
          <leafValues>
            -5.7188290357589722e-01 1.0598123073577881e-01</leafValues></_>
        <_>
          <internalNodes>
            0 -1 209 -8.6919759633019567e-04</internalNodes>
          <leafValues>
            1.8460585176944733e-01 -3.3139601349830627e-01</leafValues></_>
        <_>
          <internalNodes>
            0 -1 144 -1.4643061906099319e-02</internalNodes>
          <leafValues>
            -5.1286029815673828e-01 1.1735005676746368e-01</leafValues></_>
        <_>
          <internalNodes>
            0 -1 374 5.5949450470507145e-03</internalNodes>
          <leafValues>
            -1.4037884771823883e-01 4.3075412511825562e-01</leafValues></_>
        <_>
          <internalNodes>
            0 -1 325 4.3348558247089386e-03</internalNodes>
          <leafValues>
            1.5494985878467560e-01 -4.4609397649765015e-01</leafValues></_>
        <_>
          <internalNodes>
            0 -1 58 -1.5646833926439285e-03</internalNodes>
          <leafValues>
            2.0643000304698944e-01 -2.8859230875968933e-01</leafValues></_>
        <_>
          <internalNodes>
            0 -1 324 -6.2398137524724007e-03</internalNodes>
          <leafValues>
            -5.4439896345138550e-01 1.1272870749235153e-01</leafValues></_>
        <_>
          <internalNodes>
            0 -1 138 -5.5735822767019272e-02</internalNodes>
          <leafValues>
            6.1383873224258423e-01 -1.0750184208154678e-01</leafValues></_>
        <_>
          <internalNodes>
            0 -1 308 4.1027334518730640e-03</internalNodes>
          <leafValues>
            -1.5167117118835449e-01 4.4319841265678406e-01</leafValues></_>
        <_>
          <internalNodes>
            0 -1 267 -3.5199378617107868e-03</internalNodes>
          <leafValues>
            3.6061736941337585e-01 -2.2062939405441284e-01</leafValues></_>
        <_>
          <internalNodes>
            0 -1 328 4.8073664307594299e-02</internalNodes>
          <leafValues>
            -1.0741775482892990e-01 5.3616559505462646e-01</leafValues></_>
        <_>
          <internalNodes>
            0 -1 65 1.2641043867915869e-03</internalNodes>
          <leafValues>
            1.1717221140861511e-01 -5.2900892496109009e-01</leafValues></_>
        <_>
          <internalNodes>
            0 -1 190 2.0196532830595970e-02</internalNodes>
          <leafValues>
            -9.2881940305233002e-02 7.6766639947891235e-01</leafValues></_></weakClassifiers></_>
    <!-- stage 8 -->
    <_>
      <maxWeakCount>25</maxWeakCount>
      <stageThreshold>-1.5752402544021606e+00</stageThreshold>
      <weakClassifiers>
        <_>
          <internalNodes>
            0 -1 7 7.4018470942974091e-02</internalNodes>
          <leafValues>
            -4.5849201083183289e-01 3.7956205010414124e-01</leafValues></_>
        <_>
          <internalNodes>
            0 -1 160 -2.1664579398930073e-03</internalNodes>
          <leafValues>
            3.4912168979644775e-01 -1.9778917729854584e-01</leafValues></_>
        <_>
          <internalNodes>
            0 -1 43 -4.3211042881011963e-02</internalNodes>
          <leafValues>
            -7.9257255792617798e-01 7.0589013397693634e-02</leafValues></_>
        <_>
          <internalNodes>
            0 -1 207 -9.2679522931575775e-03</internalNodes>
          <leafValues>
            -6.1023676395416260e-01 1.2965439260005951e-01</leafValues></_>
        <_>
          <internalNodes>
            0 -1 148 -1.5861077699810266e-03</internalNodes>
          <leafValues>
            3.2216072082519531e-01 -1.9677734375000000e-01</leafValues></_>
        <_>
          <internalNodes>
            0 -1 155 3.7305692676454782e-03</internalNodes>
          <leafValues>
            1.1595584452152252e-01 -6.1181420087814331e-01</leafValues></_>
        <_>
          <internalNodes>
            0 -1 251 -1.6943313181400299e-02</internalNodes>
          <leafValues>
            2.9842340946197510e-01 -2.1612459421157837e-01</leafValues></_>
        <_>
          <internalNodes>
            0 -1 234 4.0543409995734692e-03</internalNodes>
          <leafValues>
            8.7318994104862213e-02 -6.5547668933868408e-01</leafValues></_>
        <_>
          <internalNodes>
            0 -1 79 -1.0483651421964169e-03</internalNodes>
          <leafValues>
            1.9728663563728333e-01 -2.9520413279533386e-01</leafValues></_>
        <_>
          <internalNodes>
            0 -1 365 -1.6079535707831383e-03</internalNodes>
          <leafValues>
            2.6286292076110840e-01 -2.2165264189243317e-01</leafValues></_>
        <_>
          <internalNodes>
            0 -1 369 -7.4130743741989136e-03</internalNodes>
          <leafValues>
            4.0218895673751831e-01 -1.5253292024135590e-01</leafValues></_>
        <_>
          <internalNodes>
            0 -1 229 -1.5971292741596699e-03</internalNodes>
          <leafValues>
            -4.3635582923889160e-01 1.3310843706130981e-01</leafValues></_>
        <_>
          <internalNodes>
            0 -1 111 4.5976294204592705e-03</internalNodes>
          <leafValues>
            -2.0419144630432129e-01 2.8686159849166870e-01</leafValues></_>
        <_>
          <internalNodes>
            0 -1 192 -6.0012424364686012e-03</internalNodes>
          <leafValues>
            4.7650215029716492e-01 -1.2456090748310089e-01</leafValues></_>
        <_>
          <internalNodes>
            0 -1 253 2.0855776965618134e-03</internalNodes>
          <leafValues>
            8.5227668285369873e-02 -6.6138833761215210e-01</leafValues></_>
        <_>
          <internalNodes>
            0 -1 407 -1.1771544814109802e-03</internalNodes>
          <leafValues>
            -3.4859967231750488e-01 1.5799239277839661e-01</leafValues></_>
        <_>
          <internalNodes>
            0 -1 411 -5.2283634431660175e-04</internalNodes>
          <leafValues>
            -3.7003275752067566e-01 1.5505045652389526e-01</leafValues></_>
        <_>
          <internalNodes>
            0 -1 311 -4.1713558137416840e-02</internalNodes>
          <leafValues>
            6.6281634569168091e-01 -9.2945002019405365e-02</leafValues></_>
        <_>
          <internalNodes>
            0 -1 367 3.5334113053977489e-03</internalNodes>
          <leafValues>
            -1.2855118513107300e-01 4.6448880434036255e-01</leafValues></_>
        <_>
          <internalNodes>
            0 -1 320 -3.3627115190029144e-02</internalNodes>
          <leafValues>
            4.9279814958572388e-01 -1.3256435096263885e-01</leafValues></_>
        <_>
          <internalNodes>
            0 -1 237 -2.5238431990146637e-02</internalNodes>
          <leafValues>
            5.0522822141647339e-01 -1.5779924392700195e-01</leafValues></_>
        <_>
          <internalNodes>
            0 -1 351 -8.1232705269940197e-05</internalNodes>
          <leafValues>
            2.3047000169754028e-01 -2.9813829064369202e-01</leafValues></_>
        <_>
          <internalNodes>
            0 -1 202 9.4374744221568108e-03</internalNodes>
          <leafValues>
            -1.4425912499427795e-01 4.3273678421974182e-01</leafValues></_>
        <_>
          <internalNodes>
            0 -1 16 -2.2843655198812485e-02</internalNodes>
          <leafValues>
            2.5816106796264648e-01 -2.3136246204376221e-01</leafValues></_>
        <_>
          <internalNodes>
            0 -1 175 -2.3720483295619488e-03</internalNodes>
          <leafValues>
            -6.4535105228424072e-01 8.9831590652465820e-02</leafValues></_></weakClassifiers></_>
    <!-- stage 9 -->
    <_>
      <maxWeakCount>25</maxWeakCount>
      <stageThreshold>-1.4009498357772827e+00</stageThreshold>
      <weakClassifiers>
        <_>
          <internalNodes>
            0 -1 167 1.5362812206149101e-02</internalNodes>
          <leafValues>
            -4.6003824472427368e-01 3.6140349507331848e-01</leafValues></_>
        <_>
          <internalNodes>
            0 -1 10 -3.8467738777399063e-03</internalNodes>
          <leafValues>
            2.9516676068305969e-01 -2.3901107907295227e-01</leafValues></_>
        <_>
          <internalNodes>
            0 -1 405 -1.0054079815745354e-02</internalNodes>
          <leafValues>
            6.0352522134780884e-01 -9.8571918904781342e-02</leafValues></_>
        <_>
          <internalNodes>
            0 -1 304 -5.2683439571410418e-04</internalNodes>
          <leafValues>
            -3.8022509217262268e-01 1.6049513220787048e-01</leafValues></_>
        <_>
          <internalNodes>
            0 -1 404 4.5966813340783119e-03</internalNodes>
          <leafValues>
            -1.4911571145057678e-01 3.8418480753898621e-01</leafValues></_>
        <_>
          <internalNodes>
            0 -1 304 7.9549395013600588e-04</internalNodes>
          <leafValues>
            2.0516604185104370e-01 -3.1274321675300598e-01</leafValues></_>
        <_>
          <internalNodes>
            0 -1 199 1.2440771097317338e-03</internalNodes>
          <leafValues>
            -2.4977672100067139e-01 2.4062435328960419e-01</leafValues></_>
        <_>
          <internalNodes>
            0 -1 338 -1.2279001995921135e-02</internalNodes>
          <leafValues>
            2.3559069633483887e-01 -2.4958249926567078e-01</leafValues></_>
        <_>
          <internalNodes>
            0 -1 294 -1.4736080542206764e-02</internalNodes>
          <leafValues>
            2.1827928721904755e-01 -2.3416712880134583e-01</leafValues></_>
        <_>
          <internalNodes>
            0 -1 347 -1.1996694840490818e-02</internalNodes>
          <leafValues>
            5.5314224958419800e-01 -9.4548739492893219e-02</leafValues></_>
        <_>
          <internalNodes>
            0 -1 100 -3.9195320568978786e-03</internalNodes>
          <leafValues>
            -6.3352620601654053e-01 9.9407024681568146e-02</leafValues></_>
        <_>
          <internalNodes>
            0 -1 59 -1.4051576144993305e-03</internalNodes>
          <leafValues>
            1.9068069756031036e-01 -3.1845256686210632e-01</leafValues></_>
        <_>
          <internalNodes>
            0 -1 38 -1.6081225126981735e-02</internalNodes>
          <leafValues>
            -4.2207691073417664e-01 1.4334312081336975e-01</leafValues></_>
        <_>
          <internalNodes>
            0 -1 9 2.2793713957071304e-02</internalNodes>
          <leafValues>
            1.3419036567211151e-01 -4.2935904860496521e-01</leafValues></_>
        <_>
          <internalNodes>
            0 -1 114 -1.0905451199505478e-04</internalNodes>
          <leafValues>
            1.9695119559764862e-01 -2.7220472693443298e-01</leafValues></_>
        <_>
          <internalNodes>
            0 -1 216 -1.6710672061890364e-03</internalNodes>
          <leafValues>
            2.8313615918159485e-01 -1.7760929465293884e-01</leafValues></_>
        <_>
          <internalNodes>
            0 -1 389 -4.4253338128328323e-03</internalNodes>
          <leafValues>
            -6.2285172939300537e-01 8.1185154616832733e-02</leafValues></_>
        <_>
          <internalNodes>
            0 -1 403 2.6575415395200253e-03</internalNodes>
          <leafValues>
            8.5849724709987640e-02 -7.0354020595550537e-01</leafValues></_>
        <_>
          <internalNodes>
            0 -1 28 -7.5967209413647652e-03</internalNodes>
          <leafValues>
            4.8738774657249451e-01 -1.3357666134834290e-01</leafValues></_>
        <_>
          <internalNodes>
            0 -1 46 9.4644544878974557e-04</internalNodes>
          <leafValues>
            -2.8126254677772522e-01 2.1776422858238220e-01</leafValues></_>
        <_>
          <internalNodes>
            0 -1 122 6.6344395279884338e-02</internalNodes>
          <leafValues>
            6.7311033606529236e-02 -7.4089401960372925e-01</leafValues></_>
        <_>
          <internalNodes>
            0 -1 261 -3.7729725241661072e-02</internalNodes>
          <leafValues>
            3.1800526380538940e-01 -1.7501778900623322e-01</leafValues></_>
        <_>
          <internalNodes>
            0 -1 278 -6.6631147637963295e-04</internalNodes>
          <leafValues>
            -4.5044690370559692e-01 1.4208087325096130e-01</leafValues></_>
        <_>
          <internalNodes>
            0 -1 44 -5.9301001019775867e-03</internalNodes>
          <leafValues>
            -6.4045298099517822e-01 7.2253368794918060e-02</leafValues></_>
        <_>
          <internalNodes>
            0 -1 156 8.2179801538586617e-03</internalNodes>
          <leafValues>
            -1.3226929306983948e-01 4.7065544128417969e-01</leafValues></_></weakClassifiers></_>
    <!-- stage 10 -->
    <_>
      <maxWeakCount>24</maxWeakCount>
      <stageThreshold>-1.4583058357238770e+00</stageThreshold>
      <weakClassifiers>
        <_>
          <internalNodes>
            0 -1 77 -2.6222873479127884e-02</internalNodes>
          <leafValues>
            4.8048049211502075e-02 -5.0671440362930298e-01</leafValues></_>
        <_>
          <internalNodes>
            0 -1 366 3.0411968473345041e-03</internalNodes>
          <leafValues>
            -2.2059933841228485e-01 3.4823945164680481e-01</leafValues></_>
        <_>
          <internalNodes>
            0 -1 158 -8.5935033857822418e-03</internalNodes>
          <leafValues>
            -5.5694055557250977e-01 1.1816816031932831e-01</leafValues></_>
        <_>
          <internalNodes>
            0 -1 81 -4.3609598651528358e-03</internalNodes>
          <leafValues>
            2.9280096292495728e-01 -2.0057474076747894e-01</leafValues></_>
        <_>
          <internalNodes>
            0 -1 266 -4.5409277081489563e-03</internalNodes>
          <leafValues>
            3.8827309012413025e-01 -1.6002109646797180e-01</leafValues></_>
        <_>
          <internalNodes>
            0 -1 101 5.4446579888463020e-03</internalNodes>
          <leafValues>
            1.1627446860074997e-01 -4.9577677249908447e-01</leafValues></_>
        <_>
          <internalNodes>
            0 -1 160 -1.9685048609972000e-03</internalNodes>
          <leafValues>
            3.2863608002662659e-01 -1.9401691854000092e-01</leafValues></_>
        <_>
          <internalNodes>
            0 -1 400 1.8171491101384163e-03</internalNodes>
          <leafValues>
            -2.6235097646713257e-01 2.4401333928108215e-01</leafValues></_>
        <_>
          <internalNodes>
            0 -1 150 -1.5162148047238588e-03</internalNodes>
          <leafValues>
            2.6948255300521851e-01 -2.1292680501937866e-01</leafValues></_>
        <_>
          <internalNodes>
            0 -1 119 4.0198743343353271e-02</internalNodes>
          <leafValues>
            1.1989349871873856e-01 -4.6881791949272156e-01</leafValues></_>
        <_>
          <internalNodes>
            0 -1 394 -2.0329382270574570e-02</internalNodes>
          <leafValues>
            -7.1918046474456787e-01 6.8862065672874451e-02</leafValues></_>
        <_>
          <internalNodes>
            0 -1 40 -6.6190667450428009e-02</internalNodes>
          <leafValues>
            -8.9046305418014526e-01 4.7737743705511093e-02</leafValues></_>
        <_>
          <internalNodes>
            0 -1 310 -6.7908084020018578e-04</internalNodes>
          <leafValues>
            1.4875788986682892e-01 -3.3169552683830261e-01</leafValues></_>
        <_>
          <internalNodes>
            0 -1 14 4.6625472605228424e-03</internalNodes>
          <leafValues>
            1.0094784200191498e-01 -4.7961819171905518e-01</leafValues></_>
        <_>
          <internalNodes>
            0 -1 69 -6.7414585500955582e-03</internalNodes>
          <leafValues>
            2.3468644917011261e-01 -2.1339318156242371e-01</leafValues></_>
        <_>
          <internalNodes>
            0 -1 359 2.4161240085959435e-02</internalNodes>
          <leafValues>
            -1.0561822354793549e-01 5.4745399951934814e-01</leafValues></_>
        <_>
          <internalNodes>
            0 -1 249 -5.0331633538007736e-03</internalNodes>
          <leafValues>
            2.8001388907432556e-01 -2.0471937954425812e-01</leafValues></_>
        <_>
          <internalNodes>
            0 -1 272 -2.7654822915792465e-03</internalNodes>
          <leafValues>
            -6.8566060066223145e-01 8.9123077690601349e-02</leafValues></_>
        <_>
          <internalNodes>
            0 -1 307 -2.6292786933481693e-03</internalNodes>
          <leafValues>
            2.8056672215461731e-01 -2.0136943459510803e-01</leafValues></_>
        <_>
          <internalNodes>
            0 -1 302 1.2919956352561712e-03</internalNodes>
          <leafValues>
            1.3857062160968781e-01 -4.2840966582298279e-01</leafValues></_>
        <_>
          <internalNodes>
            0 -1 303 -4.7437399625778198e-03</internalNodes>
          <leafValues>
            -4.6977803111076355e-01 1.1925540864467621e-01</leafValues></_>
        <_>
          <internalNodes>
            0 -1 275 6.0702804476022720e-02</internalNodes>
          <leafValues>
            -1.1688745021820068e-01 5.2162128686904907e-01</leafValues></_>
        <_>
          <internalNodes>
            0 -1 187 -1.5934839844703674e-02</internalNodes>
          <leafValues>
            3.0286705493927002e-01 -1.8337289988994598e-01</leafValues></_>
        <_>
          <internalNodes>
            0 -1 98 5.6738746352493763e-03</internalNodes>
          <leafValues>
            -1.2647967040538788e-01 4.6489098668098450e-01</leafValues></_></weakClassifiers></_>
    <!-- stage 11 -->
    <_>
      <maxWeakCount>28</maxWeakCount>
      <stageThreshold>-1.4365533590316772e+00</stageThreshold>
      <weakClassifiers>
        <_>
          <internalNodes>
            0 -1 146 2.3053096607327461e-02</internalNodes>
          <leafValues>
            -4.6640470623970032e-01 2.4507042765617371e-01</leafValues></_>
        <_>
          <internalNodes>
            0 -1 103 -3.6028870381414890e-03</internalNodes>
          <leafValues>
            2.6462331414222717e-01 -2.4515056610107422e-01</leafValues></_>
        <_>
          <internalNodes>
            0 -1 8 -2.5233444757759571e-03</internalNodes>
          <leafValues>
            2.6455789804458618e-01 -2.0405057072639465e-01</leafValues></_>
        <_>
          <internalNodes>
            0 -1 80 5.3715761750936508e-03</internalNodes>
          <leafValues>
            1.1292281001806259e-01 -5.1425677537918091e-01</leafValues></_>
        <_>
          <internalNodes>
            0 -1 205 -7.2369445115327835e-03</internalNodes>
          <leafValues>
            4.4861987233161926e-01 -9.1846853494644165e-02</leafValues></_>
        <_>
          <internalNodes>
            0 -1 296 1.1420116061344743e-04</internalNodes>
          <leafValues>
            -3.0204790830612183e-01 2.0167472958564758e-01</leafValues></_>
        <_>
          <internalNodes>
            0 -1 13 -7.7962747309356928e-04</internalNodes>
          <leafValues>
            -4.1428753733634949e-01 1.1117085069417953e-01</leafValues></_>
        <_>
          <internalNodes>
            0 -1 185 -3.4716725349426270e-03</internalNodes>
          <leafValues>
            4.2518407106399536e-01 -1.1390359699726105e-01</leafValues></_>
        <_>
          <internalNodes>
            0 -1 326 9.0636848472058773e-04</internalNodes>
          <leafValues>
            1.2511707842350006e-01 -4.0824016928672791e-01</leafValues></_>
        <_>
          <internalNodes>
            0 -1 170 -3.3177395816892385e-03</internalNodes>
          <leafValues>
            3.4347641468048096e-01 -1.5120631456375122e-01</leafValues></_>
        <_>
          <internalNodes>
            0 -1 322 -4.4315112754702568e-03</internalNodes>
          <leafValues>
            -5.0629824399948120e-01 1.0376913845539093e-01</leafValues></_>
        <_>
          <internalNodes>
            0 -1 2 5.2101127803325653e-02</internalNodes>
          <leafValues>
            -1.6193190217018127e-01 3.0042627453804016e-01</leafValues></_>
        <_>
          <internalNodes>
            0 -1 361 7.7452394179999828e-04</internalNodes>
          <leafValues>
            -2.0827706158161163e-01 2.2701776027679443e-01</leafValues></_>
        <_>
          <internalNodes>
            0 -1 344 1.4094106154516339e-04</internalNodes>
          <leafValues>
            -2.0185963809490204e-01 2.3516495525836945e-01</leafValues></_>
        <_>
          <internalNodes>
            0 -1 137 9.9625289440155029e-03</internalNodes>
          <leafValues>
            -9.7991786897182465e-02 5.5759483575820923e-01</leafValues></_>
        <_>
          <internalNodes>
            0 -1 255 1.0663978755474091e-02</internalNodes>
          <leafValues>
            8.9133627712726593e-02 -6.0511147975921631e-01</leafValues></_>
        <_>
          <internalNodes>
            0 -1 232 -2.3034573532640934e-03</internalNodes>
          <leafValues>
            -5.7943141460418701e-01 7.9352654516696930e-02</leafValues></_>
        <_>
          <internalNodes>
            0 -1 397 -4.9142474308609962e-03</internalNodes>
          <leafValues>
            4.5887607336044312e-01 -1.1128353327512741e-01</leafValues></_>
        <_>
          <internalNodes>
            0 -1 408 -1.3513289159163833e-03</internalNodes>
          <leafValues>
            3.7092041969299316e-01 -1.7233680188655853e-01</leafValues></_>
        <_>
          <internalNodes>
            0 -1 301 7.4014872312545776e-02</internalNodes>
          <leafValues>
            -6.2502942979335785e-02 8.7506186962127686e-01</leafValues></_>
        <_>
          <internalNodes>
            0 -1 375 7.4283592402935028e-03</internalNodes>
          <leafValues>
            -1.1816782504320145e-01 4.2866450548171997e-01</leafValues></_>
        <_>
          <internalNodes>
            0 -1 94 -1.6003474593162537e-02</internalNodes>
          <leafValues>
            -5.0201666355133057e-01 1.1438735574483871e-01</leafValues></_>
        <_>
          <internalNodes>
            0 -1 63 -1.6859184950590134e-02</internalNodes>
          <leafValues>
            -7.7786201238632202e-01 4.6990189701318741e-02</leafValues></_>
        <_>
          <internalNodes>
            0 -1 115 9.9408370442688465e-04</internalNodes>
          <leafValues>
            -1.9088077545166016e-01 2.6560425758361816e-01</leafValues></_>
        <_>
          <internalNodes>
            0 -1 370 1.0035960003733635e-03</internalNodes>
          <leafValues>
            -1.9604493677616119e-01 2.2980795800685883e-01</leafValues></_>
        <_>
          <internalNodes>
            0 -1 399 -4.5317718759179115e-03</internalNodes>
          <leafValues>
            -5.9425657987594604e-01 7.7090866863727570e-02</leafValues></_>
        <_>
          <internalNodes>
            0 -1 64 7.8971043694764376e-04</internalNodes>
          <leafValues>
            -2.5833708047866821e-01 1.9208081066608429e-01</leafValues></_>
        <_>
          <internalNodes>
            0 -1 200 -8.6571879684925079e-02</internalNodes>
          <leafValues>
            4.7680035233497620e-01 -1.0044085979461670e-01</leafValues></_></weakClassifiers></_>
    <!-- stage 12 -->
    <_>
      <maxWeakCount>29</maxWeakCount>
      <stageThreshold>-1.5027183294296265e+00</stageThreshold>
      <weakClassifiers>
        <_>
          <internalNodes>
            0 -1 245 3.5501099191606045e-03</internalNodes>
          <leafValues>
            -5.1379150152206421e-01 -1.3140604132786393e-03</leafValues></_>
        <_>
          <internalNodes>
            0 -1 194 -6.3129039481282234e-03</internalNodes>
          <leafValues>
            1.5878897905349731e-01 -3.4985825419425964e-01</leafValues></_>
        <_>
          <internalNodes>
            0 -1 316 -8.7241055443882942e-03</internalNodes>
          <leafValues>
            2.5817093253135681e-01 -2.1053993701934814e-01</leafValues></_>
        <_>
          <internalNodes>
            0 -1 348 -3.1866556964814663e-03</internalNodes>
          <leafValues>
            2.7361392974853516e-01 -1.9919340312480927e-01</leafValues></_>
        <_>
          <internalNodes>
            0 -1 87 2.5987159460783005e-02</internalNodes>
          <leafValues>
            1.6894768178462982e-01 -4.0755820274353027e-01</leafValues></_>
        <_>
          <internalNodes>
            0 -1 124 -5.3667854517698288e-03</internalNodes>
          <leafValues>
            -3.4117400646209717e-01 1.5767954289913177e-01</leafValues></_>
        <_>
          <internalNodes>
            0 -1 353 -2.6699727401137352e-02</internalNodes>
          <leafValues>
            2.7366638183593750e-01 -2.2663924098014832e-01</leafValues></_>
        <_>
          <internalNodes>
            0 -1 343 7.2601814754307270e-03</internalNodes>
          <leafValues>
            9.2333309352397919e-02 -6.5999454259872437e-01</leafValues></_>
        <_>
          <internalNodes>
            0 -1 337 9.2432586825452745e-05</internalNodes>
          <leafValues>
            -2.7934625744819641e-01 1.6562817990779877e-01</leafValues></_>
        <_>
          <internalNodes>
            0 -1 412 -4.8222043551504612e-04</internalNodes>
          <leafValues>
            -3.8508301973342896e-01 1.2737450003623962e-01</leafValues></_>
        <_>
          <internalNodes>
            0 -1 299 -6.5787181258201599e-02</internalNodes>
          <leafValues>
            4.7325628995895386e-01 -1.1456914246082306e-01</leafValues></_>
        <_>
          <internalNodes>
            0 -1 178 -5.2407067269086838e-03</internalNodes>
          <leafValues>
            3.3231207728385925e-01 -1.6110526025295258e-01</leafValues></_>
        <_>
          <internalNodes>
            0 -1 355 -4.0355254895985126e-03</internalNodes>
          <leafValues>
            -5.2039688825607300e-01 1.0021588951349258e-01</leafValues></_>
        <_>
          <internalNodes>
            0 -1 213 -4.8399367369711399e-04</internalNodes>
          <leafValues>
            1.5507632493972778e-01 -2.9476320743560791e-01</leafValues></_>
        <_>
          <internalNodes>
            0 -1 254 1.2481429614126682e-02</internalNodes>
          <leafValues>
            -9.1366373002529144e-02 6.5102279186248779e-01</leafValues></_>
        <_>
          <internalNodes>
            0 -1 179 -5.1060477271676064e-03</internalNodes>
          <leafValues>
            -6.6746276617050171e-01 8.1837676465511322e-02</leafValues></_>
        <_>
          <internalNodes>
            0 -1 37 3.2656088471412659e-02</internalNodes>
          <leafValues>
            -9.9060662090778351e-02 5.6453227996826172e-01</leafValues></_>
        <_>
          <internalNodes>
            0 -1 236 -5.5084712803363800e-03</internalNodes>
          <leafValues>
            3.7299111485481262e-01 -1.2886203825473785e-01</leafValues></_>
        <_>
          <internalNodes>
            0 -1 143 1.7678819596767426e-02</internalNodes>
          <leafValues>
            1.0515321791172028e-01 -4.4943332672119141e-01</leafValues></_>
        <_>
          <internalNodes>
            0 -1 333 4.9263983964920044e-03</internalNodes>
          <leafValues>
            -1.8911944329738617e-01 2.5180095434188843e-01</leafValues></_>
        <_>
          <internalNodes>
            0 -1 230 -7.0602563209831715e-03</internalNodes>
          <leafValues>
            3.8890400528907776e-01 -1.3759639859199524e-01</leafValues></_>
        <_>
          <internalNodes>
            0 -1 384 -3.5156428930349648e-04</internalNodes>
          <leafValues>
            -3.5189500451087952e-01 1.3882634043693542e-01</leafValues></_>
        <_>
          <internalNodes>
            0 -1 152 -7.2775613516569138e-03</internalNodes>
          <leafValues>
            -5.3119385242462158e-01 8.1269904971122742e-02</leafValues></_>
        <_>
          <internalNodes>
            0 -1 47 -7.7810452785342932e-04</internalNodes>
          <leafValues>
            2.0017583668231964e-01 -2.2649267315864563e-01</leafValues></_>
        <_>
          <internalNodes>
            0 -1 163 -3.1068490352481604e-03</internalNodes>
          <leafValues>
            3.5479024052619934e-01 -1.3997054100036621e-01</leafValues></_>
        <_>
          <internalNodes>
            0 -1 30 9.5457449788227677e-05</internalNodes>
          <leafValues>
            -2.2907078266143799e-01 2.1546176075935364e-01</leafValues></_>
        <_>
          <internalNodes>
            0 -1 185 -2.2302847355604172e-03</internalNodes>
          <leafValues>
            3.4980037808418274e-01 -1.5441846847534180e-01</leafValues></_>
        <_>
          <internalNodes>
            0 -1 218 -2.6944437995553017e-03</internalNodes>
          <leafValues>
            2.8922072052955627e-01 -2.2519673407077789e-01</leafValues></_>
        <_>
          <internalNodes>
            0 -1 224 2.8894799761474133e-03</internalNodes>
          <leafValues>
            1.0006200522184372e-01 -5.5819088220596313e-01</leafValues></_></weakClassifiers></_>
    <!-- stage 13 -->
    <_>
      <maxWeakCount>25</maxWeakCount>
      <stageThreshold>-1.3564356565475464e+00</stageThreshold>
      <weakClassifiers>
        <_>
          <internalNodes>
            0 -1 195 1.2703162617981434e-02</internalNodes>
          <leafValues>
            -4.3127271533012390e-01 5.7333332300186157e-01</leafValues></_>
        <_>
          <internalNodes>
            0 -1 356 -1.7605982720851898e-02</internalNodes>
          <leafValues>
            2.5087961554527283e-01 -2.6564204692840576e-01</leafValues></_>
        <_>
          <internalNodes>
            0 -1 373 1.4063912443816662e-02</internalNodes>
          <leafValues>
            -9.5590949058532715e-02 5.2085071802139282e-01</leafValues></_>
        <_>
          <internalNodes>
            0 -1 67 -9.4378786161541939e-03</internalNodes>
          <leafValues>
            2.3436893522739410e-01 -2.4731282889842987e-01</leafValues></_>
        <_>
          <internalNodes>
            0 -1 297 -3.5709408111870289e-03</internalNodes>
          <leafValues>
            2.9000666737556458e-01 -1.8584366142749786e-01</leafValues></_>
        <_>
          <internalNodes>
            0 -1 410 8.5938947449903935e-05</internalNodes>
          <leafValues>
            -2.7906018495559692e-01 1.9105207920074463e-01</leafValues></_>
        <_>
          <internalNodes>
            0 -1 263 -3.2342295162379742e-04</internalNodes>
          <leafValues>
            2.3920613527297974e-01 -2.5970590114593506e-01</leafValues></_>
        <_>
          <internalNodes>
            0 -1 208 -2.0988773554563522e-02</internalNodes>
          <leafValues>
            -7.4596560001373291e-01 8.3024844527244568e-02</leafValues></_>
        <_>
          <internalNodes>
            0 -1 188 -2.5983918458223343e-03</internalNodes>
          <leafValues>
            2.5738766789436340e-01 -2.0786440372467041e-01</leafValues></_>
        <_>
          <internalNodes>
            0 -1 225 -3.5497029311954975e-03</internalNodes>
          <leafValues>
            -4.5921778678894043e-01 1.2398301064968109e-01</leafValues></_>
        <_>
          <internalNodes>
            0 -1 120 1.1313050054013729e-03</internalNodes>
          <leafValues>
            -3.6936581134796143e-01 1.2932147085666656e-01</leafValues></_>
        <_>
          <internalNodes>
            0 -1 341 1.1962907388806343e-02</internalNodes>
          <leafValues>
            5.9558089822530746e-02 -6.7971682548522949e-01</leafValues></_>
        <_>
          <internalNodes>
            0 -1 56 -8.1098958849906921e-02</internalNodes>
          <leafValues>
            -7.9888534545898438e-01 5.3373780101537704e-02</leafValues></_>
        <_>
          <internalNodes>
            0 -1 126 -2.7067437767982483e-02</internalNodes>
          <leafValues>
            5.5832862854003906e-01 -1.0077269375324249e-01</leafValues></_>
        <_>
          <internalNodes>
            0 -1 103 -2.4605910293757915e-03</internalNodes>
          <leafValues>
            2.3264031112194061e-01 -2.4178394675254822e-01</leafValues></_>
        <_>
          <internalNodes>
            0 -1 34 -5.6188204325735569e-04</internalNodes>
          <leafValues>
            -3.0509513616561890e-01 1.5071347355842590e-01</leafValues></_>
        <_>
          <internalNodes>
            0 -1 157 3.7890393286943436e-03</internalNodes>
          <leafValues>
            9.7015962004661560e-02 -4.8859986662864685e-01</leafValues></_>
        <_>
          <internalNodes>
            0 -1 113 -2.8067175298929214e-03</internalNodes>
          <leafValues>
            2.2528252005577087e-01 -1.9412256777286530e-01</leafValues></_>
        <_>
          <internalNodes>
            0 -1 313 -1.1040772497653961e-01</internalNodes>
          <leafValues>
            6.2955898046493530e-01 -7.0115417242050171e-02</leafValues></_>
        <_>
          <internalNodes>
            0 -1 135 -1.7547719180583954e-03</internalNodes>
          <leafValues>
            1.6686230897903442e-01 -3.2213646173477173e-01</leafValues></_>
        <_>
          <internalNodes>
            0 -1 60 1.3442797958850861e-01</internalNodes>
          <leafValues>
            -7.9531706869602203e-02 6.3586330413818359e-01</leafValues></_>
        <_>
          <internalNodes>
            0 -1 204 -6.1138207092881203e-03</internalNodes>
          <leafValues>
            -6.4295643568038940e-01 8.4319680929183960e-02</leafValues></_>
        <_>
          <internalNodes>
            0 -1 305 -3.5433000884950161e-03</internalNodes>
          <leafValues>
            -5.0541120767593384e-01 8.2988180220127106e-02</leafValues></_>
        <_>
          <internalNodes>
            0 -1 387 -4.2936624959111214e-03</internalNodes>
          <leafValues>
            3.2392415404319763e-01 -1.4777739346027374e-01</leafValues></_>
        <_>
          <internalNodes>
            0 -1 289 -9.9964193999767303e-02</internalNodes>
          <leafValues>
            -7.7567124366760254e-01 6.4781256020069122e-02</leafValues></_></weakClassifiers></_>
    <!-- stage 14 -->
    <_>
      <maxWeakCount>32</maxWeakCount>
      <stageThreshold>-1.5844339132308960e+00</stageThreshold>
      <weakClassifiers>
        <_>
          <internalNodes>
            0 -1 254 -7.6796039938926697e-03</internalNodes>
          <leafValues>
            5.0279330462217331e-02 -5.2014654874801636e-01</leafValues></_>
        <_>
          <internalNodes>
            0 -1 317 4.2483743280172348e-02</internalNodes>
          <leafValues>
            -1.6299809515476227e-01 4.7746822237968445e-01</leafValues></_>
        <_>
          <internalNodes>
            0 -1 121 9.1285780072212219e-03</internalNodes>
          <leafValues>
            -2.9718476533889771e-01 1.7690043151378632e-01</leafValues></_>
        <_>
          <internalNodes>
            0 -1 4 -1.5993837267160416e-02</internalNodes>
          <leafValues>
            5.2336525917053223e-01 -1.1135387420654297e-01</leafValues></_>
        <_>
          <internalNodes>
            0 -1 280 -6.3545681769028306e-04</internalNodes>
          <leafValues>
            -3.4346631169319153e-01 1.5851096808910370e-01</leafValues></_>
        <_>
          <internalNodes>
            0 -1 349 -7.2582126595079899e-03</internalNodes>
          <leafValues>
            -5.5686157941818237e-01 1.0741651803255081e-01</leafValues></_>
        <_>
          <internalNodes>
            0 -1 382 -9.5238536596298218e-04</internalNodes>
          <leafValues>
            2.2249296307563782e-01 -2.4528281390666962e-01</leafValues></_>
        <_>
          <internalNodes>
            0 -1 195 -5.3152549080550671e-03</internalNodes>
          <leafValues>
            4.1432172060012817e-01 -1.3251915574073792e-01</leafValues></_>
        <_>
          <internalNodes>
            0 -1 169 -1.7665198538452387e-03</internalNodes>
          <leafValues>
            3.2649725675582886e-01 -1.5512332320213318e-01</leafValues></_>
        <_>
          <internalNodes>
            0 -1 330 -1.5775754582136869e-03</internalNodes>
          <leafValues>
            2.2631973028182983e-01 -2.2831040620803833e-01</leafValues></_>
        <_>
          <internalNodes>
            0 -1 246 -3.3291378058493137e-03</internalNodes>
          <leafValues>
            -6.4167153835296631e-01 7.0908144116401672e-02</leafValues></_>
        <_>
          <internalNodes>
            0 -1 18 5.4636778077110648e-04</internalNodes>
          <leafValues>
            1.1809775978326797e-01 -3.6540734767913818e-01</leafValues></_>
        <_>
          <internalNodes>
            0 -1 220 -7.2026960551738739e-03</internalNodes>
          <leafValues>
            3.9432913064956665e-01 -1.2307434529066086e-01</leafValues></_>
        <_>
          <internalNodes>
            0 -1 118 1.2663099914789200e-03</internalNodes>
          <leafValues>
            -2.1863958239555359e-01 2.1161554753780365e-01</leafValues></_>
        <_>
          <internalNodes>
            0 -1 368 -1.8236453179270029e-03</internalNodes>
          <leafValues>
            4.1764166951179504e-01 -1.1187627911567688e-01</leafValues></_>
        <_>
          <internalNodes>
            0 -1 117 -3.8723144680261612e-03</internalNodes>
          <leafValues>
            -7.2274869680404663e-01 7.1273855865001678e-02</leafValues></_>
        <_>
          <internalNodes>
            0 -1 286 4.7869510017335415e-03</internalNodes>
          <leafValues>
            6.5030299127101898e-02 -6.4281821250915527e-01</leafValues></_>
        <_>
          <internalNodes>
            0 -1 70 2.5459295138716698e-02</internalNodes>
          <leafValues>
            -7.2269253432750702e-02 7.1114492416381836e-01</leafValues></_>
        <_>
          <internalNodes>
            0 -1 242 -2.9881701339036226e-03</internalNodes>
          <leafValues>
            2.7374112606048584e-01 -1.5778592228889465e-01</leafValues></_>
        <_>
          <internalNodes>
            0 -1 233 1.8430087948217988e-03</internalNodes>
          <leafValues>
            9.6261151134967804e-02 -4.7532150149345398e-01</leafValues></_>
        <_>
          <internalNodes>
            0 -1 134 1.0035350918769836e-01</internalNodes>
          <leafValues>
            -8.0043256282806396e-02 6.2033087015151978e-01</leafValues></_>
        <_>
          <internalNodes>
            0 -1 327 -2.0209401845932007e-03</internalNodes>
          <leafValues>
            -4.2165052890777588e-01 1.1521629244089127e-01</leafValues></_>
        <_>
          <internalNodes>
            0 -1 25 2.3328527808189392e-02</internalNodes>
          <leafValues>
            -1.1096970736980438e-01 4.3269720673561096e-01</leafValues></_>
        <_>
          <internalNodes>
            0 -1 53 -8.6717004887759686e-04</internalNodes>
          <leafValues>
            2.1403551101684570e-01 -2.3672729730606079e-01</leafValues></_>
        <_>
          <internalNodes>
            0 -1 23 -4.2482623830437660e-03</internalNodes>
          <leafValues>
            2.2627869248390198e-01 -2.0898872613906860e-01</leafValues></_>
        <_>
          <internalNodes>
            0 -1 48 3.0581308528780937e-03</internalNodes>
          <leafValues>
            6.2419813126325607e-02 -7.9174107313156128e-01</leafValues></_>
        <_>
          <internalNodes>
            0 -1 91 -2.5176950730383396e-03</internalNodes>
          <leafValues>
            -7.3743736743927002e-01 5.1086321473121643e-02</leafValues></_>
        <_>
          <internalNodes>
            0 -1 368 1.9296999089419842e-03</internalNodes>
          <leafValues>
            -1.2427031993865967e-01 3.8988971710205078e-01</leafValues></_>
        <_>
          <internalNodes>
            0 -1 17 5.1939324475824833e-03</internalNodes>
          <leafValues>
            -1.2402176111936569e-01 3.9156562089920044e-01</leafValues></_>
        <_>
          <internalNodes>
            0 -1 15 -5.4956483654677868e-04</internalNodes>
          <leafValues>
            -3.7731513381004333e-01 1.3114167749881744e-01</leafValues></_>
        <_>
          <internalNodes>
            0 -1 231 -8.3842258900403976e-03</internalNodes>
          <leafValues>
            3.6051279306411743e-01 -1.3321715593338013e-01</leafValues></_>
        <_>
          <internalNodes>
            0 -1 239 7.7656572684645653e-03</internalNodes>
          <leafValues>
            -1.0161409527063370e-01 4.4736939668655396e-01</leafValues></_></weakClassifiers></_>
    <!-- stage 15 -->
    <_>
      <maxWeakCount>26</maxWeakCount>
      <stageThreshold>-1.2551701068878174e+00</stageThreshold>
      <weakClassifiers>
        <_>
          <internalNodes>
            0 -1 12 1.4327645301818848e-02</internalNodes>
          <leafValues>
            -4.4515162706375122e-01 3.8864627480506897e-01</leafValues></_>
        <_>
          <internalNodes>
            0 -1 19 7.1552593726664782e-04</internalNodes>
          <leafValues>
            -3.2749393582344055e-01 1.5920445322990417e-01</leafValues></_>
        <_>
          <internalNodes>
            0 -1 20 -4.6148715773597360e-04</internalNodes>
          <leafValues>
            -3.5053569078445435e-01 1.5319970250129700e-01</leafValues></_>
        <_>
          <internalNodes>
            0 -1 10 -7.7812885865569115e-03</internalNodes>
          <leafValues>
            4.0774488449096680e-01 -1.0923060029745102e-01</leafValues></_>
        <_>
          <internalNodes>
            0 -1 398 1.8237936310470104e-03</internalNodes>
          <leafValues>
            -2.4589864909648895e-01 2.0599307119846344e-01</leafValues></_>
        <_>
          <internalNodes>
            0 -1 329 4.5081898570060730e-03</internalNodes>
          <leafValues>
            9.3352153897285461e-02 -5.5710446834564209e-01</leafValues></_>
        <_>
          <internalNodes>
            0 -1 219 -1.5928564826026559e-03</internalNodes>
          <leafValues>
            2.9120284318923950e-01 -1.7025730013847351e-01</leafValues></_>
        <_>
          <internalNodes>
            0 -1 221 6.6111562773585320e-03</internalNodes>
          <leafValues>
            -1.1849851906299591e-01 4.6132069826126099e-01</leafValues></_>
        <_>
          <internalNodes>
            0 -1 380 -4.6369694173336029e-03</internalNodes>
          <leafValues>
            -5.7339143753051758e-01 8.3737738430500031e-02</leafValues></_>
        <_>
          <internalNodes>
            0 -1 321 -1.3221823610365391e-03</internalNodes>
          <leafValues>
            3.0005532503128052e-01 -1.6365151107311249e-01</leafValues></_>
        <_>
          <internalNodes>
            0 -1 262 -8.7570296600461006e-03</internalNodes>
          <leafValues>
            -5.1040172576904297e-01 9.7700700163841248e-02</leafValues></_>
        <_>
          <internalNodes>
            0 -1 390 -1.3075398281216621e-02</internalNodes>
          <leafValues>
            -6.6498535871505737e-01 6.6954374313354492e-02</leafValues></_>
        <_>
          <internalNodes>
            0 -1 309 6.1443094164133072e-03</internalNodes>
          <leafValues>
            8.7490156292915344e-02 -4.9510073661804199e-01</leafValues></_>
        <_>
          <internalNodes>
            0 -1 371 2.6489382144063711e-03</internalNodes>
          <leafValues>
            -2.3086810111999512e-01 1.8953296542167664e-01</leafValues></_>
        <_>
          <internalNodes>
            0 -1 184 -2.2785761393606663e-03</internalNodes>
          <leafValues>
            -6.2296319007873535e-01 7.1332037448883057e-02</leafValues></_>
        <_>
          <internalNodes>
            0 -1 96 -9.5458223950117826e-04</internalNodes>
          <leafValues>
            2.3688785731792450e-01 -1.9641555845737457e-01</leafValues></_>
        <_>
          <internalNodes>
            0 -1 27 -8.0137953162193298e-02</internalNodes>
          <leafValues>
            -6.3129031658172607e-01 8.4361039102077484e-02</leafValues></_>
        <_>
          <internalNodes>
            0 -1 345 3.3697713166475296e-02</internalNodes>
          <leafValues>
            -7.3971964418888092e-02 7.0786267518997192e-01</leafValues></_>
        <_>
          <internalNodes>
            0 -1 350 2.3474623449146748e-03</internalNodes>
          <leafValues>
            1.4442549645900726e-01 -3.6985206604003906e-01</leafValues></_>
        <_>
          <internalNodes>
            0 -1 268 3.4397481940686703e-03</internalNodes>
          <leafValues>
            7.6772801578044891e-02 -5.4332041740417480e-01</leafValues></_>
        <_>
          <internalNodes>
            0 -1 372 4.6009462326765060e-02</internalNodes>
          <leafValues>
            5.2400067448616028e-02 -7.2686898708343506e-01</leafValues></_>
        <_>
          <internalNodes>
            0 -1 31 -1.6179254744201899e-03</internalNodes>
          <leafValues>
            -2.8777256608009338e-01 1.5736438333988190e-01</leafValues></_>
        <_>
          <internalNodes>
            0 -1 265 -4.5084580779075623e-03</internalNodes>
          <leafValues>
            2.8417694568634033e-01 -1.6496554017066956e-01</leafValues></_>
        <_>
          <internalNodes>
            0 -1 193 -4.2368778958916664e-03</internalNodes>
          <leafValues>
            -5.0881457328796387e-01 9.2024341225624084e-02</leafValues></_>
        <_>
          <internalNodes>
            0 -1 73 5.5634509772062302e-04</internalNodes>
          <leafValues>
            -1.9572104513645172e-01 2.4346910417079926e-01</leafValues></_>
        <_>
          <internalNodes>
            0 -1 276 -2.5593061000108719e-03</internalNodes>
          <leafValues>
            3.8077771663665771e-01 -1.1911696940660477e-01</leafValues></_></weakClassifiers></_>
    <!-- stage 16 -->
    <_>
      <maxWeakCount>29</maxWeakCount>
      <stageThreshold>-1.5205687284469604e+00</stageThreshold>
      <weakClassifiers>
        <_>
          <internalNodes>
            0 -1 243 -7.3538445867598057e-03</internalNodes>
          <leafValues>
            4.6757165342569351e-02 -5.0558781623840332e-01</leafValues></_>
        <_>
          <internalNodes>
            0 -1 166 -2.3034587502479553e-03</internalNodes>
          <leafValues>
            -4.3700605630874634e-01 1.0305657237768173e-01</leafValues></_>
        <_>
          <internalNodes>
            0 -1 110 -1.0659700259566307e-02</internalNodes>
          <leafValues>
            1.6917398571968079e-01 -3.1726795434951782e-01</leafValues></_>
        <_>
          <internalNodes>
            0 -1 267 -6.1059696599841118e-03</internalNodes>
          <leafValues>
            4.2685574293136597e-01 -1.2760663032531738e-01</leafValues></_>
        <_>
          <internalNodes>
            0 -1 41 -4.8322230577468872e-03</internalNodes>
          <leafValues>
            -4.4467097520828247e-01 1.2289763242006302e-01</leafValues></_>
        <_>
          <internalNodes>
            0 -1 285 4.6065663918852806e-03</internalNodes>
          <leafValues>
            -1.2316918373107910e-01 4.0593567490577698e-01</leafValues></_>
        <_>
          <internalNodes>
            0 -1 222 1.7440358642488718e-03</internalNodes>
          <leafValues>
            1.3412877917289734e-01 -4.2018273472785950e-01</leafValues></_>
        <_>
          <internalNodes>
            0 -1 342 1.1155544780194759e-03</internalNodes>
          <leafValues>
            -1.7940461635589600e-01 3.1228008866310120e-01</leafValues></_>
        <_>
          <internalNodes>
            0 -1 90 5.4454930126667023e-02</internalNodes>
          <leafValues>
            5.4327122867107391e-02 -7.3082041740417480e-01</leafValues></_>
        <_>
          <internalNodes>
            0 -1 107 2.4603242054581642e-03</internalNodes>
          <leafValues>
            1.1358678340911865e-01 -3.9318397641181946e-01</leafValues></_>
        <_>
          <internalNodes>
            0 -1 376 1.0911580175161362e-03</internalNodes>
          <leafValues>
            -2.6191779971122742e-01 1.9369527697563171e-01</leafValues></_>
        <_>
          <internalNodes>
            0 -1 131 -4.5386613346636295e-03</internalNodes>
          <leafValues>
            3.5855585336685181e-01 -1.2521809339523315e-01</leafValues></_>
        <_>
          <internalNodes>
            0 -1 6 -1.8868274986743927e-02</internalNodes>
          <leafValues>
            2.8923749923706055e-01 -1.8906284868717194e-01</leafValues></_>
        <_>
          <internalNodes>
            0 -1 381 2.9796978924423456e-03</internalNodes>
          <leafValues>
            -1.2667614221572876e-01 3.8770139217376709e-01</leafValues></_>
        <_>
          <internalNodes>
            0 -1 379 -3.9598839357495308e-03</internalNodes>
          <leafValues>
            3.9944189786911011e-01 -1.1972743272781372e-01</leafValues></_>
        <_>
          <internalNodes>
            0 -1 378 2.4446742609143257e-03</internalNodes>
          <leafValues>
            -1.4870359003543854e-01 3.3971324563026428e-01</leafValues></_>
        <_>
          <internalNodes>
            0 -1 312 -1.9595947116613388e-02</internalNodes>
          <leafValues>
            3.9135664701461792e-01 -1.2558968365192413e-01</leafValues></_>
        <_>
          <internalNodes>
            0 -1 0 -1.6789447516202927e-02</internalNodes>
          <leafValues>
            3.5765063762664795e-01 -1.4196479320526123e-01</leafValues></_>
        <_>
          <internalNodes>
            0 -1 139 -2.3282156325876713e-04</internalNodes>
          <leafValues>
            2.1088273823261261e-01 -2.3033608496189117e-01</leafValues></_>
        <_>
          <internalNodes>
            0 -1 383 -6.2146577984094620e-03</internalNodes>
          <leafValues>
            -5.8182102441787720e-01 7.3661699891090393e-02</leafValues></_>
        <_>
          <internalNodes>
            0 -1 198 -7.1793254464864731e-03</internalNodes>
          <leafValues>
            3.0591589212417603e-01 -1.6223046183586121e-01</leafValues></_>
        <_>
          <internalNodes>
            0 -1 133 -3.8180850446224213e-02</internalNodes>
          <leafValues>
            -7.1537703275680542e-01 9.1551430523395538e-02</leafValues></_>
        <_>
          <internalNodes>
            0 -1 335 -1.2353404890745878e-03</internalNodes>
          <leafValues>
            2.7177536487579346e-01 -2.0242577791213989e-01</leafValues></_>
        <_>
          <internalNodes>
            0 -1 279 -4.5115128159523010e-03</internalNodes>
          <leafValues>
            -5.0747030973434448e-01 9.8300226032733917e-02</leafValues></_>
        <_>
          <internalNodes>
            0 -1 156 -6.6082812845706940e-03</internalNodes>
          <leafValues>
            3.9181524515151978e-01 -1.2153670191764832e-01</leafValues></_>
        <_>
          <internalNodes>
            0 -1 89 -6.9098286330699921e-03</internalNodes>
          <leafValues>
            2.7583950757980347e-01 -1.8680638074874878e-01</leafValues></_>
        <_>
          <internalNodes>
            0 -1 282 3.5162689164280891e-03</internalNodes>
          <leafValues>
            6.1139203608036041e-02 -7.5797057151794434e-01</leafValues></_>
        <_>
          <internalNodes>
            0 -1 360 1.6529674176126719e-03</internalNodes>
          <leafValues>
            -1.4238262176513672e-01 3.3242836594581604e-01</leafValues></_>
        <_>
          <internalNodes>
            0 -1 211 -1.8722578533925116e-04</internalNodes>
          <leafValues>
            1.7028540372848511e-01 -2.5945672392845154e-01</leafValues></_></weakClassifiers></_>
    <!-- stage 17 -->
    <_>
      <maxWeakCount>28</maxWeakCount>
      <stageThreshold>-1.4069056510925293e+00</stageThreshold>
      <weakClassifiers>
        <_>
          <internalNodes>
            0 -1 112 -1.4603404328227043e-02</internalNodes>
          <leafValues>
            2.7090302109718323e-01 -4.5405614376068115e-01</leafValues></_>
        <_>
          <internalNodes>
            0 -1 318 -1.0954629629850388e-02</internalNodes>
          <leafValues>
            1.4734123647212982e-01 -3.4380713105201721e-01</leafValues></_>
        <_>
          <internalNodes>
            0 -1 250 -7.6522384770214558e-03</internalNodes>
          <leafValues>
            1.9784039258956909e-01 -2.5145259499549866e-01</leafValues></_>
        <_>
          <internalNodes>
            0 -1 26 -8.0402120947837830e-02</internalNodes>
          <leafValues>
            5.1870626211166382e-01 -1.0779136419296265e-01</leafValues></_>
        <_>
          <internalNodes>
            0 -1 183 -4.3427869677543640e-03</internalNodes>
          <leafValues>
            -6.6220575571060181e-01 8.6808256804943085e-02</leafValues></_>
        <_>
          <internalNodes>
            0 -1 181 -5.1898397505283356e-03</internalNodes>
          <leafValues>
            -6.6530746221542358e-01 7.5028523802757263e-02</leafValues></_>
        <_>
          <internalNodes>
            0 -1 161 -3.1433044932782650e-03</internalNodes>
          <leafValues>
            3.1018722057342529e-01 -1.3885396718978882e-01</leafValues></_>
        <_>
          <internalNodes>
            0 -1 150 -1.6184556297957897e-03</internalNodes>
          <leafValues>
            2.3519249260425568e-01 -2.1267001330852509e-01</leafValues></_>
        <_>
          <internalNodes>
            0 -1 85 5.8537600561976433e-03</internalNodes>
          <leafValues>
            -3.1584623456001282e-01 1.6765220463275909e-01</leafValues></_>
        <_>
          <internalNodes>
            0 -1 39 8.9624114334583282e-03</internalNodes>
          <leafValues>
            -1.5711367130279541e-01 2.9486000537872314e-01</leafValues></_>
        <_>
          <internalNodes>
            0 -1 66 -1.1658309958875179e-03</internalNodes>
          <leafValues>
            -3.4617036581039429e-01 1.3022695481777191e-01</leafValues></_>
        <_>
          <internalNodes>
            0 -1 68 8.8136224076151848e-04</internalNodes>
          <leafValues>
            1.3021636009216309e-01 -4.5162135362625122e-01</leafValues></_>
        <_>
          <internalNodes>
            0 -1 295 -2.9411965981125832e-02</internalNodes>
          <leafValues>
            2.8747737407684326e-01 -1.7135334014892578e-01</leafValues></_>
        <_>
          <internalNodes>
            0 -1 174 -7.7249009336810559e-05</internalNodes>
          <leafValues>
            1.7631256580352783e-01 -2.8692165017127991e-01</leafValues></_>
        <_>
          <internalNodes>
            0 -1 142 -6.5356813138350844e-05</internalNodes>
          <leafValues>
            1.8937377631664276e-01 -2.4432654678821564e-01</leafValues></_>
        <_>
          <internalNodes>
            0 -1 358 -8.4182079881429672e-03</internalNodes>
          <leafValues>
            -5.8008843660354614e-01 7.5740113854408264e-02</leafValues></_>
        <_>
          <internalNodes>
            0 -1 357 -7.4927695095539093e-03</internalNodes>
          <leafValues>
            -5.3444886207580566e-01 7.1220621466636658e-02</leafValues></_>
        <_>
          <internalNodes>
            0 -1 238 -2.1135572344064713e-02</internalNodes>
          <leafValues>
            4.4952961802482605e-01 -1.0134520381689072e-01</leafValues></_>
        <_>
          <internalNodes>
            0 -1 287 -9.2876888811588287e-03</internalNodes>
          <leafValues>
            4.3423074483871460e-01 -9.9488437175750732e-02</leafValues></_>
        <_>
          <internalNodes>
            0 -1 173 -4.5510344207286835e-03</internalNodes>
          <leafValues>
            -6.2384623289108276e-01 7.3692552745342255e-02</leafValues></_>
        <_>
          <internalNodes>
            0 -1 365 -1.8986464710906148e-03</internalNodes>
          <leafValues>
            2.3173381388187408e-01 -1.8503208458423615e-01</leafValues></_>
        <_>
          <internalNodes>
            0 -1 22 3.8900807499885559e-02</internalNodes>
          <leafValues>
            -1.0213970392942429e-01 4.3904221057891846e-01</leafValues></_>
        <_>
          <internalNodes>
            0 -1 300 -4.6067863702774048e-02</internalNodes>
          <leafValues>
            5.9266674518585205e-01 -6.8649619817733765e-02</leafValues></_>
        <_>
          <internalNodes>
            0 -1 172 5.6335894623771310e-04</internalNodes>
          <leafValues>
            -1.9128699600696564e-01 2.3190483450889587e-01</leafValues></_>
        <_>
          <internalNodes>
            0 -1 129 1.3074161112308502e-01</internalNodes>
          <leafValues>
            -7.4674695730209351e-02 5.4872709512710571e-01</leafValues></_>
        <_>
          <internalNodes>
            0 -1 283 3.1393920071423054e-03</internalNodes>
          <leafValues>
            8.3973877131938934e-02 -5.8653557300567627e-01</leafValues></_>
        <_>
          <internalNodes>
            0 -1 336 9.5394736854359508e-04</internalNodes>
          <leafValues>
            -2.8865891695022583e-01 1.3241635262966156e-01</leafValues></_>
        <_>
          <internalNodes>
            0 -1 86 3.9097245782613754e-02</internalNodes>
          <leafValues>
            5.9547349810600281e-02 -6.8784993886947632e-01</leafValues></_></weakClassifiers></_>
    <!-- stage 18 -->
    <_>
      <maxWeakCount>26</maxWeakCount>
      <stageThreshold>-1.2352176904678345e+00</stageThreshold>
      <weakClassifiers>
        <_>
          <internalNodes>
            0 -1 12 1.9712626934051514e-02</internalNodes>
          <leafValues>
            -4.3075245618820190e-01 5.7046979665756226e-01</leafValues></_>
        <_>
          <internalNodes>
            0 -1 21 1.1452951002866030e-03</internalNodes>
          <leafValues>
            7.4602618813514709e-02 -4.6337267756462097e-01</leafValues></_>
        <_>
          <internalNodes>
            0 -1 245 2.6118389796465635e-03</internalNodes>
          <leafValues>
            -1.6274474561214447e-01 3.0194115638732910e-01</leafValues></_>
        <_>
          <internalNodes>
            0 -1 414 -5.3375959396362305e-04</internalNodes>
          <leafValues>
            -3.2792454957962036e-01 1.4461223781108856e-01</leafValues></_>
        <_>
          <internalNodes>
            0 -1 21 -1.0766531340777874e-03</internalNodes>
          <leafValues>
            -3.3040103316307068e-01 1.6395403444766998e-01</leafValues></_>
        <_>
          <internalNodes>
            0 -1 197 -1.2756802607327700e-03</internalNodes>
          <leafValues>
            2.3735328018665314e-01 -1.9666819274425507e-01</leafValues></_>
        <_>
          <internalNodes>
            0 -1 55 2.4888318032026291e-02</internalNodes>
          <leafValues>
            -1.0053987056016922e-01 6.0605663061141968e-01</leafValues></_>
        <_>
          <internalNodes>
            0 -1 264 4.0002949535846710e-03</internalNodes>
          <leafValues>
            1.1668894439935684e-01 -4.8523846268653870e-01</leafValues></_>
        <_>
          <internalNodes>
            0 -1 130 -1.4001141535118222e-03</internalNodes>
          <leafValues>
            2.6880115270614624e-01 -2.0248205959796906e-01</leafValues></_>
        <_>
          <internalNodes>
            0 -1 61 1.9226212054491043e-02</internalNodes>
          <leafValues>
            6.3310958445072174e-02 -7.1211075782775879e-01</leafValues></_>
        <_>
          <internalNodes>
            0 -1 292 -4.2807729914784431e-03</internalNodes>
          <leafValues>
            2.0246839523315430e-01 -2.5828287005424500e-01</leafValues></_>
        <_>
          <internalNodes>
            0 -1 141 -2.6856637559831142e-03</internalNodes>
          <leafValues>
            2.6067548990249634e-01 -1.5772977471351624e-01</leafValues></_>
        <_>
          <internalNodes>
            0 -1 32 -5.4461662657558918e-03</internalNodes>
          <leafValues>
            2.1699041128158569e-01 -2.3656058311462402e-01</leafValues></_>
        <_>
          <internalNodes>
            0 -1 29 -3.1395763158798218e-02</internalNodes>
          <leafValues>
            -6.4739990234375000e-01 5.6706290692090988e-02</leafValues></_>
        <_>
          <internalNodes>
            0 -1 45 4.6778228133916855e-03</internalNodes>
          <leafValues>
            1.5128839015960693e-01 -2.7840161323547363e-01</leafValues></_>
        <_>
          <internalNodes>
            0 -1 217 1.9342682790011168e-03</internalNodes>
          <leafValues>
            7.2257421910762787e-02 -6.0277903079986572e-01</leafValues></_>
        <_>
          <internalNodes>
            0 -1 323 -3.0247531831264496e-03</internalNodes>
          <leafValues>
            2.6884251832962036e-01 -1.5972775220870972e-01</leafValues></_>
        <_>
          <internalNodes>
            0 -1 147 -6.5992157906293869e-03</internalNodes>
          <leafValues>
            3.4372431039810181e-01 -1.2764807045459747e-01</leafValues></_>
        <_>
          <internalNodes>
            0 -1 244 -3.4345872700214386e-03</internalNodes>
          <leafValues>
            3.3873072266578674e-01 -1.3238665461540222e-01</leafValues></_>
        <_>
          <internalNodes>
            0 -1 306 3.0313497409224510e-03</internalNodes>
          <leafValues>
            7.6129019260406494e-02 -6.0724258422851562e-01</leafValues></_>
        <_>
          <internalNodes>
            0 -1 196 -1.4716593548655510e-02</internalNodes>
          <leafValues>
            3.6465674638748169e-01 -1.2854108214378357e-01</leafValues></_>
        <_>
          <internalNodes>
            0 -1 391 -1.6938983462750912e-03</internalNodes>
          <leafValues>
            -5.9489619731903076e-01 7.6157294213771820e-02</leafValues></_>
        <_>
          <internalNodes>
            0 -1 385 -1.8654239829629660e-03</internalNodes>
          <leafValues>
            -4.9675410985946655e-01 7.6669529080390930e-02</leafValues></_>
        <_>
          <internalNodes>
            0 -1 386 -2.3382634390145540e-03</internalNodes>
          <leafValues>
            -5.8228194713592529e-01 6.9600388407707214e-02</leafValues></_>
        <_>
          <internalNodes>
            0 -1 248 1.6301890136674047e-03</internalNodes>
          <leafValues>
            9.7390919923782349e-02 -4.1367328166961670e-01</leafValues></_>
        <_>
          <internalNodes>
            0 -1 168 -1.3015036471188068e-02</internalNodes>
          <leafValues>
            3.2884785532951355e-01 -1.4882540702819824e-01</leafValues></_></weakClassifiers></_>
    <!-- stage 19 -->
    <_>
      <maxWeakCount>30</maxWeakCount>
      <stageThreshold>-1.4804294109344482e+00</stageThreshold>
      <weakClassifiers>
        <_>
          <internalNodes>
            0 -1 409 -6.8905586376786232e-03</internalNodes>
          <leafValues>
            2.6623377203941345e-01 -4.5601850748062134e-01</leafValues></_>
        <_>
          <internalNodes>
            0 -1 298 2.9715350829064846e-03</internalNodes>
          <leafValues>
            -3.2750174403190613e-01 1.9430172443389893e-01</leafValues></_>
        <_>
          <internalNodes>
            0 -1 339 -9.3650922179222107e-02</internalNodes>
          <leafValues>
            -7.6484894752502441e-01 7.3328278958797455e-02</leafValues></_>
        <_>
          <internalNodes>
            0 -1 252 2.7143782004714012e-02</internalNodes>
          <leafValues>
            1.2675091624259949e-01 -5.5185508728027344e-01</leafValues></_>
        <_>
          <internalNodes>
            0 -1 76 -7.8266851603984833e-02</internalNodes>
          <leafValues>
            -7.4776005744934082e-01 5.2870560437440872e-02</leafValues></_>
        <_>
          <internalNodes>
            0 -1 127 1.5915047843009233e-03</internalNodes>
          <leafValues>
            -3.1376415491104126e-01 1.7615005373954773e-01</leafValues></_>
        <_>
          <internalNodes>
            0 -1 395 -2.8250203467905521e-03</internalNodes>
          <leafValues>
            3.4500798583030701e-01 -1.6560824215412140e-01</leafValues></_>
        <_>
          <internalNodes>
            0 -1 254 -5.7820221409201622e-03</internalNodes>
          <leafValues>
            2.8783020377159119e-01 -1.7620676755905151e-01</leafValues></_>
        <_>
          <internalNodes>
            0 -1 258 -7.6815888285636902e-02</internalNodes>
          <leafValues>
            4.3177598714828491e-01 -1.1571094393730164e-01</leafValues></_>
        <_>
          <internalNodes>
            0 -1 332 -5.1707925740629435e-04</internalNodes>
          <leafValues>
            -3.3324721455574036e-01 1.3744153082370758e-01</leafValues></_>
        <_>
          <internalNodes>
            0 -1 125 2.5345962494611740e-02</internalNodes>
          <leafValues>
            9.8137892782688141e-02 -4.8413768410682678e-01</leafValues></_>
        <_>
          <internalNodes>
            0 -1 116 -1.9942801445722580e-02</internalNodes>
          <leafValues>
            -3.8125973939895630e-01 1.3229463994503021e-01</leafValues></_>
        <_>
          <internalNodes>
            0 -1 57 -1.3343052705749869e-04</internalNodes>
          <leafValues>
            1.6084803640842438e-01 -2.7114358544349670e-01</leafValues></_>
        <_>
          <internalNodes>
            0 -1 331 -1.8769685178995132e-02</internalNodes>
          <leafValues>
            5.1762813329696655e-01 -1.0125605016946793e-01</leafValues></_>
        <_>
          <internalNodes>
            0 -1 271 -2.7171296533197165e-03</internalNodes>
          <leafValues>
            -6.7518144845962524e-01 7.7123172581195831e-02</leafValues></_>
        <_>
          <internalNodes>
            0 -1 377 -1.9400939345359802e-03</internalNodes>
          <leafValues>
            3.0412751436233521e-01 -1.5712375938892365e-01</leafValues></_>
        <_>
          <internalNodes>
            0 -1 363 -1.0363476350903511e-02</internalNodes>
          <leafValues>
            3.1807038187980652e-01 -1.4212483167648315e-01</leafValues></_>
        <_>
          <internalNodes>
            0 -1 62 -2.8696993365883827e-02</internalNodes>
          <leafValues>
            -8.5793495178222656e-01 4.7571752220392227e-02</leafValues></_>
        <_>
          <internalNodes>
            0 -1 35 1.7890922026708722e-04</internalNodes>
          <leafValues>
            -2.5512331724166870e-01 1.5810270607471466e-01</leafValues></_>
        <_>
          <internalNodes>
            0 -1 102 8.2645368820521981e-05</internalNodes>
          <leafValues>
            -1.9790078699588776e-01 2.1611575782299042e-01</leafValues></_>
        <_>
          <internalNodes>
            0 -1 415 -7.1671186015009880e-04</internalNodes>
          <leafValues>
            -3.4952726960182190e-01 1.2365197390317917e-01</leafValues></_>
        <_>
          <internalNodes>
            0 -1 82 6.6756568849086761e-03</internalNodes>
          <leafValues>
            9.5326602458953857e-02 -3.9849343895912170e-01</leafValues></_>
        <_>
          <internalNodes>
            0 -1 201 -4.3259565718472004e-03</internalNodes>
          <leafValues>
            2.4387829005718231e-01 -1.8604555726051331e-01</leafValues></_>
        <_>
          <internalNodes>
            0 -1 284 1.8938456196337938e-03</internalNodes>
          <leafValues>
            -1.6010557115077972e-01 2.7564135193824768e-01</leafValues></_>
        <_>
          <internalNodes>
            0 -1 235 2.2017227020114660e-03</internalNodes>
          <leafValues>
            -1.4294464886188507e-01 2.8884696960449219e-01</leafValues></_>
        <_>
          <internalNodes>
            0 -1 95 -5.8961011469364166e-02</internalNodes>
          <leafValues>
            -5.1686060428619385e-01 8.6719810962677002e-02</leafValues></_>
        <_>
          <internalNodes>
            0 -1 281 -6.2125938711687922e-04</internalNodes>
          <leafValues>
            -3.2625105977058411e-01 1.2307678908109665e-01</leafValues></_>
        <_>
          <internalNodes>
            0 -1 105 2.2133883088827133e-02</internalNodes>
          <leafValues>
            -6.8438574671745300e-02 6.3135117292404175e-01</leafValues></_>
        <_>
          <internalNodes>
            0 -1 109 -5.6254696100950241e-03</internalNodes>
          <leafValues>
            2.0370072126388550e-01 -2.6889485120773315e-01</leafValues></_>
        <_>
          <internalNodes>
            0 -1 145 -2.0200658589601517e-02</internalNodes>
          <leafValues>
            5.8637011051177979e-01 -7.4696168303489685e-02</leafValues></_></weakClassifiers></_></stages>
  <features>
    <_>
      <rects>
        <_>
          0 0 13 2 -1.</_>
        <_>
          0 1 13 1 2.</_></rects>
      <tilted>0</tilted></_>
    <_>
      <rects>
        <_>
          0 0 14 4 -1.</_>
        <_>
          0 2 14 2 2.</_></rects>
      <tilted>0</tilted></_>
    <_>
      <rects>
        <_>
          0 1 12 8 -1.</_>
        <_>
          0 1 6 4 2.</_>
        <_>
          6 5 6 4 2.</_></rects>
      <tilted>0</tilted></_>
    <_>
      <rects>
        <_>
          0 6 2 6 -1.</_>
        <_>
          1 6 1 6 2.</_></rects>
      <tilted>0</tilted></_>
    <_>
      <rects>
        <_>
          0 7 2 7 -1.</_>
        <_>
          1 7 1 7 2.</_></rects>
      <tilted>0</tilted></_>
    <_>
      <rects>
        <_>
          0 8 2 4 -1.</_>
        <_>
          1 8 1 4 2.</_></rects>
      <tilted>0</tilted></_>
    <_>
      <rects>
        <_>
          0 8 6 8 -1.</_>
        <_>
          2 8 2 8 3.</_></rects>
      <tilted>0</tilted></_>
    <_>
      <rects>
        <_>
          0 8 6 9 -1.</_>
        <_>
          2 8 2 9 3.</_></rects>
      <tilted>0</tilted></_>
    <_>
      <rects>
        <_>
          0 9 2 2 -1.</_>
        <_>
          1 9 1 2 2.</_></rects>
      <tilted>0</tilted></_>
    <_>
      <rects>
        <_>
          0 9 10 6 -1.</_>
        <_>
          0 12 10 3 2.</_></rects>
      <tilted>0</tilted></_>
    <_>
      <rects>
        <_>
          0 10 3 2 -1.</_>
        <_>
          1 10 1 2 3.</_></rects>
      <tilted>0</tilted></_>
    <_>
      <rects>
        <_>
          0 11 3 1 -1.</_>
        <_>
          1 11 1 1 3.</_></rects>
      <tilted>0</tilted></_>
    <_>
      <rects>
        <_>
          0 12 2 5 -1.</_>
        <_>
          1 12 1 5 2.</_></rects>
      <tilted>0</tilted></_>
    <_>
      <rects>
        <_>
          0 15 1 2 -1.</_>
        <_>
          0 16 1 1 2.</_></rects>
      <tilted>0</tilted></_>
    <_>
      <rects>
        <_>
          0 15 8 3 -1.</_>
        <_>
          0 16 8 1 3.</_></rects>
      <tilted>0</tilted></_>
    <_>
      <rects>
        <_>
          0 16 1 2 -1.</_>
        <_>
          0 17 1 1 2.</_></rects>
      <tilted>0</tilted></_>
    <_>
      <rects>
        <_>
          0 16 15 3 -1.</_>
        <_>
          5 16 5 3 3.</_></rects>
      <tilted>0</tilted></_>
    <_>
      <rects>
        <_>
          0 16 12 2 -1.</_>
        <_>
          0 16 6 1 2.</_>
        <_>
          6 17 6 1 2.</_></rects>
      <tilted>0</tilted></_>
    <_>
      <rects>
        <_>
          0 17 2 2 -1.</_>
        <_>
          0 17 1 1 2.</_>
        <_>
          1 18 1 1 2.</_></rects>
      <tilted>0</tilted></_>
    <_>
      <rects>
        <_>
          0 17 8 3 -1.</_>
        <_>
          0 18 8 1 3.</_></rects>
      <tilted>0</tilted></_>
    <_>
      <rects>
        <_>
          0 18 1 2 -1.</_>
        <_>
          0 19 1 1 2.</_></rects>
      <tilted>0</tilted></_>
    <_>
      <rects>
        <_>
          0 18 2 2 -1.</_>
        <_>
          0 19 2 1 2.</_></rects>
      <tilted>0</tilted></_>
    <_>
      <rects>
        <_>
          1 1 6 12 -1.</_>
        <_>
          1 1 3 6 2.</_>
        <_>
          4 7 3 6 2.</_></rects>
      <tilted>0</tilted></_>
    <_>
      <rects>
        <_>
          1 5 2 13 -1.</_>
        <_>
          2 5 1 13 2.</_></rects>
      <tilted>0</tilted></_>
    <_>
      <rects>
        <_>
          1 6 3 8 -1.</_>
        <_>
          1 10 3 4 2.</_></rects>
      <tilted>0</tilted></_>
    <_>
      <rects>
        <_>
          1 7 6 7 -1.</_>
        <_>
          3 7 2 7 3.</_></rects>
      <tilted>0</tilted></_>
    <_>
      <rects>
        <_>
          1 8 14 6 -1.</_>
        <_>
          1 8 7 3 2.</_>
        <_>
          8 11 7 3 2.</_></rects>
      <tilted>0</tilted></_>
    <_>
      <rects>
        <_>
          1 9 12 7 -1.</_>
        <_>
          5 9 4 7 3.</_></rects>
      <tilted>0</tilted></_>
    <_>
      <rects>
        <_>
          1 10 3 4 -1.</_>
        <_>
          2 10 1 4 3.</_></rects>
      <tilted>0</tilted></_>
    <_>
      <rects>
        <_>
          1 11 12 2 -1.</_>
        <_>
          5 11 4 2 3.</_></rects>
      <tilted>0</tilted></_>
    <_>
      <rects>
        <_>
          1 12 1 2 -1.</_>
        <_>
          1 13 1 1 2.</_></rects>
      <tilted>0</tilted></_>
    <_>
      <rects>
        <_>
          1 13 1 6 -1.</_>
        <_>
          1 15 1 2 3.</_></rects>
      <tilted>0</tilted></_>
    <_>
      <rects>
        <_>
          1 13 6 6 -1.</_>
        <_>
          3 13 2 6 3.</_></rects>
      <tilted>0</tilted></_>
    <_>
      <rects>
        <_>
          1 14 12 4 -1.</_>
        <_>
          5 14 4 4 3.</_></rects>
      <tilted>0</tilted></_>
    <_>
      <rects>
        <_>
          1 16 2 3 -1.</_>
        <_>
          1 17 2 1 3.</_></rects>
      <tilted>0</tilted></_>
    <_>
      <rects>
        <_>
          1 16 6 3 -1.</_>
        <_>
          1 17 6 1 3.</_></rects>
      <tilted>0</tilted></_>
    <_>
      <rects>
        <_>
          2 0 15 2 -1.</_>
        <_>
          2 1 15 1 2.</_></rects>
      <tilted>0</tilted></_>
    <_>
      <rects>
        <_>
          2 3 8 4 -1.</_>
        <_>
          2 3 4 2 2.</_>
        <_>
          6 5 4 2 2.</_></rects>
      <tilted>0</tilted></_>
    <_>
      <rects>
        <_>
          2 5 4 10 -1.</_>
        <_>
          2 10 4 5 2.</_></rects>
      <tilted>0</tilted></_>
    <_>
      <rects>
        <_>
          2 6 2 9 -1.</_>
        <_>
          2 9 2 3 3.</_></rects>
      <tilted>0</tilted></_>
    <_>
      <rects>
        <_>
          2 7 15 4 -1.</_>
        <_>
          7 7 5 4 3.</_></rects>
      <tilted>0</tilted></_>
    <_>
      <rects>
        <_>
