<?xml version="1.0"?>
<opencv_storage>
<right_dat type_id="opencv-haar-classifier">
  <size>
    15 15</size>
  <stages>
    <_>
      <trees>
        <_>
          <_>
            <feature>
              <rects>
                <_>
                  6 5 9 1 -1.</_>
                <_>
                  9 8 3 1 3.</_></rects>
              <tilted>1</tilted></feature>
            <threshold>-0.0556246303021908</threshold>
            <left_val>0.8655809164047241</left_val>
            <right_val>-0.9299908280372620</right_val></_></_>
        <_>
          <_>
            <feature>
              <rects>
                <_>
                  3 5 10 6 -1.</_>
                <_>
                  8 5 5 3 2.</_>
                <_>
                  3 8 5 3 2.</_></rects>
              <tilted>0</tilted></feature>
            <threshold>0.0465529598295689</threshold>
            <left_val>-0.8006380796432495</left_val>
            <right_val>0.6349713206291199</right_val></_></_></trees>
      <stage_threshold>-0.2950195074081421</stage_threshold>
      <parent>-1</parent>
      <next>-1</next></_>
    <_>
      <trees>
        <_>
          <_>
            <feature>
              <rects>
                <_>
                  7 5 8 2 -1.</_>
                <_>
                  9 7 4 2 2.</_></rects>
              <tilted>1</tilted></feature>
            <threshold>-0.0857546627521515</threshold>
            <left_val>0.6516640186309815</left_val>
            <right_val>-0.7690643072128296</right_val></_></_>
        <_>
          <_>
            <feature>
              <rects>
                <_>
                  4 10 8 3 -1.</_>
                <_>
                  4 10 4 3 2.</_></rects>
              <tilted>0</tilted></feature>
            <threshold>0.0274290107190609</threshold>
            <left_val>-0.5973237156867981</left_val>
            <right_val>0.3500509858131409</right_val></_></_>
        <_>
          <_>
            <feature>
              <rects>
                <_>
                  0 5 14 9 -1.</_>
                <_>
                  0 8 14 3 3.</_></rects>
              <tilted>0</tilted></feature>
            <threshold>-0.1858544945716858</threshold>
            <left_val>0.5207557082176209</left_val>
            <right_val>-0.7425506114959717</right_val></_></_>
        <_>
          <_>
            <feature>
              <rects>
                <_>
                  6 7 4 7 -1.</_>
                <_>
                  7 7 2 7 2.</_></rects>
              <tilted>0</tilted></feature>
            <threshold>-0.0104781100526452</threshold>
            <left_val>0.5368772745132446</left_val>
            <right_val>-0.4193077981472015</right_val></_></_>
        <_>
          <_>
            <feature>
              <rects>
                <_>
                  7 2 8 2 -1.</_>
                <_>
                  7 2 8 1 2.</_></rects>
              <tilted>1</tilted></feature>
            <threshold>8.6769461631774902e-003</threshold>
            <left_val>-0.8669018745422363</left_val>
            <right_val>0.3490890860557556</right_val></_></_></trees>
      <stage_threshold>-1.2317830324172974</stage_threshold>
      <parent>0</parent>
      <next>-1</next></_>
    <_>
      <trees>
        <_>
          <_>
            <feature>
              <rects>
                <_>
                  7 5 8 2 -1.</_>
                <_>
                  9 7 4 2 2.</_></rects>
              <tilted>1</tilted></feature>
            <threshold>-0.1177470982074738</threshold>
            <left_val>0.8245614171028137</left_val>
            <right_val>-0.6036772131919861</right_val></_></_>
        <_>
          <_>
            <feature>
              <rects>
                <_>
                  3 10 12 3 -1.</_>
                <_>
                  3 10 6 3 2.</_></rects>
              <tilted>0</tilted></feature>
            <threshold>0.1494760960340500</threshold>
            <left_val>0.0976990982890129</left_val>
            <right_val>-0.9999930262565613</right_val></_></_>
        <_>
          <_>
            <feature>
              <rects>
                <_>
                  0 10 12 3 -1.</_>
                <_>
                  6 10 6 3 2.</_></rects>
              <tilted>0</tilted></feature>
            <threshold>-0.0681024789810181</threshold>
            <left_val>0.5156428217887878</left_val>
            <right_val>-0.8342571854591370</right_val></_></_>
        <_>
          <_>
            <feature>
              <rects>
                <_>
                  1 5 14 9 -1.</_>
                <_>
                  1 8 14 3 3.</_></rects>
              <tilted>0</tilted></feature>
            <threshold>-0.1599206030368805</threshold>
            <left_val>0.3411366045475006</left_val>
            <right_val>-0.8435463905334473</right_val></_></_>
        <_>
          <_>
            <feature>
              <rects>
                <_>
                  4 4 3 10 -1.</_>
                <_>
                  5 4 1 10 3.</_></rects>
              <tilted>0</tilted></feature>
            <threshold>0.0441518314182758</threshold>
            <left_val>-0.3551962971687317</left_val>
            <right_val>0.9736859202384949</right_val></_></_>
        <_>
          <_>
            <feature>
              <rects>
                <_>
                  8 3 6 12 -1.</_>
                <_>
                  8 9 6 6 2.</_></rects>
              <tilted>0</tilted></feature>
            <threshold>0.1078668981790543</threshold>
            <left_val>0.1471772044897080</left_val>
            <right_val>-0.5671175122261047</right_val></_></_>
        <_>
          <_>
            <feature>
              <rects>
                <_>
                  1 3 6 12 -1.</_>
                <_>
                  1 9 6 6 2.</_></rects>
              <tilted>0</tilted></feature>
            <threshold>-0.0857253298163414</threshold>
            <left_val>-0.9222003817558289</left_val>
            <right_val>0.3019349873065949</right_val></_></_></trees>
      <stage_threshold>-0.9051827788352966</stage_threshold>
      <parent>1</parent>
      <next>-1</next></_>
    <_>
      <trees>
        <_>
          <_>
            <feature>
              <rects>
                <_>
                  4 8 6 4 -1.</_>
                <_>
                  7 8 3 4 2.</_></rects>
              <tilted>0</tilted></feature>
            <threshold>-0.0739324763417244</threshold>
            <left_val>0.6351646780967712</left_val>
            <right_val>-0.5910102128982544</right_val></_></_>
        <_>
          <_>
            <feature>
              <rects>
                <_>
                  9 0 1 6 -1.</_>
                <_>
                  7 2 1 2 3.</_></rects>
              <tilted>1</tilted></feature>
            <threshold>-0.0112090604379773</threshold>
            <left_val>0.3027153015136719</left_val>
            <right_val>-0.1981291025876999</right_val></_></_>
        <_>
          <_>
            <feature>
              <rects>
                <_>
                  3 2 9 10 -1.</_>
                <_>
                  3 7 9 5 2.</_></rects>
              <tilted>0</tilted></feature>
            <threshold>-0.1003118008375168</threshold>
            <left_val>0.3495304882526398</left_val>
            <right_val>-0.8311266899108887</right_val></_></_>
        <_>
          <_>
            <feature>
              <rects>
                <_>
                  8 8 1 6 -1.</_>
                <_>
                  6 10 1 2 3.</_></rects>
              <tilted>1</tilted></feature>
            <threshold>-0.0523922294378281</threshold>
            <left_val>0.6967123150825501</left_val>
            <right_val>-0.0822730064392090</right_val></_></_>
        <_>
          <_>
            <feature>
              <rects>
                <_>
                  1 5 12 4 -1.</_>
                <_>
                  1 5 6 2 2.</_>
                <_>
                  7 7 6 2 2.</_></rects>
              <tilted>0</tilted></feature>
            <threshold>-0.0326323099434376</threshold>
            <left_val>0.3965829908847809</left_val>
            <right_val>-0.7240151166915894</right_val></_></_>
        <_>
          <_>
            <feature>
              <rects>
                <_>
                  8 8 1 6 -1.</_>
                <_>
                  6 10 1 2 3.</_></rects>
              <tilted>1</tilted></feature>
            <threshold>-0.0275079999119043</threshold>
            <left_val>0.3329843878746033</left_val>
            <right_val>-0.1002072989940643</right_val></_></_>
        <_>
          <_>
            <feature>
              <rects>
                <_>
                  7 8 6 1 -1.</_>
                <_>
                  9 10 2 1 3.</_></rects>
              <tilted>1</tilted></feature>
            <threshold>-0.0307229794561863</threshold>
            <left_val>0.4560197889804840</left_val>
            <right_val>-0.6571965217590332</right_val></_></_></trees>
      <stage_threshold>-0.8900845050811768</stage_threshold>
      <parent>2</parent>
      <next>-1</next></_>
    <_>
      <trees>
        <_>
          <_>
            <feature>
              <rects>
                <_>
                  1 6 6 3 -1.</_>
                <_>
                  3 6 2 3 3.</_></rects>
              <tilted>0</tilted></feature>
            <threshold>-0.0473680011928082</threshold>
            <left_val>0.8742138147354126</left_val>
            <right_val>-0.4440939128398895</right_val></_></_>
        <_>
          <_>
            <feature>
              <rects>
                <_>
                  9 0 1 6 -1.</_>
                <_>
                  7 2 1 2 3.</_></rects>
              <tilted>1</tilted></feature>
            <threshold>-8.1380745396018028e-003</threshold>
            <left_val>0.2897463142871857</left_val>
            <right_val>-0.1188471019268036</right_val></_></_>
        <_>
          <_>
            <feature>
              <rects>
                <_>
                  0 6 6 4 -1.</_>
                <_>
                  2 6 2 4 3.</_></rects>
              <tilted>0</tilted></feature>
            <threshold>-0.0737514570355415</threshold>
            <left_val>0.9167919754981995</left_val>
            <right_val>-0.3305416107177734</right_val></_></_>
        <_>
          <_>
            <feature>
              <rects>
                <_>
                  6 9 3 2 -1.</_>
                <_>
                  6 10 3 1 2.</_></rects>
              <tilted>0</tilted></feature>
            <threshold>7.0598372258245945e-004</threshold>
            <left_val>0.3427349030971527</left_val>
            <right_val>-0.9065502285957336</right_val></_></_>
        <_>
          <_>
            <feature>
              <rects>
                <_>
                  3 9 7 2 -1.</_>
                <_>
                  3 10 7 1 2.</_></rects>
              <tilted>0</tilted></feature>
            <threshold>-3.4277460072189569e-003</threshold>
            <left_val>-0.7311434149742127</left_val>
            <right_val>0.4344679117202759</right_val></_></_>
        <_>
          <_>
            <feature>
              <rects>
                <_>
                  8 0 2 6 -1.</_>
                <_>
                  6 2 2 2 3.</_></rects>
              <tilted>1</tilted></feature>
            <threshold>0.0828051865100861</threshold>
            <left_val>-0.1534512042999268</left_val>
            <right_val>0.3070968985557556</right_val></_></_>
        <_>
          <_>
            <feature>
              <rects>
                <_>
                  7 0 6 2 -1.</_>
                <_>
                  9 2 2 2 3.</_></rects>
              <tilted>1</tilted></feature>
            <threshold>-0.0529889203608036</threshold>
            <left_val>0.7529953122138977</left_val>
            <right_val>-0.4509862065315247</right_val></_></_></trees>
      <stage_threshold>-0.7207171916961670</stage_threshold>
      <parent>3</parent>
      <next>-1</next></_>
    <_>
      <trees>
        <_>
          <_>
            <feature>
              <rects>
                <_>
                  3 4 8 6 -1.</_>
                <_>
                  3 4 4 3 2.</_>
                <_>
                  7 7 4 3 2.</_></rects>
              <tilted>0</tilted></feature>
            <threshold>-0.0887620225548744</threshold>
            <left_val>0.6453918218612671</left_val>
            <right_val>-0.5280500054359436</right_val></_></_>
        <_>
          <_>
            <feature>
              <rects>
                <_>
                  2 6 11 9 -1.</_>
                <_>
                  2 9 11 3 3.</_></rects>
              <tilted>0</tilted></feature>
            <threshold>-0.1554625928401947</threshold>
            <left_val>0.4301931858062744</left_val>
            <right_val>-0.7829756140708923</right_val></_></_>
        <_>
          <_>
            <feature>
              <rects>
                <_>
                  1 2 10 11 -1.</_>
                <_>
                  6 2 5 11 2.</_></rects>
              <tilted>0</tilted></feature>
            <threshold>-0.0725714564323425</threshold>
            <left_val>0.3394457101821899</left_val>
            <right_val>-0.8154125213623047</right_val></_></_>
        <_>
          <_>
            <feature>
              <rects>
                <_>
                  6 7 6 3 -1.</_>
                <_>
                  6 8 6 1 3.</_></rects>
              <tilted>0</tilted></feature>
            <threshold>9.7597320564091206e-004</threshold>
            <left_val>0.1636829972267151</left_val>
            <right_val>-0.7016167044639587</right_val></_></_>
        <_>
          <_>
            <feature>
              <rects>
                <_>
                  1 6 6 5 -1.</_>
                <_>
                  3 6 2 5 3.</_></rects>
              <tilted>0</tilted></feature>
            <threshold>-0.0936194583773613</threshold>
            <left_val>0.8805317282676697</left_val>
            <right_val>-0.3150972127914429</right_val></_></_>
        <_>
          <_>
            <feature>
              <rects>
                <_>
                  8 7 4 3 -1.</_>
                <_>
                  8 8 4 1 3.</_></rects>
              <tilted>0</tilted></feature>
            <threshold>-0.0287839192897081</threshold>
            <left_val>-0.9424554109573364</left_val>
            <right_val>0.1245215982198715</right_val></_></_>
        <_>
          <_>
            <feature>
              <rects>
                <_>
                  4 5 3 6 -1.</_>
                <_>
                  5 5 1 6 3.</_></rects>
              <tilted>0</tilted></feature>
            <threshold>-0.0330948010087013</threshold>
            <left_val>0.8647089004516602</left_val>
            <right_val>-0.2938320934772492</right_val></_></_></trees>
      <stage_threshold>-0.9444355964660645</stage_threshold>
      <parent>4</parent>
      <next>-1</next></_>
    <_>
      <trees>
        <_>
          <_>
            <feature>
              <rects>
                <_>
                  1 5 13 6 -1.</_>
                <_>
                  1 7 13 2 3.</_></rects>
              <tilted>0</tilted></feature>
            <threshold>-0.0686499029397964</threshold>
            <left_val>0.5585559010505676</left_val>
            <right_val>-0.5040671825408936</right_val></_></_>
        <_>
          <_>
            <feature>
              <rects>
                <_>
                  6 10 3 2 -1.</_>
                <_>
                  6 11 3 1 2.</_></rects>
              <tilted>0</tilted></feature>
            <threshold>7.9427077434957027e-004</threshold>
            <left_val>0.3749487102031708</left_val>
            <right_val>-0.8000348210334778</right_val></_></_>
        <_>
          <_>
            <feature>
              <rects>
                <_>
                  4 5 4 7 -1.</_>
                <_>
                  5 5 2 7 2.</_></rects>
              <tilted>0</tilted></feature>
            <threshold>0.0594283081591129</threshold>
            <left_val>-0.3561821877956390</left_val>
            <right_val>0.7154551148414612</right_val></_></_>
        <_>
          <_>
            <feature>
              <rects>
                <_>
                  2 2 12 5 -1.</_>
                <_>
                  6 2 4 5 3.</_></rects>
              <tilted>0</tilted></feature>
            <threshold>5.3002662025392056e-003</threshold>
            <left_val>0.2916451990604401</left_val>
            <right_val>-0.6505330204963684</right_val></_></_></trees>
      <stage_threshold>-0.3060159087181091</stage_threshold>
      <parent>5</parent>
      <next>-1</next></_>
    <_>
      <trees>
        <_>
          <_>
            <feature>
              <rects>
                <_>
                  2 4 10 8 -1.</_>
                <_>
                  2 4 5 4 2.</_>
                <_>
                  7 8 5 4 2.</_></rects>
              <tilted>0</tilted></feature>
            <threshold>-0.1411512047052383</threshold>
            <left_val>0.5029808282852173</left_val>
            <right_val>-0.5897430181503296</right_val></_></_>
        <_>
          <_>
            <feature>
              <rects>
                <_>
                  8 3 4 4 -1.</_>
                <_>
                  8 3 2 4 2.</_></rects>
              <tilted>1</tilted></feature>
            <threshold>0.0882710069417953</threshold>
            <left_val>-0.1713716983795166</left_val>
            <right_val>0.4210489094257355</right_val></_></_>
        <_>
          <_>
            <feature>
              <rects>
                <_>
                  7 3 4 4 -1.</_>
                <_>
                  7 3 4 2 2.</_></rects>
              <tilted>1</tilted></feature>
            <threshold>-0.0242699496448040</threshold>
            <left_val>-0.9687979221343994</left_val>
            <right_val>0.2510339021682739</right_val></_></_>
        <_>
          <_>
            <feature>
              <rects>
                <_>
                  8 0 5 4 -1.</_>
                <_>
                  7 1 5 2 2.</_></rects>
              <tilted>1</tilted></feature>
            <threshold>0.0344888605177403</threshold>
            <left_val>0.1004222035408020</left_val>
            <right_val>-0.8868318796157837</right_val></_></_>
        <_>
          <_>
            <feature>
              <rects>
                <_>
                  7 0 4 5 -1.</_>
                <_>
                  8 1 2 5 2.</_></rects>
              <tilted>1</tilted></feature>
            <threshold>-0.0634799301624298</threshold>
            <left_val>0.7751079201698303</left_val>
            <right_val>-0.3425328135490418</right_val></_></_>
        <_>
          <_>
            <feature>
              <rects>
                <_>
                  10 5 3 7 -1.</_>
                <_>
                  11 6 1 7 3.</_></rects>
              <tilted>1</tilted></feature>
            <threshold>0.0230629704892635</threshold>
            <left_val>-0.0411296486854553</left_val>
            <right_val>0.2974331080913544</right_val></_></_>
        <_>
          <_>
            <feature>
              <rects>
                <_>
                  7 8 1 2 -1.</_>
                <_>
                  7 9 1 1 2.</_></rects>
              <tilted>0</tilted></feature>
            <threshold>2.1699079661630094e-004</threshold>
            <left_val>0.2059357017278671</left_val>
            <right_val>-0.8817710876464844</right_val></_></_>
        <_>
          <_>
            <feature>
              <rects>
                <_>
                  9 5 2 4 -1.</_>
                <_>
                  9 5 1 4 2.</_></rects>
              <tilted>1</tilted></feature>
            <threshold>-0.0282973404973745</threshold>
            <left_val>0.7801679968833923</left_val>
            <right_val>-0.0792943090200424</right_val></_></_>
        <_>
          <_>
            <feature>
              <rects>
                <_>
                  6 5 4 2 -1.</_>
                <_>
                  6 5 4 1 2.</_></rects>
              <tilted>1</tilted></feature>
            <threshold>5.2961441688239574e-003</threshold>
            <left_val>0.3186129033565521</left_val>
            <right_val>-0.7923758029937744</right_val></_></_></trees>
      <stage_threshold>-1.0150229930877686</stage_threshold>
      <parent>6</parent>
      <next>-1</next></_>
    <_>
      <trees>
        <_>
          <_>
            <feature>
              <rects>
                <_>
                  5 2 3 2 -1.</_>
                <_>
                  6 3 1 2 3.</_></rects>
              <tilted>1</tilted></feature>
            <threshold>-0.0342657603323460</threshold>
            <left_val>0.8354972004890442</left_val>
            <right_val>-0.2768990099430084</right_val></_></_>
        <_>
          <_>
            <feature>
              <rects>
                <_>
                  1 6 13 6 -1.</_>
                <_>
                  1 8 13 2 3.</_></rects>
              <tilted>0</tilted></feature>
            <threshold>-0.0329824090003967</threshold>
            <left_val>0.2993462979793549</left_val>
            <right_val>-0.8476076722145081</right_val></_></_>
        <_>
          <_>
            <feature>
              <rects>
                <_>
                  4 7 3 4 -1.</_>
                <_>
                  4 8 3 2 2.</_></rects>
              <tilted>0</tilted></feature>
            <threshold>-6.8579837679862976e-003</threshold>
            <left_val>-0.8351078033447266</left_val>
            <right_val>0.2204591035842896</right_val></_></_>
        <_>
          <_>
            <feature>
              <rects>
                <_>
                  9 3 3 3 -1.</_>
                <_>
                  8 4 3 1 3.</_></rects>
              <tilted>1</tilted></feature>
            <threshold>6.0722571797668934e-003</threshold>
            <left_val>-0.2191883027553558</left_val>
            <right_val>0.1325429975986481</right_val></_></_>
        <_>
          <_>
            <feature>
              <rects>
                <_>
                  6 5 6 1 -1.</_>
                <_>
                  6 5 3 1 2.</_></rects>
              <tilted>1</tilted></feature>
            <threshold>0.0245059691369534</threshold>
            <left_val>-0.8779361248016357</left_val>
            <right_val>0.2211620956659317</right_val></_></_>
        <_>
          <_>
            <feature>
              <rects>
                <_>
                  8 1 4 6 -1.</_>
                <_>
                  8 1 2 6 2.</_></rects>
              <tilted>1</tilted></feature>
            <threshold>-1.2393960496410728e-003</threshold>
            <left_val>0.1717047989368439</left_val>
            <right_val>-0.3138188123703003</right_val></_></_>
        <_>
          <_>
            <feature>
              <rects>
                <_>
                  5 2 3 3 -1.</_>
                <_>
                  6 3 1 3 3.</_></rects>
              <tilted>1</tilted></feature>
            <threshold>0.0335121788084507</threshold>
            <left_val>-0.2596071958541870</left_val>
            <right_val>0.8839256763458252</right_val></_></_>
        <_>
          <_>
            <feature>
              <rects>
                <_>
                  9 3 4 7 -1.</_>
                <_>
                  10 4 2 7 2.</_></rects>
              <tilted>1</tilted></feature>
            <threshold>0.0621270388364792</threshold>
            <left_val>-0.1007108017802239</left_val>
            <right_val>0.3019284904003143</right_val></_></_>
        <_>
          <_>
            <feature>
              <rects>
                <_>
                  6 3 3 3 -1.</_>
                <_>
                  7 4 1 3 3.</_></rects>
              <tilted>1</tilted></feature>
            <threshold>0.0427171587944031</threshold>
            <left_val>-0.2663410902023315</left_val>
            <right_val>0.9503312110900879</right_val></_></_></trees>
      <stage_threshold>-0.6076316237449646</stage_threshold>
      <parent>7</parent>
      <next>-1</next></_>
    <_>
      <trees>
        <_>
          <_>
            <feature>
              <rects>
                <_>
                  7 0 7 4 -1.</_>
                <_>
                  7 0 7 2 2.</_></rects>
              <tilted>1</tilted></feature>
            <threshold>0.0409668795764446</threshold>
            <left_val>-0.7777794003486633</left_val>
            <right_val>0.3211039006710053</right_val></_></_>
        <_>
          <_>
            <feature>
              <rects>
                <_>
                  6 8 4 4 -1.</_>
                <_>
                  7 8 2 4 2.</_></rects>
              <tilted>0</tilted></feature>
            <threshold>-0.0190999098122120</threshold>
            <left_val>0.2243797034025192</left_val>
            <right_val>-0.2698580026626587</right_val></_></_>
        <_>
          <_>
            <feature>
              <rects>
                <_>
                  5 6 4 8 -1.</_>
                <_>
                  6 6 2 8 2.</_></rects>
              <tilted>0</tilted></feature>
            <threshold>-0.0328765586018562</threshold>
            <left_val>0.6831158995628357</left_val>
            <right_val>-0.3255063891410828</right_val></_></_>
        <_>
          <_>
            <feature>
              <rects>
                <_>
                  9 7 2 3 -1.</_>
                <_>
                  9 8 2 1 3.</_></rects>
              <tilted>0</tilted></feature>
            <threshold>-0.0203735604882240</threshold>
            <left_val>-0.8308420181274414</left_val>
            <right_val>0.0555551089346409</right_val></_></_>
        <_>
          <_>
            <feature>
              <rects>
                <_>
                  4 7 2 3 -1.</_>
                <_>
                  4 8 2 1 3.</_></rects>
              <tilted>0</tilted></feature>
            <threshold>2.2772699594497681e-003</threshold>
            <left_val>0.2305729985237122</left_val>
            <right_val>-0.9368789196014404</right_val></_></_>
        <_>
          <_>
            <feature>
              <rects>
                <_>
                  7 7 4 3 -1.</_>
                <_>
                  7 8 4 1 3.</_></rects>
              <tilted>0</tilted></feature>
            <threshold>1.8141609616577625e-003</threshold>
            <left_val>0.0715580806136131</left_val>
            <right_val>-0.5121783018112183</right_val></_></_>
        <_>
          <_>
            <feature>
              <rects>
                <_>
                  4 7 4 3 -1.</_>
                <_>
                  4 8 4 1 3.</_></rects>
              <tilted>0</tilted></feature>
            <threshold>-8.4184734150767326e-003</threshold>
            <left_val>-0.8599032759666443</left_val>
            <right_val>0.2445935010910034</right_val></_></_>
        <_>
          <_>
            <feature>
              <rects>
                <_>
                  10 0 4 15 -1.</_>
                <_>
                  10 5 4 5 3.</_></rects>
              <tilted>0</tilted></feature>
            <threshold>-0.1776812970638275</threshold>
            <left_val>0.3811664879322052</left_val>
            <right_val>-0.2058133035898209</right_val></_></_>
        <_>
          <_>
            <feature>
              <rects>
                <_>
                  2 0 3 15 -1.</_>
                <_>
                  2 5 3 5 3.</_></rects>
              <tilted>0</tilted></feature>
            <threshold>-6.5059619955718517e-003</threshold>
            <left_val>0.3142781853675842</left_val>
            <right_val>-0.7929105758666992</right_val></_></_></trees>
      <stage_threshold>-1.2461359500885010</stage_threshold>
      <parent>8</parent>
      <next>-1</next></_>
    <_>
      <trees>
        <_>
          <_>
            <feature>
              <rects>
                <_>
                  7 5 8 2 -1.</_>
                <_>
                  9 7 4 2 2.</_></rects>
              <tilted>1</tilted></feature>
            <threshold>-0.1351079940795898</threshold>
            <left_val>0.5617114901542664</left_val>
            <right_val>-0.4231528043746948</right_val></_></_>
        <_>
          <_>
            <feature>
              <rects>
                <_>
                  3 3 12 4 -1.</_>
                <_>
                  6 3 6 4 2.</_></rects>
              <tilted>0</tilted></feature>
            <threshold>0.0389814190566540</threshold>
            <left_val>-0.1312355995178223</left_val>
            <right_val>0.2464811056852341</right_val></_></_>
        <_>
          <_>
            <feature>
              <rects>
                <_>
                  0 3 12 4 -1.</_>
                <_>
                  3 3 6 4 2.</_></rects>
              <tilted>0</tilted></feature>
            <threshold>-0.0130952401086688</threshold>
            <left_val>0.3143298923969269</left_val>
            <right_val>-0.6993054747581482</right_val></_></_>
        <_>
          <_>
            <feature>
              <rects>
                <_>
                  8 7 1 3 -1.</_>
                <_>
                  8 8 1 1 3.</_></rects>
              <tilted>0</tilted></feature>
            <threshold>2.4630999541841447e-004</threshold>
            <left_val>0.1151731982827187</left_val>
            <right_val>-0.5339102149009705</right_val></_></_>
        <_>
          <_>
            <feature>
              <rects>
                <_>
                  6 7 1 3 -1.</_>
                <_>
                  6 8 1 1 3.</_></rects>
              <tilted>0</tilted></feature>
            <threshold>1.3459470355883241e-003</threshold>
            <left_val>0.2454164028167725</left_val>
            <right_val>-0.8840836286544800</right_val></_></_>
        <_>
          <_>
            <feature>
              <rects>
                <_>
                  9 2 4 7 -1.</_>
                <_>
                  10 3 2 7 2.</_></rects>
              <tilted>1</tilted></feature>
            <threshold>0.1183547973632813</threshold>
            <left_val>0.0272145308554173</left_val>
            <right_val>-0.8085591197013855</right_val></_></_>
        <_>
          <_>
            <feature>
              <rects>
                <_>
                  6 2 7 4 -1.</_>
                <_>
                  5 3 7 2 2.</_></rects>
              <tilted>1</tilted></feature>
            <threshold>-0.0513252988457680</threshold>
            <left_val>-0.8907719850540161</left_val>
            <right_val>0.2424405962228775</right_val></_></_>
        <_>
          <_>
            <feature>
              <rects>
                <_>
                  10 9 4 3 -1.</_>
                <_>
                  11 9 2 3 2.</_></rects>
              <tilted>0</tilted></feature>
            <threshold>-5.8563862694427371e-004</threshold>
            <left_val>0.2083370983600617</left_val>
            <right_val>-0.5203521847724915</right_val></_></_></trees>
      <stage_threshold>-1.1438009738922119</stage_threshold>
      <parent>9</parent>
      <next>-1</next></_></stages></right_dat>
</opencv_storage>
